{"config":{"context_length":256,"hidden_size":64,"learning_rate":0.001,"num_layers":2,"vocab_size":49},"weights":[{"data":[0.00837685,0.00661765,-0.0235463,-0.0376747,0.0173448,0.00797758,0.0116225,0.00292621,0.0277619,-0.0200834,0.0178311,0.0291517,-0.0117689,-0.0192762,0.0359034,-0.0283181,-0.00593852,0.0024503,0.00486832,0.0107241,0.0203772,-0.0122757,-0.0106911,0.00676624,-0.021928,0.0239769,0.0299092,0.0262001,-0.0273167,-0.0104277,0.0297979,0.0359789,0.0110365,0.0163737,-0.0155261,0.0292637,0.0061713,-0.00422336,-0.0066222,0.0109589,0.0343175,0.0430196,-0.00750729,-0.0114569,0.00596645,0.0326708,-0.0456678,0.0193769,-0.012741,-0.0211657,0.0316581,0.000760452,-0.0181059,-0.0013566,-0.00453735,0.0118955,0.00836894,-0.0186246,0.0383987,-0.0191082,0.00548556,0.0123695,0.0187081,0.0326389,0.0126145,-0.0102714,0.0119282,0.0305039,-0.00153084,-0.00923836,-0.0218819,0.0226915,0.0115847,-0.0292518,-0.0275923,-0.0092222,-0.0172128,-0.0132872,-0.0207452,-0.0263321,-0.0278909,0.0415281,0.00493989,0.0138163,-0.0126816,-0.00910425,0.0251488,0.00207085,-0.0176389,-0.006739,-0.0243101,0.00495178,0.00710378,-0.0297316,-0.0293072,0.00772959,-0.0259184,0.0602095,-0.00827416,6.4726e-05,0.026373,0.0108453,0.000946306,-0.00618487,0.00721528,-0.0123974,-0.028829,0.0267102,-0.0292332,-0.0576149,0.0265188,0.00731846,-0.0257978,0.0209667,-0.00409433,-0.0196567,-0.0154641,0.000321818,0.0181831,0.0101083,-0.00041423,-0.00158401,-0.00420626,-0.00116256,-0.0154029,-0.00369025,0.000663848,0.0110089,-0.00475598,-0.00621376,-0.0103492,-0.00970896,0.0117689,0.0219693,0.0111475,-0.0151435,-0.0115962,0.0129067,-0.0377119,-0.0122983,0.0117593,-0.0241022,0.00538686,-0.0122569,-0.0471056,0.0144684,0.0226514,0.00245026,-0.0231905,0.0102625,0.0152274,-0.0270248,-0.00502886,-0.0179299,0.0341704,0.00267675,0.00761352,0.0139496,0.0146088,-0.00567212,0.0218533,-0.00882248,-0.0138014,-0.0185566,-0.000324999,0.0341395,-0.00265589,-0.00747622,0.0086482,0.0170827,0.00602267,-0.0239782,-0.0096463,0.0318422,0.00949917,-0.0129951,0.00614165,0.0219102,0.0228775,-0.0162967,0.0120588,-0.0105694,-0.000195443,-0.0275255,0.00157734,0.0207681,-0.0145677,0.0106189,-0.012261,0.0300833,-0.0122418,-0.00299568,-0.0371845,-0.0171974,-0.0129143,-0.0160204,0.000925325,-0.00195266,0.0113137,0.00380366,-0.0259207,-0.0093148,-0.015778,-0.00872676,0.0130482,-0.0358242,-0.0151032,0.00637617,0.00440146,0.0145433,-0.000571781,0.000661346,-0.0293727,-0.006482,0.0113608,-0.0282197,0.0143088,-0.0109119,0.00908683,0.0103316,0.00812196,0.00642283,-0.0127077,0.0413679,0.0100742,-0.013345,-0.0207061,-0.00553571,-0.0175175,0.0250809,0.0241198,0.00681139,-0.0310105,-0.00991449,0.0288324,0.00195005,-0.00270648,0.0198718,0.0204436,0.00213561,-0.0140827,-0.00570561,-0.00613827,-0.00209279,-0.00843567,-0.0290399,-0.0155709,0.00015226,-0.0137736,-0.0050929,-0.029507,-0.0034338,0.00844808,0.0112602,0.0258382,0.0296994,0.0508344,0.0072838,-0.011086,0.00753814,0.0115263,-0.0149493,-0.0134201,0.0184133,-0.000962491,-0.00420161,0.0170677,0.00211074,-0.0147293,-0.0170352,0.00994901,0.00789384,-0.0241679,-0.000428026,0.0188233,0.0132415,-0.0038266,-0.0246272,0.00332089,0.00227855,0.00970543,-0.0155266,0.000807699,-0.0055226,-0.0136723,0.00630795,-0.00969206,-0.00269869,0.0285511,0.0232814,-0.0145629,0.00453612,0.0435634,0.0211068,-0.0187065,0.011968,-0.0168629,0.00311737,-0.00503364,0.0136745,-0.0237503,-0.0356691,0.0124944,-0.0116563,0.00167331,-0.0307202,0.0273298,0.036436,0.0351036,0.0307542,0.00269351,-0.00275293,-0.00999345,0.002028,0.00942976,0.00504208,-0.00110047,0.0186247,0.00112717,-0.0155356,0.00222773,0.0483639,0.00116874,-0.0328915,0.0263645,0.0472651,-0.0102445,-0.0153972,0.0146402,-0.0128368,-0.0236094,-0.0020626,-0.00544846,-0.0105522,-0.0146215,-0.00802277,-0.0167181,-0.035726,-0.0393559,0.0314872,-0.0147944,-0.0132391,0.031722,-0.0120871,-0.0180179,-0.00314966,-0.00434069,0.00618205,-0.00171982,0.00261843,0.0229266,0.00236338,0.010205,0.018556,-0.0283474,-0.033728,-0.0153633,-0.00576658,-0.000215695,0.00989781,0.00897622,-0.0225973,-0.0436403,-0.0127298,-0.00424774,0.00268002,0.0268066,0.0215748,0.0184286,0.00999872,-0.00652432,-0.00363627,-0.0225086,-0.0044647,-0.0130896,-0.0183328,0.0540871,-0.00193773,0.00437271,0.0143971,-0.00186278,0.011928,0.0273005,-0.00621954,0.0429382,-0.0125351,0.00727881,0.0277261,-0.0262657,-0.000163186,0.0100117,0.00640181,-0.00863281,-0.0102468,0.0600562,0.0106201,0.0285666,0.018852,-0.00352593,0.00459706,-0.0206121,0.0325408,-0.0205776,0.0132889,0.0127508,0.022263,0.00117996,0.0179014,-0.00839967,-0.0161954,0.013398,0.00381923,0.0125945,-0.0117448,0.0375047,-0.0256192,0.0160831,0.00357229,0.0242902,0.0104691,-0.0115993,-0.0005057,-0.0160306,-0.01595,-0.0347177,0.0289716,0.0322333,-0.00413598,-0.00213146,-0.0191866,0.0345796,0.0197934,0.0373529,0.000987787,0.0167547,0.033994,0.0224299,-0.0277849,-0.023797,0.0279873,-0.00548085,-0.00108237,-0.0209526,0.0124661,0.0112639,0.0202902,0.0128056,-0.00683039,0.0121828,-0.00754868,-0.023732,-0.0256855,-0.0128496,0.0271793,-0.00339394,-0.0264194,-0.00766572,0.0252061,-0.03162,0.00794866,-0.00461782,-0.0234019,0.0543764,-0.0185006,-0.0261438,-0.0256552,0.043839,0.00510916,0.0293842,-0.0074251,-0.000623705,0.00942184,-0.00813744,0.011467,-0.00289204,-0.0359567,0.0133315,0.00615491,-0.0274208,0.0107643,-0.00977247,-0.0399428,-0.0211129,-0.00198933,0.0173625,-0.0154701,-0.0334626,0.0250483,0.00415543,-0.0310433,-0.00264697,0.029983,0.0247553,-0.00212083,0.0172839,0.00727286,0.00329106,0.00336431,-0.0207192,0.014541,-0.0354743,0.00227687,0.0233338,-0.00367541,-0.0231149,-0.000156071,0.0100406,-0.0206686,-0.0122488,0.0275988,0.00258503,0.00492912,0.0339642,0.0232269,0.024643,0.0251918,0.00181897,0.00667126,0.0292177,-0.0121253,-0.0529646,0.0178781,-0.00655123,-0.0306926,0.0125428,-0.0444727,-0.00719483,-0.0179237,0.0340633,-0.0103641,0.00312608,-0.018352,-0.0423801,-0.0232396,-0.0153214,0.0265946,-0.0161983,0.00984454,0.018494,0.0259649,0.0263052,-0.0441219,0.00407863,0.0173885,0.00860145,-0.00148514,0.0024459,-0.00168617,0.00996913,0.013717,0.0049945,0.00416704,0.00277991,1.90993e-05,-0.0314287,0.0419138,0.03762,0.035788,-0.00307163,-0.014093,-0.00144627,-0.0246279,0.0239714,0.000912438,0.0239295,-0.0146193,0.0302748,0.0131922,-0.00699802,0.00481272,-0.015494,-0.00109425,0.00969056,0.00412654,-0.00724066,-0.00308303,0.00350849,0.0133735,-0.0624001,-0.000297972,0.0153651,0.00259158,-0.012549,0.00442328,0.00263713,0.0200184,-0.0279081,0.0047507,0.00860006,-0.0125335,-0.00628674,-0.0189969,0.0101485,-0.00604959,-0.0117714,0.0208197,0.00599119,-0.0237627,0.0256519,-0.0267656,-0.00952197,-0.0137768,0.029438,-0.00343113,0.0171103,0.0174562,-0.00802446,0.0333183,-0.0182372,-0.0107661,-0.0302812,-0.00433035,0.0116554,-0.00514134,-0.0330485,0.0020793,0.0161699,0.0217903,0.0118742,-0.022874,-0.0182348,-0.0264434,0.0167679,-0.0298169,-0.0191917,-0.00546203,0.00124708,-0.0305102,-0.0050539,0.0103198,-0.00711655,0.0287771,0.0229048,0.0268273,0.024217,-0.0220059,-0.0138162,0.00788849,-0.0150608,-0.0107853,-0.0303774,0.0113599,0.00118018,-0.0196341,-0.00422668,0.0134252,-0.0215999,-0.0191312,-0.0238752,0.013756,-0.00881825,0.018934,-0.0159202,-0.0041338,-0.00441849,-0.00498144,0.0084872,0.0325142,-0.000299893,0.00972225,-0.0141677,0.0207573,-0.00412963,0.00776498,-0.0117158,0.0403632,-0.0252503,-0.0168081,-0.0350027,0.0059922,-0.0287644,-0.00669792,-0.00533654,0.0353271,0.0206946,0.000987672,0.0043209,-0.000296316,-0.015178,-0.0219425,-0.00459874,-0.0137653,0.0175147,0.0114546,0.0051641,0.0123135,0.00600175,0.00682978,-0.00701546,0.0257326,0.0140622,-0.0417703,-0.00837743,-0.0502268,-0.0225687,0.0126205,0.00741423,-0.0242322,-0.00411099,0.00425101,-0.00361948,-0.0238055,-0.0089531,0.00186316,-0.00182456,0.0214135,0.00602524,9.89377e-05,0.00355357,0.0368541,0.0395571,0.0207692,0.0265573,0.00783953,0.0158629,-0.00395854,0.00981593,0.0142223,-0.0390199,-0.0101087,-0.00400893,-0.0143528,0.0159889,0.0147815,0.0401152,-0.0228379,0.0174472,0.00795617,-0.0133512,0.0138566,0.00919947,-0.00542107,0.00882335,-0.00110593,0.0512943,0.00523805,0.0231267,-0.00863307,0.0297372,0.0109177,-0.00163948,0.0157506,0.048357,-0.0277186,-0.0179997,-0.0131376,0.020068,0.0265241,0.0343022,0.00787721,-0.0227879,-0.0303938,0.00945351,-0.0061553,-0.0616832,0.000301549,-0.0216368,-0.00916149,-0.0111265,0.00538148,-0.0110628,-0.00268075,0.0081255,0.0142975,0.0103602,-0.0535181,-0.00224373,-0.0164202,-0.00680941,-0.00381986,0.0139996,-0.0270995,0.0161722,0.00822673,-0.00751215,-0.001314,-0.00455305,0.0116675,-0.0131437,0.0178496,-0.0204083,0.0408253,-0.0424234,0.013081,0.00327081,0.0179731,0.0222775,0.00470481,0.0111026,0.00539668,0.0025694,0.000142219,-0.0109994,0.0358669,0.00126189,0.00589507,0.0129932,-0.00693091,-0.00924014,0.0324538,-0.00293143,0.0058406,-0.0459445,0.00351866,0.0103889,0.00864789,-0.0312806,0.00230482,0.0328723,0.0205168,-0.0300692,-0.00779255,-0.00255968,0.0077849,-0.0068748,0.0122452,0.011909,0.0174282,-0.0301787,-0.037157,-0.00428924,-0.0184035,-0.00751614,-0.00562977,-0.0190808,0.0172688,-0.0172168,-0.0477649,-0.00749137,0.001188,-0.0402483,-0.0116259,0.02015,0.00811235,-0.00556467,-0.0138637,-0.00741691,0.0500917,-0.013736,0.0121956,0.00238577,0.0143775,0.0287099,0.018406,0.00481442,-0.0113636,-0.0373965,-0.0295292,0.00130824,0.00303891,0.0313502,0.0159205,-0.00966078,-0.050307,-0.0306653,0.02043,0.00101454,-0.00881201,0.0168732,0.00131836,-0.00753265,-0.0316756,0.0159589,0.0284121,0.0336386,-0.0116687,-0.018628,0.0301591,-0.0307333,0.00855601,0.0217173,-0.0180452,-0.0327546,0.0236293,-0.00896982,-0.0109426,0.00360777,-0.0119907,-0.00127944,0.0521241,0.00982012,-0.0193601,-0.00221802,-0.0140979,-0.0163628,0.00266493,0.0136877,-0.0288124,0.0133838,0.027433,-0.0246416,-0.0358551,0.00570977,0.0140299,-0.00264848,-0.0221744,-0.0318871,-0.0192917,-0.0106486,-0.0200889,0.00627003,-0.0136448,0.00289633,-0.00200845,0.00280596,-0.0246808,-0.0269081,0.0310983,-0.00460918,0.00992801,-0.0401089,0.00366209,-0.023292,-0.00586915,-0.00708278,0.0147594,-0.012583,0.00714836,-0.00260405,0.0138397,0.00137798,0.034005,-0.0160728,-0.0424567,0.0284402,-0.0051976,0.000904643,0.0053233,-0.00104414,0.0072999,0.0106588,-0.0263013,-0.0243852,-0.00538918,-0.00577702,-0.0138362,-0.0235385,0.00569044,-0.0169675,-0.00391726,0.0196972,0.00874435,-0.0267976,0.0196261,0.010263,-0.0138314,-0.00517099,-0.0462551,-0.00977163,-0.0114245,-0.0332502,-0.0213526,0.0072848,0.00454205,0.0150833,0.025991,-0.00945954,0.04524,-0.0134813,0.0313397,0.00631429,0.0212299,-0.0241214,0.01437,0.0138531,0.00978469,0.0327138,-0.00241218,0.0128258,0.0273363,-0.000844907,0.0356733,-0.0355477,0.0127674,0.0283644,0.0380074,-0.00455812,0.00879666,0.0196514,0.00263285,0.0109956,-0.0274654,0.0293885,0.0117538,-0.0129352,8.63023e-05,-0.00235118,-0.0105403,0.0166295,-0.0385143,-0.0170952,0.0230642,0.00554096,0.0390168,0.00132874,-0.0367991,-0.0232176,-0.0139464,0.0118673,-0.015268,-0.00990215,-0.0273016,-0.0159152,-0.0283971,0.0314794,0.0338257,-0.00725252,-0.00629129,-0.00237259,-0.010028,0.0407577,0.0181767,0.0164858,-0.0121007,0.0346453,-0.0351527,-0.00979056,0.00587122,-0.0336965,-0.00689828,0.0469133,0.0370086,-0.00250437,0.0031183,-0.0075844,-0.0026141,0.00431473,0.00797885,-0.0111519,0.0283435,-0.0308266,0.0212832,0.0326609,-0.0144523,-0.00912598,0.027538,0.0287313,-0.0126164,0.0199144,-0.00373816,-0.00468731,-0.00358034,-0.0350491,0.0210675,-0.00975221,-0.00332892,-0.0217545,-0.0388158,0.0404893,-0.0185073,0.0188323,0.00777574,-0.0181102,0.00401336,0.00992099,-0.00145075,0.0142279,-0.0109227,-0.0257471,0.00786187,0.0336674,-0.00929382,0.00190932,-0.000226636,-0.0324558,0.0436085,0.0249241,0.0378142,0.0344755,-0.00317063,-0.0102732,0.00708789,-0.0357682,5.44995e-05,-0.00605152,0.0177243,-0.0438262,-0.0408848,-0.00488582,0.00255924,0.015451,0.00711446,-0.0316665,-0.00189321,0.040814,-0.0341884,-0.0105744,0.00186013,0.00585299,-0.0250627,0.00419369,-0.0221972,0.017597,0.0167477,-0.0104399,0.0204626,0.0280806,0.0119983,-0.0157433,0.0119821,-0.0195216,0.023047,-0.0407699,-0.0131906,-0.00498468,0.00694715,-0.00732641,0.00848089,-0.0400752,0.0131895,0.0158657,0.0284753,-0.0233125,-0.0287528,-0.00572882,0.0300678,-0.0491915,-0.0235996,0.00822274,0.0248771,-0.00621825,0.00781584,-0.0361065,0.0228672,0.00663411,-0.00250131,-0.0259398,0.0486182,0.00649947,0.0294161,0.0417748,0.0516136,0.00690423,0.0372613,-0.00252929,-0.0211657,0.00279554,-0.0234037,0.00722255,0.0304832,0.0263355,0.00540319,0.0113521,-0.00781777,0.0180771,-0.0132698,-0.00656945,-0.0116737,-0.00483929,-0.00771346,-0.0092532,0.00787029,0.0442596,-0.00996195,-0.000196436,0.0214892,0.0312679,0.00332532,-0.0106389,0.00336041,-0.0190052,-0.0178739,-0.0149362,0.00468903,-0.0294163,0.0502217,-0.0422244,-0.0240034,-0.0308929,-0.00764261,0.00909644,0.00178356,0.0204746,-0.00493477,-0.00990433,-0.0136457,0.0458938,0.00666904,0.0583704,0.0132324,0.00122691,0.00055613,-0.000502871,-0.0330144,0.0187457,-0.0194026,-0.00662788,-0.0402424,0.00258768,-0.0421787,0.00837147,-0.0185269,0.0151506,0.000379906,-0.0231431,0.0150736,-0.00616971,-0.00893857,-0.0421633,-0.0219868,0.010425,0.0102152,0.00708096,0.021148,-0.00697202,-0.00849457,0.00709404,-0.0184304,0.00856008,0.0241303,-0.0061393,-0.0262331,-0.00799844,0.0267058,-0.0241392,-0.0228251,0.00308241,-0.0200967,0.0156214,-0.00950809,-0.00221164,0.0104021,-0.0167563,-0.0303786,0.0121529,0.0317944,-0.0321689,-0.0188942,-0.00373649,0.0332067,0.00886159,-0.00195962,0.00201573,0.0305077,0.0285166,0.0289269,0.00785714,0.00287808,0.0127941,0.0214442,0.0102608,0.00722812,0.00252199,0.0189283,-0.0144135,0.0289032,0.0144769,-0.00158372,-0.035674,0.0073557,-0.0251764,-0.0135472,0.0331926,-0.0188811,-0.00116899,0.0299437,-0.0245305,0.00128582,0.00699174,0.000395385,-0.0309663,-0.0138483,-0.0173728,0.0346026,0.0124801,0.0458608,-0.00048098,0.0209588,0.0136818,0.00430161,0.0191374,-0.00871815,-0.0020407,-0.0029164,0.0210459,-0.0134713,-0.00339776,-0.0238169,-0.0239482,-0.0113863,-0.012352,0.0243078,-0.033827,-0.00262006,0.0441507,-0.0105843,0.0156819,0.0189634,0.0403594,0.0364093,-0.0461944,0.0373227,0.0172966,0.00471175,-0.00132834,0.00497799,-0.0187498,-0.0169355,-0.00844083,0.0115511,-0.0066416,0.0229202,0.0261259,-0.0200252,-0.0187179,0.0497466,-0.00137741,-0.0193383,-0.00770245,-0.0067094,0.0232224,0.00313411,0.00648328,-0.0120325,-0.00357405,0.00756211,-0.0101866,0.0421595,0.00490485,-0.0177788,0.0151658,-0.00561537,0.00302026,-0.0174346,-0.0314876,-0.0258568,-0.0272134,-0.00162822,0.0301368,0.000971815,0.0309367,-0.00518569,0.0214032,0.0170187,-0.0112802,0.00129808,-0.0175244,0.0170796,0.00638349,0.0156681,0.0235503,0.0103189,-0.023951,0.0258885,-0.0100161,0.0400643,-0.0390656,-0.012398,-0.0249293,-0.0112762,0.00593223,-0.00932606,-0.0307605,0.0138663,0.011949,-0.016407,-0.00374897,-0.034338,0.0191186,0.0127255,-0.0111245,0.0151924,0.0279339,0.0151346,0.0276004,0.0189154,-0.0195807,-0.0102721,-0.0171239,0.00472841,-0.0404135,0.0237355,-0.0150618,0.00811737,-0.0118935,-0.0258572,-0.000752774,0.000207725,-0.0153445,-0.00804756,0.00796055,0.0175317,0.0104275,0.0202058,-0.00351376,-0.00106941,0.0126988,0.0322898,0.0064715,-0.0110779,-0.00814233,-0.0148584,-0.0227105,0.00145027,0.0253859,-0.0205686,0.0223969,0.00407662,0.0370546,0.0324743,-0.0247758,0.0378832,-0.0243577,0.00477868,-0.0332159,-0.00543737,-0.0286815,0.0163507,-0.0412886,0.00113136,0.0208293,0.0020079,-0.0146032,-0.00584263,0.00376721,0.0237407,0.0243137,-0.0454068,0.0134384,0.00970074,-0.0111758,0.000342983,-0.0291919,0.00951314,-0.0253216,0.00499433,0.00717077,0.0116616,-0.0268014,0.020581,0.0101548,0.0167267,0.0101307,0.0116287,0.032477,-0.00174669,0.0181464,0.04229,-0.00790982,-0.00358682,0.00944635,0.00261135,0.0157658,-0.00179596,-0.0449834,-0.00133502,-0.00700357,0.0108913,0.0240195,0.00863213,0.0170549,0.0174265,-0.0173753,0.0472396,-0.00296869,0.0181191,0.0186636,-0.0134585,-0.00421066,0.0179844,-0.0125193,0.00784995,-0.00579596,-0.00997808,-0.00185129,0.0211663,-0.00132112,-0.00623922,0.0127564,-0.00612409,-0.00637189,0.0118629,0.0162562,0.0224027,-0.0111982,0.000983928,-0.0211705,-0.0461434,0.0256919,-0.000168893,0.0087959,-0.0120859,-0.00442962,0.00156629,0.00508304,-0.00999085,-0.0110074,0.00982493,-0.0101695,0.0024033,-0.0113513,-0.00167425,0.00397907,0.0508689,-0.0100193,-0.01585,0.00451628,-0.0272064,-0.00381388,0.00240542,-0.0117239,0.0129097,-0.00871917,-0.0357876,-0.0203799,0.0379586,-0.000928598,0.00461349,0.00882993,-0.0190403,0.0122266,-0.0394258,-0.00613641,-0.0262323,-0.0128892,-0.0124701,0.00340353,0.0115168,0.017332,0.0351206,0.0107491,0.0201902,-0.0024469,-0.0212227,0.0178747,0.0037731,0.0157732,0.00193089,-0.00495999,0.00526661,0.0114789,0.00397574,0.0241917,-0.00206215,0.0183524,-0.00469746,-0.0455238,-0.0395628,0.0149004,0.0156091,-0.023661,0.016358,0.00756032,0.0304318,0.0228629,-0.0126252,-0.0270989,-0.043328,-0.00667371,-0.000838663,0.0184543,0.0386234,-0.000114009,0.0579407,-0.0385871,-0.0226817,0.0103978,-0.000931156,0.0300749,0.00543129,-0.00872037,0.00720888,0.00454554,0.0047437,-0.0156653,-0.00782637,-0.00348687,0.0344571,0.00433275,0.0120538,-0.00506859,-0.0436188,-0.00648798,0.0102185,0.0213078,0.00163993,-0.00753319,-0.0470029,0.0324054,0.0196647,-0.0129954,-0.016734,0.0151268,0.00925509,0.00965297,-0.0361668,-0.0215609,-0.0218745,0.00397817,0.0189201,-0.0128216,0.0288925,-0.0120886,0.00423451,-0.0376303,-0.0117342,-0.0163275,-0.0221461,-0.000566988,-0.0246193,-4.64521e-05,-0.0277397,-0.030709,-0.0177219,-0.0230319,-0.0196831,-0.0129658,0.0205357,0.0369921,-0.00814298,-0.0360043,0.00238916,-0.00759086,-0.00554181,0.0268683,-0.0113744,5.40139e-06,0.0100704,0.00463658,-0.000610259,-0.00326584,0.0191213,-0.00107119,0.0385878,0.0121427,-0.00917818,0.0210467,-0.0171469,-0.0224457,0.000395657,0.00975698,0.00424065,-0.00198183,0.031813,-0.00184839,0.00223297,-0.00108959,-0.00046251,-0.0251701,0.000435808,0.00472879,0.0192726,0.0289393,0.0210287,-0.0114426,-0.0140821,-0.000999471,0.0408976,0.0201137,-0.0130643,0.0146611,0.00118265,-0.0190234,0.0322964,0.00270244,0.0244245,0.0164962,0.0244232,-0.0360548,0.026502,0.0192597,-0.0102634,0.0102109,-0.0291421,0.011364,-0.0270573,-0.0194589,-0.00409545,0.0157001,-0.0354578,0.00242743,0.0196084,0.00644214,0.00823815,0.0034177,0.0235276,-0.00111726,0.0462522,-0.0199595,0.00583726,-0.00722749,-0.0048251,-0.0201428,-0.00327521,-0.0275835,-0.0179276,-0.0604817,-0.018641,0.0097738,0.0138375,0.020684,-0.0298474,0.0174596,0.0016198,-0.0114242,0.0239351,0.0186311,0.0201582,-0.0149226,0.00761808,0.0256951,-0.0117211,0.00223218,0.0140011,-0.0308277,0.00665115,-0.00563283,0.0225311,0.0106855,-0.00256079,-0.0100831,-0.00283653,0.0204084,-0.0273391,-0.0138026,0.0224172,-0.0105955,-0.0121763,0.0103555,0.0166736,-0.0034221,-0.00222053,0.00285316,0.00821017,-0.0281138,0.00168343,-0.00130263,-0.0105799,-0.0444139,0.0158331,-0.00674951,-0.0132449,-0.0216472,0.0101588,0.0126694,-0.00116492,-0.00641478,0.0116735,0.00308639,-0.00324857,-0.0269587,-0.0160936,0.0146538,0.0150477,-0.00800052,0.0151682,-0.0084466,-0.0219873,-0.0167222,-0.0217018,-0.0117708,0.0275471,0.0338306,-0.00495944,-0.0468736,0.0102786,0.00729336,-0.0190524,0.0259921,0.00309618,-0.00198475,0.0187268,0.0248691,0.00256806,0.0247288,0.0233734,0.0123869,0.0142522,-0.0154647,-0.0361868,-0.00458866,-0.0228792,0.000950083,-0.0236126,0.000851441,-0.0122373,-0.030448,-0.035007,0.0266817,-0.00780753,0.0203573,-0.044234,0.0101075,-0.00539075,0.0157711,-0.00430528,-0.00964318,-0.0214274,0.00110262,-0.0404249,-0.00890571,0.0244276,-0.0176758,0.0259427,-0.0148589,-0.0182676,0.0180969,0.00274723,-0.0152464,0.0345506,-0.0226728,-0.00589406,0.00309872,0.01161,0.0380031,0.0194482,0.015176,-0.000678265,-0.0187243,0.0209245,-0.0114686,-0.026545,0.0241296,0.0174587,-0.0242803,-0.00339806,0.000242358,0.0176234,-0.00244037,0.00750862,0.0096182,0.00230504,0.0147812,0.014403,0.00929774,-0.000500767,-0.0133896,-0.00516404,-0.0351039,-0.0227526,-0.0106704,0.0219342,-0.00170143,0.0117876,-0.030177,-0.000301053,0.00624515,-0.0121279,-0.00639693,-0.0107195,-0.0667104,-0.0135009,-0.0116171,-0.022816,-0.0131233,-0.00445729,-0.0428153,0.0218721,0.00467559,-0.00994757,-0.00426522,-0.0329342,-0.0342267,0.0171678,-0.0326608,0.00760285,-0.000891853,-0.02499,0.00567543,0.00818677,0.0389713,-0.0152238,0.032589,-0.0219359,0.043889,-0.0113021,-0.0305715,0.00691503,0.00183175,-0.0219395,-0.00422936,-0.0118856,0.0175682,0.0174927,-0.0468966,-0.0389945,-0.000587426,-0.000929565,-0.0530544,-0.00137908,0.000512324,0.0106713,0.0101034,0.0113741,0.0394246,-0.000172233,0.0119957,-0.0249178,0.0211814,-0.00607222,0.00204099,-0.0400979,0.0152367,-0.0139345,-0.0218388,-0.0135528,0.0293599,-0.000754024,-0.0305004,0.0204172,0.00704216,-0.0152307,-0.000922995,0.00824605,0.00954049,-0.0195294,-0.00727243,-0.00451856,0.0027472,0.0150337,-0.00672509,0.0129662,0.0040601,0.00844429,-0.0179552,0.000634368,0.0230903,-0.00122439,0.0403494,0.0284202,-0.0157904,-0.00475924,0.0219826,0.00953827,-0.000364805,0.004407,-0.0132027,-0.0137122,0.0186847,-0.000695335,-0.00299568,-0.0121522,-0.00407027,-0.0118591,-0.00497033,-0.0200132,-0.00935652,0.00706023,-0.0211226,-0.00459226,-0.015329,0.0112623,0.00389151,0.00217258,-0.0366657,0.0457061,0.00792526,-0.0176263,0.038625,-0.0020046,0.00501748,-0.018095,-0.00086054,-0.0479726,0.0169397,0.0047062,0.000665434,0.00417185,0.0176899,-0.0225265,0.00655462,0.00963874,0.00472253,-0.0277087,0.00855063,0.0212536,0.0146853,0.00750319,-0.00782475,0.0320779,0.00291104,-0.0163239,-0.00296612,-0.00100305,-0.0338167,-0.000767693,0.0280005,0.0426987,0.0445102,-0.0356352,0.0247708,0.00866572,0.0171041,0.0266061,-0.000326906,-0.00573143,-0.0137891,0.038527,0.000977215,-0.0165864,0.0169725,-0.00766986,-0.0114252,0.00297122,0.0132493,0.0284013,0.0102263,-0.01953,-0.00335443,-0.0193536,-0.0144881,-0.000199822,-0.00321113,-0.0472991,-0.00393519,0.0248372,-0.000395204,0.0202598,-0.0283278,-0.00425369,-0.0221037,-0.00531874,0.0425057,0.0054694,-0.0364285,0.0180251,0.0243088,-0.00377638,-0.0267411,-0.0322062,0.0265288,0.00327456,-0.0740645,-0.00767134,-0.000725895,0.0182236,-0.0101129,0.0163597,-0.0124798,0.00174137,-0.00240529,0.0126737,-0.000261305,-0.0550426,-0.00545536,-0.00561303,0.0231641,-0.0110224,-0.0176326,-0.00489405,-0.0235946,0.0176302,-0.00975844,0.00704195,0.0144816,0.0258026,-0.00294733,0.0286469,-0.0124702,-0.0340188,-0.01823,0.0244326,0.0132689,0.00728266,0.0418247,0.0190448,-0.0251008,0.0257945,-0.0084482,-0.0169089,-0.011835,-0.0275683,0.00424612,-0.00658706,-0.0079313,0.019033,0.00988116,0.0165998,-0.0154118,-0.00906752,0.0141648,0.0192042,0.0233202,0.00638815,0.0134345,0.0205254,-0.00549685,0.0237955,0.009705,0.00379141,0.00374091,-0.0182706,-0.0160835,0.0317306,-0.0436865,0.00272635,-0.034107,-0.0147117,0.0265138,0.0243651,-0.0314087,0.00536986,0.0184672,0.0317243,0.00428451,-0.00043416,-0.0147026,0.00816345,-0.00896579,-0.0141435,-0.00713739,-0.00771199,-0.00770906,0.00489596,-9.05666e-05,0.0154544,-0.0173516,0.00578327,-0.0382962,0.0251315,-0.00940235,0.0187739,-0.0214658,0.00364007,-0.0192258,-0.022443,-0.000149346,0.0167331,-0.0191155,-0.0129179,0.0141214,0.00459459,0.0199533,-0.0355211,0.021352,-0.0113358,0.0146822,0.00277718,-0.000140563,0.00495057,0.0035482,0.00948751,-0.00598428,-0.00711527,-0.00914243,-0.00478732,0.0412129,0.0171109,-0.0190602,0.0172505,0.018257,0.00526498,0.000523006,0.00325638,-0.00595437,-0.0294179,-0.00969675,0.018351,0.0189733,-0.00302041,0.0296522,-0.011551,-0.00507988,-0.0371747,-0.00349357,-0.0327899,-0.0156144,0.018284,-0.00631246,-0.0456377,0.030262,0.0302521,-0.0171085,0.0243295,0.0335638,0.0165469,-0.0353331,-0.0132749,0.00731484,0.00748894,-0.0127249,-0.0299941,-0.00795065,-0.0268531,0.00844139,-0.0290959,-0.0139434,-0.0370816,0.0113324,0.00751367,0.00641576,0.00897129,-0.0154731,-0.0169231,-0.0309841,-0.014239,-0.0238256,-0.0282567,0.0260531,-0.00140662,-0.00599276,-0.0078807,0.0218951,-0.0236229,7.12457e-05,-0.0207946,0.00477634,-0.00366314,0.0258162,-0.00190075,0.0162945,0.026652,0.00143582,-0.0183104,-0.0198442,-0.0247331,0.00669422,-0.0160321,-0.0129803,0.00041127,-0.00618045,0.0129029,-0.0063739,0.0101102,0.00448746,-0.0320385,-0.0146406,0.00874565,0.00895197,0.0143943,0.0249558,0.034791,0.00386673,-0.00288693,-0.0170919,0.0249503,-0.00992419,0.00128626,-0.013887,-0.0109681,-0.00381972,0.0133489,0.012132,-0.0092435,-0.00777986,-0.022677,-0.00489535,-0.00343588,-0.00609395,0.0116334,-0.00635353,0.0234414,0.0262872,0.010211,-0.0165462,-0.00222418,-0.00724392,0.0190903,0.000310014,-0.0154248,0.0243421,-0.00320613,-0.0246373,-0.00524755,-0.0231142,0.0127251,-0.0187636,-0.0183999,0.0275829,-0.0175118,-0.0134015,0.00557848,0.00915073,0.00145251,0.0178836,0.0207794,0.00382202,0.0109592,-0.013099,-0.0377318,-0.0309213,0.0242971,-0.00631554,0.0055815,-0.0132145,0.0277142,0.0404856,-0.00630372,0.0194198,0.00110009,-0.00182009,-0.00539881,0.0415986,0.0126939,0.0208521,-0.036739,0.00918974,0.00638229,0.00574667,-0.0329859,-0.0443313,-0.0222854,0.0184127,0.00396603,-0.0340079,0.023855,0.0333579,-0.0334714,0.000878155,0.0195142,0.013401,0.00323712,0.0305914,-0.0235584,0.00921779,-0.00752084,-0.00105821,-0.00475229,0.00427384,-0.0542414,0.0160016,0.0108492,0.0132833,0.0141745,-0.00412527,0.0218593,0.0201997,-0.0397396,0.0331968,0.0118379,0.00879345,0.0190241,-0.0359762,0.0107596,-0.00266784,-0.00191602,0.00457456,0.0142734,-0.0301727,0.0244522,-0.0172438,0.00730144,-0.0092905,-0.0296643,-0.00721376,0.0124984,0.0138983,0.00732681,-0.0146396,-0.020946,0.0326278,0.0323372,-0.000533078,-0.0105141,0.00218276,0.00691275,0.0208183,-0.0341087,-0.0014071,-0.0114168,-0.0138377,0.00934601,0.00178717,0.00929816,-0.0278072,-0.000306422,0.0088893,0.0379595,0.0051507,-0.00756209,-0.00767594,-0.00963992,-0.0215693,-0.00869651,0.00175171,0.025758,-0.0213367,0.000368229,-0.00727455,-0.00894525,-0.0100633,-0.0426505,0.00729852,-0.0131077,0.0178444,0.0289489,1.17705e-05,0.0297659,-0.023022,0.0143554,0.000899765,-0.00714622,-0.0257605,-0.00882766,-0.00447548,0.0206422,0.0293977,-0.0107738,-0.0184264,-0.0230565,0.00185154,0.0179699,-0.0106771,-0.0127207,0.0031389,-0.028,-0.0157176,0.0101658,-0.0490707,-0.0110572,-0.0165284,-0.0343105,-0.0180866,0.031158,0.0214246,0.0127676,0.00666024,-0.0285198,0.012715,0.0052988,-0.0181589,-0.0297392,-0.0306062,0.0243859,0.0111421,0.0126609,0.0155516,-0.0128976,-0.00907073,0.0306182,0.0153753,-0.0132191,0.00300925,0.00177494,-0.00373194,-0.028852,0.0097709,-0.00427912,0.00504527,0.0305425,0.0355536,-0.00487717,-0.0235677,0.00573377,0.00600434,-0.00293244,0.0125846,-0.000987542,0.000394772,-0.0232232,0.0246206,-0.0190808,-0.00897817,0.00803633,-0.0166572,-0.0233751,-0.0100961,-0.0174642,0.00768801,0.0306868,-0.00889508,-0.00846549,-0.00645789,0.0104482,0.012246,0.0140108,-0.0271502,0.0162126,0.0113733,0.00149777,-0.00708341,-0.00421686,0.00747112,0.0204203,-0.0436091,-0.0182539,0.0164139,0.00482394,0.0109845,0.00246194,0.0130008,-0.00443069,0.0152192,0.0022271,5.12559e-05,-0.0162165,-0.0307342,-0.0218561,0.0377444,0.0338429,0.00786666,0.0145877,-0.0210635,0.0221552,0.0174028,0.0296705,0.00547007,0.0274056,-0.0187782,-0.0261854,0.0328474,-0.0211351,-0.000852675,0.0194854,-0.0194495,-0.00652629,-0.00656474,-0.0042992,-0.00364749,0.0102294,0.0054593,-0.00706959,-0.0168491,0.00338531,0.0183997,0.011079,0.0442787,0.0444451,0.0268699,-0.0190941,-0.00887494,0.0346064,-0.0066988,-0.0259724,0.00600038,0.00496936,0.00307924,0.0293229,0.0169925,0.00163916,-0.00273984,0.00339119,0.0566787,0.0197078,-0.0271204,0.015697,0.00602817,-0.0121637,0.0397997,0.00993886,-0.0364789,-0.00493513,0.0166343,0.0244308,0.0359607,-0.00527098,0.000485098,-0.00158573,0.0305038,0.0248679,-0.0034268,0.000165623,0.0165103,0.0075202,0.0124045,0.00929655,-0.000120426,-0.00654198,0.0309482,0.0105718,-0.0210922,0.0281456,0.0342215,0.00328624,0.0368034,-0.0228841,-0.0247323,0.0126029,0.0043767,0.0200554,-0.0169982,-0.0175284,0.0018948,0.0178519,0.0177813,-0.00680333,0.0226251,0.00553963,-0.0138333,-0.00350951,0.030307,-0.00234216,-0.0178873,-0.0163206,-0.0137615,0.0082363,0.0185699,-0.0358044,-0.0246639,0.000447851,-0.00991827,0.00227629,-0.00950095,-0.00420775,-0.00726892,0.0301183,-0.00165682,0.0148173,-0.027041,-0.024836,0.00629053,-0.0207317,-0.0118182,0.0234899,-0.016518,-0.0262141,0.016531,-0.0220344,0.00578661,-0.00554986,-0.0210385,0.00378427,-0.00254832,-0.00464242,-0.0177847,-0.0022728,-0.00322038,0.0161156,-0.0155762,-0.00623836,0.00126155,0.0221336,0.0093684,0.0149443,-0.00325455,-0.00874918,0.00339877,-0.0289548,-0.0141702,-0.0126119,0.0319194,-0.0288706,-0.0358542,-0.0102864,0.0247251,0.0147395,0.0559644,-0.00373163,0.00174227,9.80077e-05,0.0163817,-0.0140696,-0.00664238,-0.000149665,0.00773855,0.0190063,0.00845335,0.0121813,0.0225554,-0.0205093,-0.0253088,0.0174272,0.00126621,-0.00858368,-0.00848511,0.00296803,-0.0191331,-0.0121953,0.0144702,-0.0116573,-0.00414162,0.0284281,-0.00321232,0.0215389,0.0065078,0.00340541,-0.0213127,0.00481472,0.0329056,-0.0374419,0.00630556,0.0225882,0.0074936,0.0103251,-0.00529934,0.0165222,0.0178394,0.0309946,-0.00550396,0.0145229,0.00549809,0.01632,0.0210984,-0.0133887,0.0137246,-0.023253,-0.037443,0.0230171,-0.0309894,-0.0392334,0.0311043,-0.00649095,-0.0333963,0.00589145,0.02634,0.0119013,-0.0128931,-0.0219554,0.0294967,0.0115286,-0.0120539,0.0157009,0.0143115,0.00316465,-0.00638119,-0.00677576,0.0150697,-0.019798,0.000202151,4.21472e-05,-0.00495169,-0.00514157,0.0107462,0.0170488,0.0204817,-0.0356023,-0.00164838,-0.0198691,-0.0009296,-0.0242918,0.00431166,0.0038478,0.0246145,0.0112433,0.0244942,0.00323168,0.0104209,0.0286758,0.0222368,-0.00752359,-0.025075,0.0094743,0.0267552,0.0261318,0.000213702,-0.00204602,0.017104,-0.0230086,-0.0132332,-0.0101811,-0.0284236,-0.0134205,0.01414,-0.0242807,0.0193348,0.0288778,0.00417672,-0.0203649,0.0108606,-0.00637723,0.0052643,-0.00750526,0.0164494,-0.0162411,0.0112742,-0.00394863,0.00859958,-0.0187603,0.0285793,0.0285995,-0.0318602,0.00529545,-0.00300678,-0.00558328,0.00197258,0.00827505,0.00530253,-0.00428791,0.00763542,0.00259444,0.0432856,-0.00761249,-0.0261377,-0.0218818,0.0208249,-0.00249817,-0.00372831,-0.0133773,-0.00209133,0.00709949,0.038657,-0.0135909,0.00621383,-0.0103742,0.00486442,-0.00309572,0.000460482,0.00263622,-0.00821152,0.023538,0.012823,0.00491419,-0.0506559,-0.0158985,-0.0124122,-0.031172,-0.0289429,0.00177717,0.0109331,-0.0293729,0.0115549,0.0262659,0.00156892,-0.0055705,0.00174292,0.00249795,-0.00516205,-0.00468949,-0.00673141,0.02676,-0.0300045,0.0170555,0.00587679,0.023097,-0.00432029,-0.0135339,-0.00524333,-0.0110959,-0.0108032,0.0164966,0.0192083,-0.00853006,0.0105186,0.00653364,0.0131531,0.0248547,-0.0255301,0.0150424,0.0207112,-0.00895312,0.00928707,2.25901e-05,-0.0341727,0.0163572,0.0249812,-0.0015077,0.0165582,-0.000492236,0.0330925,-0.00837981,-0.0216396,-0.00254831,-0.002087,-0.0188874,-0.0093175,0.00391251,0.0363474,0.00804505,-0.00189809,-0.00556703,-0.00438454,-0.0124728,0.003193,0.0581906,-0.00789546,-0.00555336,0.000159904,-0.00894009,0.0201902,-0.0119222,-0.0471049,-0.0152272,-0.0182364,-0.0398822,0.0398423,0.00695857,0.00170323,-0.00135969,0.0300416,0.0260185,-0.00164062,0.0144302,0.0158833,-0.0057728,-0.00679268,-0.0297821,0.00193104,-0.00216614,0.0100468,-0.0414884,-0.00546422,0.00753461,0.01003,-0.00034205,0.00751629,0.0139076,-0.0130983,0.00576746,0.046518,-0.00413295,-0.00394503,-0.0145697,0.0056427,0.00973328,-0.0151631,-0.0242345,-0.00259569,-0.00730424,-0.0111254,-0.0273925,-0.0166334,0.0211507,-0.0324459,0.00315418,-0.000598759,0.0216496,-0.0036931,0.0288862,-0.0149679,0.0257615,0.0129347,0.0210709,0.00630531,0.00943826,-0.0191384,0.00224089,0.0185866,-0.000674757,0.041736,0.0108203,0.00492076,-0.0125984,-0.0125164,-0.00272851,0.00541333,0.036712,0.0309383,0.0131657,-0.0139525,0.0155987,-0.00479997,-0.0255477,-0.0155041,-0.0139873,0.00286184,0.0244199,-0.0147589,0.0270749,0.0195353,-0.0204165,-0.00628676,0.00439411,0.0139481,0.0120672,-0.00726284,0.00952056,-0.0194424,0.0144153,-0.00168785,0.00102568,-0.0304733,0.00789105,0.00670555,-0.00920575,-0.0017181,-0.00192027,-0.0198475,-0.00722688,0.0155144,-0.010741,0.00291015,0.0341135,0.0287851,-0.00941398,-0.0140001,0.0496737,-0.00357831,-0.0261585,-0.0356825,-0.01755,0.00067065,-0.000162621,0.0111405,0.00986623,-0.0226748,-0.0105452,-0.00668442,0.00561579,-0.0543543,-0.0149859,0.00772295,0.00386083,0.0152563,0.0375333,0.00851494,-0.0250213,0.00788253,-0.0492403,-0.0102783,-0.001743,0.0199086,-0.00741044,-0.0279277,0.00735669,0.0211283,0.0239054,0.012146,-0.00706551,0.0200893,-0.0142812,-0.00485226,0.00824918,0.00766945,0.0172152,-0.0133835,0.00656174,0.0271106,-0.0168277,-0.0185201,0.00842263,0.00536248,-0.0180319,-0.00839551,0.0109314,0.0130208,0.0135749,-0.0114137,0.0150971,-0.0188803,0.00825169,0.00315089,-0.0040246,-0.0021892,0.0147709,0.0147295,-0.0167402,-0.0178089,-0.00241358,-0.00645868,0.0175014,-0.0295579,0.0168085,-0.0109008,0.00280893,-0.0154684,0.0406707,0.0135752,-0.025674,0.00273258,-0.020621,0.0111498,0.00986613,0.00116086,0.01157,0.0331682,-0.0198544,0.0142506,-0.0549549,-0.00723149,0.0231065,-0.0130105,0.010542,-0.00920137,0.016636,-0.0043203,-0.00970744,0.0174912,0.0115343,-0.0438375,0.0382831,-0.020243,0.000520203,-0.0128889,-0.00177484,-0.0318264,0.00937388,-0.00628883,-0.0111002,-0.0246219,-0.0135551,-0.0360865,-0.00807341,-0.00345176,0.0119777,0.00363107,0.00749653,0.0197337,0.0276051,-0.0136666,-0.00640484,0.0221426,-0.029534,-0.0130921,-0.0294005,-0.0078606,-0.0181804,0.0372701,0.00825931,-0.00958488,-0.00172984,0.00400144,0.0245085,-0.00312888,-0.0132178,0.000492163,-0.0189924,-0.0133134,-0.0206829,0.0552377,-0.0126949,-0.00696124,0.0208878,0.0361564,-0.0140074,0.00583896,0.00506259,0.0148424,0.00313983,0.00892662,0.018447,0.0183931,-0.00349428,0.00723854,-0.00838376,0.000953782,0.0131647,0.0171887,-0.00688683,0.0145873,0.0216559,0.0199277,-0.00363384,-0.00108076,-0.00296124,-0.00921187,-0.0375099,-0.0228182,0.0138037,-0.0132829,0.0220833,-0.0377239,0.0103122,0.00988997,0.0192795,-0.0242884,0.0124758,0.0285822,-0.0134182,0.00659284,-0.0122811,-0.00214196,0.0188936,-0.0296247,0.0296479,0.0194688,-0.0516355],"shape":[49,64]},{"data":[0.0549288,-0.0324942,-0.000815902,-0.000108804,-0.0127278,0.0263186,-0.023572,-0.0280809,-0.0013466,-0.0233888,0.0117642,-0.00420447,0.0200523,0.0118356,0.0144351,0.0341092,0.0313874,-0.0100789,-0.0150285,0.0220814,-0.0143382,0.0441032,0.016682,-0.0028157,0.00703478,0.0165567,0.00517065,-0.0148596,-0.00748993,0.00348877,-0.0127644,0.00778555,0.00736831,-0.0179749,-0.00566028,0.0117786,-0.0176134,-0.0246021,0.0312686,-0.0278674,0.0215249,-0.00861189,-0.00332014,-0.0112184,-0.00227252,-0.0149476,-0.0354505,-0.014799,-0.0134729,0.0176029,-0.00422275,0.0150134,-0.00131449,-0.00837471,0.0146113,0.024857,0.0147685,-0.0248707,-0.0162009,-0.0246602,-0.00720008,0.00710065,0.034853,0.00625636,-0.00694049,0.0274118,-0.0200528,0.0199614,0.00428453,-0.0114478,0.0105217,-0.024063,0.0197595,0.00334585,-0.00130896,0.0115798,0.00614766,0.00305939,-0.0339886,-0.00662244,0.0254889,-0.0102701,0.0114651,-0.0106004,0.00664027,0.0107589,0.031702,-0.00274787,0.00178267,0.00700971,0.0262115,0.0200573,-0.00201985,-0.0154326,-0.00135087,0.0289378,-0.00357515,-0.00621366,-0.0176939,-0.0316093,7.19352e-05,-0.00696943,0.00390511,0.0735645,-0.0105433,-0.0156471,0.0246543,0.0476877,0.0167634,-0.0224009,-0.0136422,0.00883962,-0.00936274,0.0171259,-0.0175283,0.0180024,0.00191209,-0.026706,-0.0126435,0.0125655,-0.0277731,0.0126008,0.0109202,0.0112333,-0.0179915,0.0152765,0.00643521,0.00619519,-0.00981688,0.00765961,0.0177176,0.00965989,-0.0429251,-0.00323892,0.031019,0.000423575,0.00504178,-0.029512,0.0197474,0.0030103,-0.00609887,-0.0116898,-0.00721705,-0.0108027,0.0140201,0.0133885,0.0186006,0.00485223,-0.013673,-0.0112211,-0.032395,0.0176415,0.0347911,-0.00136392,0.0146374,0.00928916,0.0105636,0.0262437,0.015214,0.0154781,0.0043843,-0.014317,-0.0115217,-0.0344972,0.0274674,0.0123934,-0.0204449,0.0168162,-0.00108993,0.0207795,-0.00836483,0.0233693,-0.0203101,0.0257267,-0.0088726,0.012441,0.00160056,0.0140896,0.0126197,-0.0144172,0.0116784,-0.00213245,-0.012801,-0.0248093,-0.003502,0.00494645,0.042904,-0.0594372,-0.0323204,-0.000239306,0.0342025,0.0199324,0.0003133,-0.00776828,-0.0203897,-0.0410438,-0.0030651,-0.0052722,-0.0203118,-0.0194895,0.0383928,-0.0234341,0.00943209,-0.0118498,-0.0066972,-0.00162209,-0.00257096,0.00880728,0.0187796,-0.00531479,-0.0149656,-0.00974122,0.0109883,-0.00480009,-0.00510936,0.00223062,-0.0185984,-0.00579037,-0.0373051,0.00977026,0.00686089,-0.00620375,0.0175661,0.0267458,-0.0409428,0.0357748,-0.0517144,0.0108519,0.036329,0.0158127,0.000158229,0.0276914,0.0346643,0.00687211,-0.0120047,-0.018001,-0.0122259,0.0403141,-0.00538634,-0.0197758,0.0135464,0.0134128,-0.00370728,-0.018279,0.0298312,-0.00405043,-0.0174881,0.0150656,0.00377842,-0.00121812,-0.0206906,0.00508008,-0.0100827,-0.00746702,0.00251253,0.0136594,0.0104109,-0.00349003,0.00619727,0.022517,-0.00488991,0.009173,0.00131708,-0.00652443,-0.00812787,0.0115282,0.00228853,-0.024791,0.0228744,0.0050425,0.0136891,0.00313017,0.00745865,0.0140533,-0.0168983,0.0049088,0.00354007,-0.00552207,0.0156311,0.0101156,0.00982786,-0.0141005,0.00389417,0.0448039,-0.0111531,-0.0246858,0.00114301,-0.0104784,0.0116255,0.0102123,-0.0402403,-0.00268175,0.00170021,-0.00140506,-0.0234686,0.0472908,0.0154848,0.0114317,-0.0235017,-0.00226085,-0.0530206,0.0309496,0.000667923,-0.00187022,-0.00938172,0.0125352,0.0252041,0.0102278,0.02394,-0.00244644,-0.0402332,0.0325142,0.0186954,-0.0280057,0.029655,-0.00351785,-0.0360751,-0.00639215,0.0227116,-0.0363716,-0.0124566,0.00621583,0.00765511,-0.0515476,-0.00988705,0.0133109,0.00832969,-0.0133446,0.0248549,-0.00190771,-0.00290183,-0.016316,-0.0270141,0.0119387,-0.0086326,-0.0130628,-0.000313614,0.00976642,-0.0179424,-0.0146864,-0.00886044,0.0473018,0.0152876,0.00563002,0.0274701,-0.00606191,-0.00161152,-0.0017092,0.00837494,0.0330829,-0.00294976,-0.0161921,0.040454,0.0165492,-0.0132899,0.00878284,-0.0147468,0.0277699,0.0128004,-0.0259472,0.0144437,-0.0155462,0.00624851,-0.0154077,0.0151633,0.0159049,0.00428112,0.00187967,0.0163982,0.0236815,0.0280093,0.00585927,-0.0288188,-0.0107196,-0.0357918,0.0102222,-0.0109148,-0.0146353,0.00271785,-0.00286347,-0.034677,0.0186612,0.0251375,-0.0192805,-0.00580601,0.0232901,-0.00161922,-0.0208381,0.00168871,0.00630252,-0.0091577,0.0368181,-0.00331184,-0.0413386,0.0024695,0.0126478,0.0253217,0.00468178,-0.00550096,-0.0318657,-0.000600343,0.0265417,-0.00355171,-0.0219139,-0.0426175,0.0167601,0.0120753,-0.0125832,0.0426417,-0.001048,0.00756265,-0.0349846,0.033638,-0.0139616,0.00404024,-0.0195297,0.00684295,0.032134,0.0362649,-0.00651335,-0.0247654,-0.0100236,0.0188816,0.0402604,0.00236733,-0.0452951,0.0177672,-0.0152416,0.0165707,0.00983031,0.030858,0.0105929,0.0206318,-0.004,0.0128664,-0.0193927,0.0147862,0.0369808,-0.0118919,-0.0294842,-0.00794854,-0.0105296,-0.00599294,0.0140461,-0.0118487,0.00388616,0.0184993,0.0142906,0.0157184,0.0133567,0.0253289,0.00423885,0.0208369,0.00920757,0.0190443,-0.013361,0.00893332,0.0238278,3.85671e-06,-0.027863,0.00227546,0.0069772,0.000693489,-0.00692837,0.0329796,0.00429158,0.00865617,-0.0275374,-0.00916352,0.00143809,0.0317006,0.032198,0.0171142,0.0188482,0.0263845,0.017489,0.0360927,0.0162781,0.00320755,0.0206327,-0.00477197,-0.0370288,0.0376683,-0.00187373,0.0111766,0.00498842,0.00464286,-0.00704843,0.0414214,-0.0378507,0.0384076,-0.0115413,0.0118322,0.00558313,-0.015639,-0.0145511,0.00683809,0.0396146,-0.00664001,-0.00676706,-0.00885248,-0.0124015,0.00887069,-0.0218754,-0.00898382,0.000315114,-0.0337808,0.00952344,0.0187731,-0.0160151,0.00185522,0.0218179,-0.00620006,0.0193653,-0.00283768,-0.0408435,-0.00939296,-0.00814791,0.0252339,0.0265409,-0.010221,-0.0105556,0.00642242,0.0123673,-0.000964984,0.0778073,0.0109854,0.00684528,-0.00166923,-0.0234977,0.0148949,-0.00800636,0.00555483,-0.0415103,-0.0175307,0.00480821,0.00811357,-0.0297522,-0.032022,0.0256997,-0.0150954,0.0073689,0.00288568,-0.00735076,0.0305186,-0.00830253,-0.0173947,-0.0121779,0.0125399,-0.0423037,0.0241224,0.00909237,-0.000258954,-0.0131057,-0.0270189,-0.00954545,0.0284397,-0.0323235,-0.0221375,-0.0272406,-0.0196839,0.0213054,-0.00131511,-0.0355926,0.011116,0.00737761,0.0282033,-0.0267531,-0.00748599,0.00982445,-0.0129296,-0.00823692,-0.00720044,0.0256355,0.0174515,-0.0271515,0.024969,0.0114759,-0.00672508,0.0247303,0.00261447,0.0285989,7.31397e-06,-0.0182177,0.022339,-0.0106618,0.013604,-0.0229459,-0.014407,0.0213095,-0.0262419,-0.0157595,-0.0087289,-0.0275577,-2.59583e-05,0.00624954,-0.0135747,0.0119057,-0.00576624,-0.017799,-0.0214647,0.0223765,0.0156927,0.00601535,0.0144532,-0.0155188,0.0227425,0.0202585,-0.00884983,-0.0195806,-0.00538677,-0.0187136,0.0214447,0.00608443,-0.0598987,0.00524464,0.00692829,-0.0164334,-0.0374867,-0.0115144,0.0420135,0.0043886,0.00135589,0.0392313,0.00501642,0.0023449,-0.0136152,-0.00122786,-0.0154428,-0.00569963,0.011603,-0.00787387,0.0332043,0.00299577,0.00978349,-0.00284187,-0.0329117,-0.00107086,-0.0403598,-0.00846107,-0.00537026,-0.00696719,-0.0272306,0.0127303,-0.0040037,0.00698011,0.00137643,-0.00839864,-0.0089952,0.0171905,-0.00886663,-0.00339109,0.000701899,0.0142367,-0.0052387,0.017083,0.00409723,-0.0207469,0.0146968,0.000425498,0.0160644,0.0140578,-0.00885255,0.00588388,0.00124968,0.0169001,-0.00160265,0.0127515,0.0182633,0.0137709,-0.0354517,0.0187306,-0.0593252,0.0230829,-0.00514355,-0.000314326,-0.000574822,-0.0048315,0.0300766,-0.00692943,-0.0381262,0.00649421,-0.00509771,0.0136377,0.0157659,0.00403421,0.0111485,-0.0331673,-0.0153582,-0.0256507,0.000435706,-0.00869492,0.00266838,-0.0377614,0.0154497,-0.0181413,0.0200682,0.0177156,-0.00609233,-0.00272028,-0.000412769,0.00599829,-0.0173894,-0.0175384,-0.0463565,0.0107432,0.00331848,0.020938,0.00856191,-0.0371274,0.0201482,0.00838039,-0.00137898,-0.0249021,-0.0249752,-0.0138037,-0.0157579,-0.0130744,0.00793148,-0.0108239,-0.00511215,0.00198656,0.00249001,-0.0254855,-0.0183609,-0.00449958,0.00679094,-0.00646189,0.0247271,0.00681292,-0.0225573,-0.0225536,-0.00517004,-0.0200466,0.0131052,0.0276815,-0.0106073,0.00691267,-0.0155158,-0.00970313,0.0276392,0.00996896,-0.0218944,0.0137206,0.0073987,0.011265,0.000246998,0.0249783,-0.0453326,0.00861564,0.00615017,-0.0211553,0.0241913,-0.00477953,0.0260392,0.0095711,-0.0217296,0.0249911,-0.0010359,0.015146,0.0138235,-0.00183257,-0.000450588,0.0466182,0.021865,-0.0549729,-0.00353833,0.00831928,0.0367857,0.0452246,-0.0251355,-0.0204835,0.015941,-0.0219049,0.0234314,-0.0144594,0.00059282,0.000543519,-0.00976717,-0.0167933,-0.0269879,-0.0219111,-0.00941876,0.000668396,0.010687,0.00422131,0.0129488,-0.0157128,0.0107732,-0.0439263,0.00412942,-0.0164454,0.0259767,-0.0383427,0.016264,-0.0264362,0.00500042,-0.0171248,0.0168438,-0.0301096,-0.0185424,0.028805,0.00654934,0.032185,-0.0191676,-0.00201488,-0.0108461,0.0470343,0.0222144,0.0153611,0.00979453,-0.000704829,0.0330878,-0.0211741,0.0150614,-0.00164873,-0.0100346,-0.0234131,0.0112962,-0.00731173,0.0105291,-0.0278088,-0.00556023,-0.0156273,-0.0126806,0.00238637,0.0292858,0.015055,-0.0239892,-0.052925,0.00787513,-0.0122393,0.0329941,0.0316429,-0.0183595,-0.0262574,-0.00922277,0.0310461,-0.0187715,0.0119314,-0.00211455,-0.0480435,-0.0111705,-0.0544404,0.00965683,0.0132283,0.0392063,0.0403611,0.0295851,0.00853732,0.00504798,-0.00146386,0.0167198,-0.00100027,0.0219272,0.00464827,-0.00968766,-0.0076067,0.00940174,0.0174614,0.0142616,-0.0137953,0.00140448,0.0488282,0.00324692,0.0159344,0.00515494,0.032948,0.0323929,0.0105064,0.0114558,0.0127941,0.00929446,-0.0387597,-0.0141429,-0.0123503,-0.0189394,0.0361712,-0.0259979,-0.00820507,-0.00335842,-0.041698,0.0136202,0.0252693,-0.0098874,-0.026011,-0.0082333,-0.0103768,-0.0281089,-0.00581738,0.0157533,0.0217418,0.0103425,-0.0212651,-0.0296494,-0.0294821,0.0195221,-0.00999914,0.00926818,0.00976173,-0.0169401,0.0208443,-0.0158889,-0.0115456,-0.00145775,0.00575502,0.00850976,-0.0291719,-0.029235,-0.0299881,0.0130282,0.0338455,0.0291487,-8.36279e-05,-0.0138646,0.00519497,-0.0133837,-0.0270553,-0.00500778,-0.0329346,0.0192324,-0.0325562,0.0150982,0.0210912,-0.00221437,-0.0218718,0.00518534,-0.0184074,0.0146489,0.0102362,-0.0304061,0.00869824,0.00552423,-0.0129613,-0.00780482,-0.0310546,-0.00974643,-0.00606974,0.0135586,-0.000371538,-0.0261446,-0.018956,-0.0082143,0.0133306,0.00861006,-0.0292103,-0.0228783,-0.000396334,-0.0244366,-0.0241376,-0.0117983,-0.0190199,0.00451117,-0.0305671,-0.0415135,0.00849286,-0.0314561,0.0325937,-0.0190577,-0.021851,-0.016073,0.0139189,-0.0322192,-0.000435,-0.000834905,0.00767205,-0.00620712,0.000413207,-0.0294449,-0.00687976,-0.00443297,-0.0166539,0.0113833,-0.00227362,0.00887181,0.0174592,0.00878508,-0.012446,0.00187823,-0.0226478,-0.00650581,-0.0140223,0.0185514,0.00633188,0.0222387,0.00790088,-0.00789646,0.0387499,-0.056162,-0.0222985,0.00825735,-0.0174201,-0.0150695,0.0164498,0.0393684,-0.0141743,0.0261966,-0.0123993,-0.000618141,0.0044977,0.0513074,0.0222578,-0.00230119,-0.0212516,-0.0299837,-0.00749479,-0.0428691,-0.00435727,-0.0030633,-0.01098,-0.0240658,-0.00506473,0.0134021,0.00288274,0.024669,0.0142239,0.0119854,0.00647744,-0.0104003,0.0284895,-0.0263055,-0.00690122,0.00607367,-0.0384368,-0.0366605,-0.00982489,-0.00586664,0.00970542,-0.00330604,0.0373768,0.00624864,-0.0454457,-0.0131655,0.0195608,0.0210586,0.013433,-0.00149449,-0.00313185,-0.0194125,0.00837286,0.0263776,-0.000311678,-0.0122281,0.00943027,-0.020313,9.60604e-06,0.0159168,0.0138725,-0.0126537,-0.0231278,-0.0032131,0.0131554,-0.0216646,-0.022886,-0.00918539,-0.00738966,0.0339662,0.0128258,0.00947371,-0.0310477,-0.0313752,-0.033105,-0.0106543,0.00356563,-0.0184679,0.00382853,-0.0371514,0.0212125,-0.018719,-0.0200574,0.0161733,0.00762311,0.0175615,-0.000465153,-0.0175436,-0.0335354,0.0297296,-0.0193431,-0.0117882,0.0101401,-0.00497739,0.00827021,0.00310526,-0.0190708,-0.0290737,0.00508544,0.0332916,0.00701746,0.011354,0.0137881,-0.0102313,-0.0312102,0.000500655,0.0125927,-0.00212524,-0.00470403,0.00347539,-0.00381037,0.0166358,0.0175166,-0.002013,-0.015152,-0.0484063,0.0241233,-0.00758165,-0.0227191,0.0128218,0.0421105,-0.00850733,-0.00373398,-0.00251985,-0.0213229,-0.0140873,0.0045768,-0.00585836,0.0227354,0.03275,0.00290168,-0.042881,0.00566153,0.00655691,0.00812755,0.00740638,0.0216795,-0.00965058,-0.0120882,0.00308063,0.00830674,-0.0112074,0.0121861,-0.000486335,-0.0150988,0.00301041,-0.0189883,-0.0193765,0.00288725,-0.00231301,-0.0393674,0.0130096,0.00490796,0.00869337,-0.02358,-0.0383084,0.0272658,0.0153957,0.0016972,-0.0083447,0.00275522,0.0336058,0.0171891,-0.028938,0.01021,0.000382962,0.00674803,-0.00847983,-0.0156597,-0.0196126,0.0129322,0.0021802,-0.0139652,0.00916552,0.00691644,-0.0113327,-0.011689,-0.0187225,-0.0270583,-0.0285966,-0.00330026,-0.0115352,-0.0142374,0.00167935,0.000880435,0.0242105,0.012375,0.00655515,-0.00146136,0.0054273,-0.0100961,0.0142342,-0.0443994,0.0126812,-0.0282425,0.015148,-0.01021,0.0168166,0.00567825,0.00356761,-0.0151513,0.0250766,-0.00784986,0.0376778,0.0252264,0.0241837,-0.015122,0.00325415,-0.0154282,-0.00782125,0.0152363,-0.0245944,-0.00742753,0.019299,0.00453247,-0.00411471,0.0474012,0.0197981,0.0417116,-0.0488639,-0.011314,0.0362476,0.0347199,0.00396197,0.0438052,0.0179334,-0.00303589,-0.00441884,0.0215852,-0.00275704,0.0202727,0.0123063,0.0119968,-0.0187854,-0.0125806,0.0194429,0.0116987,0.00524412,-0.00160211,-0.0413886,-0.0134045,-0.0271035,0.0137229,0.029168,-0.0054165,-0.0492434,0.0116577,-0.0146382,-0.0253993,0.00256307,-0.0502204,0.000954526,-0.0140587,-0.00409767,0.0152939,0.00361905,0.0342242,0.0180135,-0.00852103,0.00587466,0.0009891,0.00055507,-0.0116752,0.0244078,0.00406928,0.025162,0.0126353,0.0304336,-0.0287337,-0.018062,-0.012496,-0.0401527,0.00676073,0.0213899,0.0282458,-0.00639203,0.0455174,0.0227527,0.00386851,-0.0100526,-0.0241168,0.00259683,0.0210134,0.0198758,0.0137587,-0.0160313,0.0373682,-0.000708444,0.00815108,0.00305234,-0.0119352,-0.023816,-0.00839566,0.0230614,-0.0212499,0.0189608,0.00131599,0.00293767,0.00432965,0.0183803,0.00673309,0.00761351,-0.0355552,0.0104533,0.0210455,-0.0238835,0.0223281,0.0206787,-0.00636986,0.00668075,-0.00521077,0.0168488,-0.0155457,-0.00578732,-0.0155584,0.0101303,-0.00030474,0.0193813,0.01821,-0.00915406,-0.00227171,-0.0111796,-0.0164002,-0.0057025,0.000491567,-0.0195349,0.0042055,-0.0125768,0.0334266,-0.0273753,0.00310897,-0.0184834,0.019192,0.000320206,0.0462276,-0.0249203,0.0410685,0.000918494,0.000631722,-0.00047669,0.00155368,0.0242585,0.0206448,0.00583859,-0.0154413,-0.0436655,-0.0137218,-0.00314172,0.0173131,-0.0246564,-0.0154459,0.00810586,-0.0213412,-0.000150914,-0.0178279,0.00808223,0.02888,0.0137127,0.0273975,0.025686,0.0171705,0.00530998,-0.0130855,-0.00700198,0.0199806,-0.010353,0.0291842,-0.00915119,-0.0253486,-0.0288947,0.0379752,-0.044756,0.0112822,0.00875728,-0.000576981,-0.0106144,-0.0288452,0.0265148,-0.0259148,-0.00795327,-0.0135364,0.0203046,9.45976e-05,-0.0252763,-0.017555,0.00279553,0.03712,0.0144374,-0.0207665,0.0287161,-0.0270552,-0.0101006,0.00607929,0.0399833,0.0159638,0.000750804,0.015736,0.00509632,-0.0101564,0.0575597,-0.0188513,0.010203,-0.0159655,-0.0204001,0.0196662,0.0315313,-0.0135839,-0.00927792,-0.00238593,-0.0185851,0.0269978,-0.00243975,0.00149638,-0.00248194,0.0363866,0.00494219,-0.0314788,-0.0220947,0.00296261,-0.00985427,0.0294771,0.0119359,0.0183557,-0.0265715,0.0184924,0.00534574,0.00414587,-0.0114112,0.0298897,-0.0170249,0.0343985,0.00129508,0.030914,-0.0312431,0.0406598,0.00341182,0.00284492,0.0161551,0.0116452,0.0346543,-0.000795604,0.0611125,-0.024769,-0.0221427,0.0103272,0.00658174,0.00959332,-0.0276515,0.00632014,0.00608022,-0.0248,-0.0196418,0.0111611,0.00854727,-0.0131634,-0.022352,-0.0353985,0.00507262,0.0183201,-0.0344765,-0.00184228,0.026981,-0.0184651,-0.0197008,0.0142152,0.00857102,0.0280822,0.00921889,-0.0080955,-0.0045299,-0.0199248,0.00101373,-0.00960146,0.00464067,0.0028056,-0.0226178,0.00484076,-0.02187,0.0170146,-0.0101246,0.0130916,0.0112202,0.0125228,-0.0410213,-0.00973739,0.0180486,-0.0194818,0.0149668,-0.0308175,0.00933301,0.0296063,0.0101147,0.0308633,-0.00720714,0.0156602,0.0187743,0.0260662,-0.00950342,-0.000148802,-0.029629,0.0112065,0.00213108,-0.0355104,0.0174325,0.00258538,-0.00260592,-0.0140589,-0.00857672,0.0222244,0.00931525,0.0266881,-0.0301688,0.0137364,0.0218858,-0.0203986,-0.025797,0.0226188,-0.0139319,-0.00268338,-0.00236611,0.0152078,-0.0111807,0.002382,-0.0171946,0.00339382,0.0128529,0.00936406,0.0167289,0.0342557,0.00960238,0.0232776,-0.0080092,0.00699188,0.0065508,-0.00921307,-0.0149071,-0.0200711,0.0375152,0.010877,0.000271608,0.00543796,-0.00661488,0.0167187,0.00778559,-0.0189979,-0.0423915,0.0250277,-0.0313077,0.0106129,-0.00993045,-0.000784803,0.0210875,0.0065736,-0.0479709,-0.0167497,0.0310655,-0.000225784,-0.0360914,0.0303566,-0.0378688,-0.0121671,-0.00998333,-0.022507,0.0197474,-0.0154845,-0.0336437,-0.0177578,0.032607,-0.00121119,0.0123183,0.0111995,0.00128181,0.00974137,-0.0143219,0.0209618,0.0160279,0.00110419,-0.0215125,0.0561879,-0.0115798,-0.000999606,-0.0532282,0.00357203,0.020083,0.0021624,-0.00405027,-0.00470028,-0.0164813,0.034681,-0.00353176,-0.0159058,0.00383264,-0.00695124,-0.0045606,-0.0314003,0.0234055,0.00453997,0.0118936,0.00722078,0.00905285,-0.000171546,0.0304521,-0.0177577,-0.00357616,-0.027541,0.00242332,0.0474597,-0.0367001,-0.00217731,-0.00395358,0.0221088,0.0162077,-0.00194431,0.0162699,-0.0313056,0.0180534,-0.0126864,-0.0167028,-0.00580018,0.0408964,0.000517434,0.0266382,-0.005923,-0.00246737,0.00854593,0.011092,0.0331527,0.000182011,-0.0225086,-0.0103502,-0.0199308,0.0310458,0.0272916,0.0190314,0.0135114,-0.0115488,-0.0262195,0.00871202,-0.00345136,0.00656019,-0.00980406,0.0152501,-0.0127194,0.02717,0.0131532,-0.0233079,0.00169063,-0.0071045,-0.0358111,-0.0161414,0.0375754,-0.00554598,0.0365016,-0.0307832,0.015416,0.0258242,0.00804508,0.00266003,-0.0106444,0.0087072,0.0208987,0.0185986,-0.022644,-0.00346628,0.0113361,0.0112714,-0.016774,-0.0312233,0.0281956,-0.0208984,-0.0341287,0.019723,-0.00172151,-0.0281537,-0.0266183,0.0123615,0.0187706,0.0263856,0.0333631,-0.0379027,0.0278131,-0.00139247,-0.0172288,-0.000439331,-0.0119251,-0.0307396,0.0122023,0.0103524,-0.00189272,0.0129645,0.00830514,0.0304942,-0.00211728,0.0369247,-0.0242393,0.0131339,0.00905351,-0.00573689,-0.0101924,0.0130967,0.0336468,-0.0278034,0.00844849,-0.00383097,-0.021307,0.000572705,0.0126584,-0.0153103,-0.00859078,-0.032774,0.0153992,-0.00918086,-0.0185157,0.0116078,0.00800996,0.00846937,0.00600463,0.00954982,0.0101782,0.0116948,0.0556131,-0.00657321,-0.0119008,0.0357357,-0.0073981,0.0192734,0.0344523,-0.0145326,0.0231278,0.00995082,-0.00876508,-0.0197964,0.0390026,0.0207189,-0.0145954,-0.00618919,0.0351618,-0.00977422,0.0172975,-0.00593651,0.0146835,-0.00819109,0.0194668,-0.0095094,-0.00901663,-0.00829461,-0.00099704,-0.0127788,-0.0357088,0.0335918,0.0193017,0.0177266,-0.0151894,-0.00694241,0.0147497,0.0205434,-0.0115575,-0.018589,0.00589628,0.00782496,-0.0044982,-0.015618,0.00295234,0.00510609,0.00134871,0.0291978,-0.0408283,-0.00302972,0.00636558,-0.00843512,0.0221713,0.034728,-0.00874839,-0.0145544,0.0426247,0.022734,0.00315573,0.00534317,0.027366,0.0174038,-0.00325949,-0.0175965,0.0126547,-0.0211444,0.0206096,-0.0175255,-0.0139569,-0.00882452,0.00687932,0.026251,-0.0220942,-0.00110933,-0.0179228,-0.00847578,0.00200079,-0.0118907,-0.0200569,0.0317526,-0.0262862,-0.00426358,0.0139861,0.00627219,-0.00893376,0.00304789,0.0316768,0.0183473,0.0175323,0.014702,-0.00822469,0.017529,0.0101529,0.0350432,0.0071545,0.0236458,-0.0185573,-0.0167408,-0.00322048,-0.0329208,-0.030895,0.0153789,0.0514726,-0.00549858,0.0120507,0.0253955,0.0038468,-0.00632411,0.00127406,0.00166414,0.0357584,0.0679223,0.0416036,0.0253168,-0.0197136,0.0287845,-0.0257898,0.00720149,0.0157581,-0.0562564,-0.0331262,-0.0149333,0.0143225,0.00239207,-0.0276691,-0.0479326,0.0141534,-0.0278258,0.0254316,-0.00193561,0.00890836,-0.0323194,0.0075087,0.0179264,0.0108803,-0.00515418,0.0312951,-0.0264234,-0.00985104,0.0188418,-0.00640883,-0.0237683,-0.00260629,-0.00474592,0.00510051,0.00715976,0.0101289,-0.00268118,-0.0100115,0.0128187,0.00986572,0.00878133,0.0120679,0.00301008,0.0255063,0.0140227,-0.00233196,0.0377188,0.0381864,0.0128509,0.00839652,0.0371486,-0.0211087,0.0108398,-0.0274237,-0.0109093,-0.00241507,0.041557,0.0234437,0.000886966,-0.00940426,-0.0158533,-0.00745119,-0.0191692,-0.0522029,0.0130617,0.0107224,-0.00769795,-0.0180236,0.00429825,0.00454918,0.0158944,0.026481,-0.00685114,-0.0131809,0.0126163,0.0192815,0.00743492,-0.00397449,0.00849975,0.0109186,0.0232078,0.00380098,-0.0280186,0.00775739,0.00173091,-0.00372687,-0.0336092,-0.0135493,0.0107901,-0.0367023,-0.00602556,-0.0264501,-0.0127971,-0.0122706,-0.013472,0.0139921,0.0279414,0.033023,-0.0128378,0.030626,0.0428817,0.00788191,-0.0170027,-0.00694693,-0.0269939,0.0261472,-0.0102474,-0.0110534,-0.00673992,0.015027,-0.00391765,0.00564807,-0.00949425,-0.0119108,-0.0016376,0.00176977,0.0108689,-0.0051452,-0.0128534,0.0171661,0.0434547,0.0182024,-0.0163406,-0.02397,0.0273527,-0.00243677,-0.0189923,-0.0233361,-0.00176934,0.000426966,0.00583781,-0.0201901,0.0208308,-0.0482289,0.00612991,0.00679734,0.0317943,0.0263106,-0.00104327,-0.00978794,-0.0314597,0.0365383,0.0277762,-0.00134711,-0.0418382,0.0140453,0.00585415,0.0176068,-0.033842,0.00344115,-0.0052118,0.0115873,-0.00905282,-0.0107319,0.0403517,-0.0012439,0.0147136,-0.00615545,0.0212976,-0.0419432,0.00227463,0.0368687,0.0370805,-0.00495434,-0.0126012,-0.0246772,-0.00142019,0.00197702,-0.000940207,-0.0120511,-0.0103458,-0.00404886,-0.0108696,-0.0138867,0.0060309,-0.0229327,0.00963832,0.0153491,0.0019968,0.00701923,0.000143222,-0.00991849,-0.00187238,-0.019303,0.0187786,-0.0308549,-0.0326776,-0.0133919,-0.00661492,0.00402969,-0.0314712,-0.00248139,-0.00987663,0.0243687,-0.0232201,0.0305213,-0.0252331,-0.00528538,-0.0346172,0.019883,-0.010637,-0.0170914,0.00982908,-0.00236937,-0.0136899,0.0202863,-0.0247647,0.00783963,0.00255972,-0.0271153,0.0199634,0.0037965,0.00493345,0.00433957,0.0169266,-0.0110884,0.0287229,-0.0064464,0.00045156,-0.00546686,0.012362,-0.0112194,-0.014532,0.0104198,0.0159855,-0.00136717,-0.0208947,0.0335508,0.00610785,0.0185517,-0.00721562,-0.0266798,-0.00437568,4.56677e-05,-0.0163903,0.00337955,-0.0171231,0.0102643,0.0307021,0.0125735,-0.0184801,0.000364214,0.0119657,0.00907735,0.000383843,0.0235651,0.0204582,0.036537,-0.0101188,0.0149812,0.00495175,0.0266988,-0.0111193,-0.0110125,0.0652803,-0.018181,0.00068642,0.000934846,0.0078413,-0.0316434,0.00931914,-0.0146195,-0.0288648,-0.0108466,0.0188681,0.000968253,0.00775625,0.0264051,0.00505665,0.00397908,0.00285265,-0.0178937,-0.00916673,0.0279832,0.0315803,-0.0229738,0.00922347,-0.00536003,0.0140235,-0.0240238,0.00917198,0.0170078,0.0125761,-0.046201,0.0208666,-0.029762,-0.00161598,-0.0143697,-0.019975,0.0129335,0.0239951,0.0314475,0.0171473,-0.0358066,-0.0341962,-0.0105878,0.0112177,-0.0147103,0.0157849,-0.0102075,0.0415854,-0.00185023,0.00795233,-0.0239897,-0.00343483,-0.0112027,-0.0256749,-0.000123155,0.00973653,-0.00566306,0.0588311,0.000754772,0.0105267,-0.0187052,-0.0035564,-0.0259123,0.0059639,-0.0298358,-0.0360772,0.0235553,-0.00215343,0.00243225,-0.00776668,0.0325472,-0.0151375,-0.00889179,-0.0318796,-0.0370903,0.00293945,0.0163466,0.0262459,-0.0266811,0.0263169,-0.0200416,-0.0143462,0.0211435,0.021784,-0.00882646,0.0321854,0.0108498,0.00227733,-0.0269768,-0.00779501,-0.000141338,-0.00914783,0.0242274,0.0055018,0.00095891,-0.00792955,-0.00949088,-0.0237986,0.00287985,-0.013815,-0.0548002,-0.0474773,0.0158808,0.004678,0.0423513,-0.0210631,0.0086145,-0.0272095,0.0342188,0.0369673,0.0315561,-0.0228209,0.00288392,0.0375436,-0.0254605,0.0158569,-0.0236828,0.0218549,0.00407376,-0.00167479,0.0157705,-0.0325712,0.0144684,0.0320363,-0.00487275,0.00878881,0.0117636,0.0427536,-0.0214334,-0.0114914,0.0113248,0.0127682,0.0109555,0.0157084,0.0200363,0.0106769,0.00444226,-0.0128178,0.0103133,-0.00230574,0.00256038,0.00903075,-0.00458942,-0.0503187,-0.00545595,-0.0593586,0.0154007,-0.0244076,-0.0154758,-0.00612437,-0.0119625,-0.010996,-0.000881916,0.0207287,0.0311542,-0.0076354,-0.0326185,-0.0065964,-0.00064047,-0.00743771,0.0089647,0.00420518,0.0426844,-0.0341288,0.0141944,0.0165217,0.00946799,0.0113124,-0.0028976,0.00519935,0.00118695,0.000204015,0.0123204,0.0100325,0.00092438,0.0120632,-0.00142495,-0.00381429,0.0062635,-0.0197587,0.0160827,0.00672822,-0.0436361,0.00186035,-0.0038943,-0.00465388,0.048896,0.0278451,0.00700842,-0.000781258,-0.0103356,-0.00490885,0.0123029,0.00222624,0.0179352,-0.00398414,-0.0197582,-0.00308611,0.00719542,-0.00337336,0.00177445,-0.000819704,-0.0246028,-0.00815561,-0.0421698,-0.0138591,0.0121398,0.00171555,-0.0250631,0.00580145,-0.00396253,0.00624888,0.0505014,0.00245626,0.0323512,0.0136016,0.0379088,0.0271132,-0.0366699,-0.0239273,0.00066144,0.00114136,0.0244848,-0.00169557,0.0154564,-0.0194603,0.0186706,0.0277638,0.0329227,0.0151585,0.0011694,-0.0176427,-0.0178667,0.0162349,-0.00408531,-0.0137541,0.0340929,-0.00766298,-0.0144557,-0.00974357,0.0172293,-0.0288516,-0.0189464,-0.00923939,0.0227555,0.0298515,0.00189858,-0.00365767,-0.0109117,-0.0238077,-0.0230459,0.0332738,-0.0105956,0.00400771,0.0232067,0.0260048,0.00711744,0.0213203,0.0331853,0.00438213,0.00913683,-0.0326708,0.0210348,0.0121746,-0.00988084,-0.0125677,-0.0108667,-0.00526602,-0.0146921,-0.00849065,0.0194072,0.0244669,0.0143358,0.00904641,0.00260402,0.0350872,0.0107555,-0.0451088,-0.006857,0.0105321,-0.00746045,-0.0183997,0.00814607,-0.00379039,0.00328661,0.0361424,-0.0118121,0.00824574,-0.0189161,-0.00549966,-0.0216862,-0.0115741,-0.00139933,-0.00924825,-0.0114321,-0.00731166,-0.00733857,-0.00545687,0.00674542,-0.00881144,0.00533154,0.0285895,-0.00169391,-0.0158888,0.0215614,0.0140033,0.021779,0.0283554,-0.0161773,-0.00377078,-0.0279551,0.0274242,0.0183586,0.0139048,-0.0273415,0.0571308,-0.0358023,-0.00133556,0.00851244,0.0463881,0.0159943,0.0325459,-0.00113343,0.0326001,-0.0298808,-0.0106606,0.0120016,0.0212438,0.009618,0.0126952,0.00494891,0.0271636,0.0214918,-0.0152568,0.00729841,0.00314679,-0.0241429,-0.00572881,-0.00820433,0.00484741,0.0159986,-0.02312,0.00982666,-0.0199938,0.0174148,0.00329158,-0.00259682,-0.0129131,0.0277284,0.0134138,0.024725,0.0124149,0.0332799,-0.0343466,0.00472845,0.0188532,-0.0276401,0.0243561,0.0207647,-0.00179592,0.0121292,0.0150714,0.0236703,-0.0243018,-0.0112553,0.012942,0.00179834,0.00331903,-0.0154753,0.0145042,-0.0165948,0.0246596,-0.00349729,-0.0113434,-0.0122322,0.00661273,-0.0326089,0.0227596,-0.044483,0.0215059,-0.0127356,0.0229177,-0.000390735,-0.0406163,-0.0209227,-0.0190305,-0.00428728,0.0233252,0.013429,-0.00821283,0.0188829,0.0116633,-0.0372488,-0.0167621,0.015739,-0.0253147,-0.00198541,0.000630193,0.00952678,-0.0172391,-0.0473485,0.0151374,0.0134927,0.0102055,-0.00505036,0.0103335,-0.0135428,-0.0187464,0.00716086,0.0342435,-0.0189735,0.0143678,-0.00771528,0.0378611,-0.035235,0.0171607,0.00945634,-0.0118146,-0.0170864,-0.015031,0.000526166,0.0198965,0.015331,0.00188419,-0.0138941,-0.0185859,0.000250411,0.0123234,0.00218293,-0.018869,-0.0190948,0.00997804,-0.053122,0.00151017,0.00284091,-0.00224312,-0.00356342,0.0482491,0.00590418,-0.0237344,0.0248425,0.00164597,-0.0128891,0.00519553,-0.0139049,-0.0137643,-0.0165232,-0.0169748,-0.00591437,0.000237495,0.00712615,0.00305813,-0.00361107,0.0121637,0.000205688,0.012378,0.00107311,-0.027342,-0.0252654,0.0225768,-0.0053332,0.0246677,0.00226015,-0.00160435,-0.00188666,-0.00699877,-0.00295696,-0.0334373,-0.016909,-0.0278567,-0.041291,0.0131732,-0.0115144,-0.0189346,-1.68651e-05,0.0112527,-0.0319537,-0.0298132,-0.0143185,-0.0218477,0.0189076,-0.00304575,-0.00141627,0.0162756,-0.0188378,-0.0271056,0.00770645,0.0166799,-0.00552746,-0.00616615,-0.0448725,-0.00252323,0.00383084,-0.0243032,0.00854162,-0.0261723,0.0136791,-0.00597432,-0.0167029,0.00856634,-0.00452806,0.0281485,-0.0188573,0.00488592,0.0402354,-0.0431259,0.0111631,-0.0246136,-0.0199419,0.00771019,-0.00119915,0.00474214,0.00272169,0.00238847,-0.0153853,0.0202357,-0.010757,0.00577325,-0.0110445,-0.0252981,-0.000558877,0.00149502,-0.0235921,-0.00332858,-0.0106471,-0.0127921,-0.0161943,-0.0320553,0.00449585,-0.00609567,-0.00487282,-0.00360833,-0.0399961,0.0281355,0.00296057,-0.0190471,0.0425498,0.0126729,0.0026212,-0.0029465,-0.0253472,0.0365961,0.0261634,-3.50408e-05,-0.0288349,-0.0360212,-0.000117826,-0.00842372,-0.00143098,0.00408296,-0.0354036,0.0325075,-0.00224464,-0.00836591,-0.00799037,0.0141176,-0.0189618,-0.00060792,-0.0155786,0.0357786,0.0208024,0.00393921,-0.00956268,-0.00431824,-0.0131007,0.0127397,0.0207962,0.0128337,0.0230472,0.0250678,-0.00697732,0.0151774,-0.0193205,0.00116297,-0.0152097,-0.00808008,-0.0147388,-0.0218319,0.0108998,0.00761147,-0.00793092,0.0348224,-0.00665012,-0.0128377,-0.034667,-0.00441429,-0.0197805,0.0130328,0.0240424,-0.00632523,-0.00326222,-0.0109133,-0.00496025,0.0131391,0.00923084,-0.018288,-0.00651892,0.0161107,-0.0387337,-0.0204929,0.000129697,0.0286597,0.0136755,-0.00891248,0.00433027,-0.0066825,-0.0102284,-0.0647213,-0.0184692,0.0176859,-0.00210589,-0.00343569,-0.00301273,0.0168407,-0.0295865,-0.0383588,0.0232886,0.0154767,-0.0165557,-0.0159426,0.0248817,0.0100596,0.00768739,0.00767165,-0.00470501,0.0122438,-0.00365598,-0.00179127,-0.0155929,-0.00886421,0.00212052,0.0626388,-0.00647367,-0.0222289,-0.0106054,0.0139584,-0.00699792,0.0112825,-0.0212492,0.0240627,-0.00118859,0.00387233,0.0165893,-0.0398991,-0.0235233,0.0031346,-0.0249982,-0.00229103,0.00110582,-0.0298162,0.0246427,0.0262805,-5.49522e-05,0.0166411,0.0232785,0.0223197,-0.0313326,-0.00592569,-0.0255157,0.0124256,-0.00110982,-0.00777257,0.0186141,0.0114826,0.00613198,0.00394184,0.0106991,0.00160195,-0.0343319,-0.00422132,-0.0261033,0.00541597,-0.0100065,0.0094129,0.0219872,0.0187317,-0.00353165,0.0107083,-0.0114691,-0.0018696,0.0277706,-0.00188796,0.0127334,-0.0058388,0.016629,0.0336915,-0.0256193,-0.00751692,0.0226049,0.0241663,-0.0140156,-0.00173761,-0.00290526,-0.0319188,-0.00301488,0.0225769,-0.00265022,-0.00591859,0.0146173,0.0168538,0.00361359,0.0176595,-0.0146305,-0.0179787,0.0135714,0.0162189,-0.00602792,-0.028602,-0.00226129,-0.0194689,0.0111637,-0.00399084,0.0104411,0.0200504,0.0256884,0.00610541,0.0281717,0.00425837,0.00261775,-0.0183505,0.000240211,-0.0138319,0.0112134,0.00713384,-0.0228894,-0.0104801,0.0175348,-0.0136017,-0.0375411,-0.0142432,-0.000665708,-0.0152696,0.0136293,-0.00272421,0.0131304,0.00247596,0.0386216,-0.00581886,-0.0265128,0.0154478,-0.0110194,-0.00220063,0.00143216,0.0200479,0.0189676,-0.0194439,-0.00150487,-0.0167063,-0.0778904,-0.0388246,0.0261835,0.0277076,-0.00968447,-0.0315281,-0.000385993,-0.00577765,-0.0435507,0.00870333,0.0424207,0.00484886,0.0256836,0.0389154,-0.0334198,-0.0391781,-0.0337142,0.0457407,0.000634551,-0.0222067,-0.0051286,0.00933258,0.0269442,-0.0115711,-0.0273741,-0.0130951,0.00867607,-0.00429665,-0.0243334,0.00254826,-0.00455732,-0.00968029,-0.00644225,0.0216454,-0.0104351,0.0106072,0.0211752,-0.00516565,0.0062118,0.0194725,0.0520546,-0.0156022,0.0323128,0.00356981,-0.0161648,-0.00176435,0.00440029,-0.0268279,-0.0483974,0.032515,-0.0135085,0.000203521,0.00549768,0.0272622,-0.00753324,-0.00473268,0.0267195,-0.00513257,-0.0417464,0.0133061,-0.00333234,0.0206886,-0.00457116,-0.0459401,-0.0135849,-0.0147741,-0.0319114,-0.00997428,-0.00627222,-0.0318778,0.0274511,-0.00697062,0.0409177,0.0230366,-0.0158377,0.0007028,0.0108324,-0.0372687,-0.0133485,-0.00753739,0.000139513,0.00143428,0.00793033,-0.000608766,-0.00860136,0.0143679,0.00944871,-0.0209307,-0.00839275,-0.0307227,0.00649823,-0.00725001,0.0423067,-0.043422,0.00258143,0.00239286,-0.0111517,0.0289949,0.00901955,-0.0141611,0.00679773,0.027618,-1.77516e-06,-0.0118224,0.0221159,0.0148503,-0.0128725,-0.0262336,-0.0142876,-0.0112628,0.0099167,0.00583692,-0.00612733,0.0134627,0.000440772,0.0212125,0.0121714,-0.0371926,-0.0204187,0.0291488,-0.012416,0.0146174,0.00632659,-0.0279487,-0.0070957,-0.00107904,0.026813,0.0147765,0.00706728,0.00988371,-0.0362669,0.0393523,0.0227718,-0.000346622,-0.00154205,-0.0345171,0.0229056,-0.00450758,0.0144059,0.0327417,-0.012538,-0.0122966,0.00736029,-0.0286619,0.0417287,-0.00224187,0.000520866,-0.0340927,0.0350094,-0.00990117,-0.0196526,-0.00684496,-0.0148898,0.0129289,0.00503851,0.0119468,0.00556709,-0.0168138,-0.0314635,-0.00516949,0.0138966,-0.000437349,0.00116534,-0.0243399,0.00664744,0.0295972,0.0178174,0.00391376,0.0353036,-0.00447608,-0.0158463,-0.0149799,-0.00401153,0.0171166,0.0041302,-0.0137924,0.0192765,-0.0328946,0.0158623,-0.0169181,-0.00214107,0.0108309,-0.0140477,0.00698434,-0.0374033,0.0180614,-0.0252657,-0.00293995,0.0467573,-0.0229122,-0.0110897,-0.00391744,-0.00192298,0.00986702,-0.0470648,0.050591,0.0113021,0.00144315,0.0239695,-0.0253637,-0.0386347,-0.00430942,0.0307933,0.00351231,-0.0275021,0.00770169,-0.00985757,-0.00189995,0.00406195,-0.00556295,0.0119688,-0.0214966,-0.0169971,-0.00202133,-0.0139848,-0.0124083,0.000321868,0.0380178,-0.0131588,0.0195693,0.024016,0.0238512,0.0371563,0.00874314,0.00227774,-0.0388399,-0.00477683,0.00970849,-0.0321501,0.00665799,0.0115181,0.00641532,0.0193192,-0.0101476,-0.0170059,-0.0043132,0.00879397,0.00166423,0.00693046,-0.00837939,-0.0171379,0.014853,-0.0163859,0.00742038,0.0233622,-0.00441872,0.012876,0.00173689,-0.0175695,0.0284967,0.00504491,0.0368375,0.0038679,0.0121832,-0.0258409,-0.00839471,0.0252779,0.00631303,-0.0118778,0.00858929,0.019334,-0.0134896,0.0105108,-0.0491106,0.0423295,-0.0290991,-0.00836936,-0.0159984,0.018045,0.0354646,-0.00571804,-0.00248997,-0.00973146,0.0158539,-0.00669159,-0.00692177,-0.00392409,-0.0173852,-0.000454915,-0.0492988,0.00212327,0.00759761,0.00843127,-0.0092916,-0.00311126,-0.0300715,0.00185166,0.0279373,0.00590426,0.0166573,-0.00899079,-0.018865,0.0473984,0.00256324,-0.0237951,0.0307977,-0.0147366,0.00142727,0.00554564,0.00136145,0.0381436,-0.0135041,-0.00961115,0.000269224,0.00408421,0.00262775,0.021924,-0.00281143,-0.000645447,-0.0142702,0.0330883,0.0107922,0.0223543,-0.0073424,-0.0188672,-0.00546739,0.00212817,0.0451868,0.0318332,-0.0180474,0.0237979,-0.0417914,0.00147243,0.0142211,-0.000821074,-0.0357135,0.00545448,-0.00715298,-0.0239626,0.0313142,-0.0227026,0.0250401,0.0434302,0.0213912,-0.0107152,0.00144169,-0.0126723,-0.0052072,-0.0109588,0.0104971,0.0346696,-0.0312169,0.0140266,-0.0639318,-0.0551778,-0.0156953,0.0346348,-0.026327,-0.00898309,-0.00011734,0.00834993,-0.0135025,-0.0313667,-0.00599518,0.00256692,-0.00358491,0.0172091,0.024311,0.00584044,-0.0283891,-0.00718181,0.00141891,0.0172479,-0.0124562,0.00103917,-0.0221015,0.0171692,0.064584,-0.0160382,-0.0222869,-0.00600103,0.00124672,0.00853983,-0.011559,-0.0260129,-0.0075109,0.0034045,0.0413455,0.0206877,-0.00949951,0.0349994,0.0163892,0.0125481,-0.00488364,0.0239315,-0.0582402,0.0046309,-0.0418355,-0.00429213,-0.0464327,-0.00232588,0.0292761,0.00784859,0.0178529,-0.0223655,0.0491379,-0.0100343,-0.00672771,-0.034188,0.00793871,-0.0243128,-0.00669975,-0.00129679,-0.0498373,0.00531016,-0.00505237,-0.00761931,0.0306788,0.0140993,0.0288233,-0.0599833,-0.0367819,0.00651254,-0.00426029,0.0246127,-0.00787083,-0.053716,-0.0271907,0.00347487,-0.00239863,0.0102623,0.00277796,0.00315801,0.0198949,0.00184936,0.0147014,-0.0136152,-0.019909,-0.0324008,0.011553,-0.0030319,-0.0147901,-0.0110038,0.013518,0.019325,-0.0550404,0.0279903,0.00532542,0.00270874,-0.0241671,-0.0356504,0.0296296,0.0185188,0.013239,-0.0166972,0.0059457,0.00134448,-0.0175916,-0.0407838,0.00839622,0.0167982,0.0144962,-0.0157397,0.0114027,-0.00738827,0.0175843,-0.00280998,0.0416155,-0.000335965,-0.00718602,0.00761424,-0.00229236,-0.0375115,0.0168997,-0.000643589,0.00233877,-0.00377203,0.00809821,-0.0171376,0.0110604,0.00343045,0.0330499,-0.0275777,0.0034778,-0.0129007,0.0199411,0.0239077,0.0159732,0.00853738,0.0264621,-0.0292988,0.0100871,0.0227567,-0.0114724,-0.00399676,-0.0188372,-0.00388927,-0.00302808,0.00248272,0.0229586,-0.000210109,0.0225987,0.00165581,-0.00827523,0.00696572,-0.00381965,0.042844,0.0212087,0.0288874,0.0110201,-0.0246562,-0.00146022,0.0267306,0.0359098,0.0165979,-0.00511513,-0.0146907,-0.00523869,-0.00555841,0.00485648,-0.00472873,-0.00030411,0.0173122,-0.0148209,0.019575,-0.0230846,0.0217818,-0.0097773,0.0359177,0.0526858,-0.00452925,0.0190409,0.0106225,-0.00463423,-0.00356302,0.012254,0.0359745,0.0184493,0.0390109,0.0340321,-0.00904637,-0.0439167,0.0119309,0.00665603,0.00728646,-0.0314122,-0.0103097,-0.0206046,0.0369236,0.0183875,-0.00249476,0.00284615,-0.00597504,0.0102471,-0.012757,-0.0494127,0.0222272,-0.00674175,0.000536981,-0.00959028,-0.0319375,-0.0207762,0.00909211,0.00869749,-0.0119534,-0.0175083,0.0181954,0.0133345,-0.0157586,4.55236e-05,-0.0219617,-0.0104513,-0.00450823,0.00659855,0.00447554,0.0221901,0.0172051,0.00454196,0.0206639,-0.00205743,0.0111089,-0.00603675,-0.0309294,0.046755,-0.0146043,0.00727756,-0.00896842,-0.00670608,5.96318e-05,-0.00833742,0.0151395,0.049927,-0.018629,-0.0327594,-0.00128052,-0.0139525,0.00607461,-0.00579772,0.0353705,0.0180111,-0.019301,-0.0106096,0.0122385,-0.013294,0.000706359,0.0271384,0.00660222,0.0278942,-0.00803945,0.006054,-0.0218843,-0.00630912,-0.00549527,0.0142805,-0.0166355,0.0301871,0.0180181,0.0289431,0.0126591,0.00523509,0.0066417,-0.0049011,-0.0284164,-0.0148808,0.0322229,0.00809622,0.00839513,-0.0064028,-0.0454557,0.0135109,0.0420623,0.0209324,-0.00842406,0.0248184,0.0347132,-0.0206343,-0.0156382,-0.0117891,-0.00723878,0.000941555,-0.015907,-0.0148375,0.0102311,0.0181432,-0.019399,0.00314947,-0.00986627,0.00607146,0.00405921,6.96711e-05,0.0100335,0.0124638,-0.0199851,0.00413727,0.0234876,0.00601593,0.0347548,0.0103627,0.00275275,-0.0143343,0.00645074,-0.00493957,-0.00259063,-0.0201351,0.0143749,-0.0115998,0.00718521,-0.0350049,-0.0294569,0.00438243,0.00980278,0.00837902,0.0264887,0.0186345,0.0126776,-0.021939,-0.0143186,-0.0101588,0.00741467,-0.0128705,-0.0150036,0.00567933,0.00267336,-0.00828774,0.0249284,0.0366857,-0.00560847,0.0161698,0.0430741,0.0174517,0.000973335,-0.0238767,0.039574,0.00390653,-0.0062729,0.0204296,-0.015546,0.0469982,-0.000987815,0.0126246,0.0149348,-0.0268631,-0.0497709,0.0057693,-0.0102742,0.00641636,-0.0312787,0.00256317,-0.021393,-0.0147521,0.0319367,0.00902653,-0.0235463,0.00930272,-0.0166481,-0.0119282,0.0338592,0.0363328,0.0194386,-0.0179591,-0.0286954,-0.00633397,-0.00490471,0.0123235,0.0190357,-0.0110214,-0.016369,-0.0213217,0.0394362,-0.0440055,-0.00660414,0.00776015,-0.0158321,0.0112957,-0.016079,-0.0115001,-0.0206556,0.0133683,0.012546,-0.0150603,0.031334,-0.028326,0.020074,0.0279191,0.0127509,-0.0139873,0.0204581,-0.0240216,0.015728,0.0326906,0.00127154,-0.0432647,-0.015772,0.000148867,-0.0146027,0.00215539,-0.0220352,0.00148469,0.0279737,0.0253344,-0.0390101,0.00850308,0.0306413,-0.000365924,-0.0270598,-0.00107152,-0.0228015,0.0243131,-0.0463813,0.00305693,-0.00930816,-0.0155112,0.0275427,-0.0127677,0.00675448,-0.00917792,0.0280105,-0.0129603,0.00990729,-0.0117251,-0.00802753,-0.0055385,-0.0128122,0.00161235,0.0307461,0.0214307,-9.04202e-05,0.00297154,-0.0112186,0.00645743,0.0351958,0.00380196,0.00965904,-0.0197163,0.031467,-0.0192319,-0.00565764,0.004552,0.0249653,0.0199381,-0.0122897,-0.01345,-0.0173667,-0.0328927,-0.00242885,-0.0109606,0.0136719,0.0195862,-0.0293941,-0.0109193,0.00585754,-0.0289993,-0.00928843,0.00275365,-0.00718072,0.0110825,0.00558498,-0.0346115,-0.000909926,0.00170176,0.0234043,-0.0330435,0.00208414,-0.00479865,-0.013961,0.00908387,-0.023847,-0.0387887,0.00731391,-0.00941667,-0.0201028,-0.0297175,0.0382462,0.0300039,-0.00242645,-0.0046088,0.0202472,0.000401529,-0.00702901,0.0397309,-0.00543727,-0.03304,-0.0185512,-0.0192694,0.0215472,-0.0625264,-0.00456598,-0.0402556,-0.0192123,0.0154618,0.0176459,-0.00272729,-0.0040816,-0.0203713,0.00666342,0.0170095,0.0165696,-0.0200283,-0.00157219,-0.0241516,0.00708566,0.0248627,-0.001751,-0.0100385,0.0149502,0.0255132,0.0237214,-0.0385832,0.00576766,0.0171338,0.0148879,-0.0140242,-0.0183816,-0.00041489,-0.00524369,-0.0155725,-0.0163593,0.0154508,-0.0323311,0.0100265,-0.00774837,-0.00624552,-0.0132256,-0.00293383,-0.0232279,0.0159193,-0.0115122,-0.000979963,-0.0163935,-0.00992216,0.0286391,0.014366,0.00399649,0.00600384,0.0342036,-0.0195801,0.00581937,-0.00100483,0.0140479,0.00302315,0.0352161,-0.0131845,0.00159518,0.0335072,-0.0210893,-0.0247688,0.0366101,0.0147928,-0.00558221,-0.0112249,0.00800185,0.00299476,0.0286283,0.03127,0.00136218,0.0102725,0.012058,0.00377169,0.025887,-0.0154578,-0.00853683,0.00317812,0.0103749,-0.0071571,0.0105009,-0.0159451,0.0230116,-0.0046278,-0.00907856,0.00982315,-0.0164909,-0.015071,-0.0214965,-0.0419499,-0.0376792,0.0103171,-0.0334221,-0.0136015,-0.0109334,0.0434754,0.0167004,-0.00524619,0.0111969,0.0109149,0.0168179,-0.0203159,-0.00101039,-0.00942492,0.0272398,0.0149399,0.00228377,0.0113409,0.00798648,0.0321088,0.0135252,0.00630815,0.00374374,0.000282118,0.0169316,0.00473961,-0.0132435,0.0310904,-0.00297451,0.010352,0.0182126,0.00230436,-0.0208779,0.000615869,-0.0245415,0.0291936,0.00776978,-0.00325392,-0.0363715,0.0468326,0.00720061,-0.00856038,0.00411915,0.00650485,-0.000686199,-0.0149435,-0.0136143,0.029848,-0.00790651,-0.0166622,0.00710707,-0.00384601,0.00341147,0.0288944,0.0300205,0.00357526,-0.0200868,0.0041875,0.000598497,0.0146614,-0.0135305,0.019429,-0.0126614,-0.0133963,0.00386134,-0.0229049,-0.0167073,0.0248556,-0.00637261,-0.0276452,0.00513703,-0.0135476,-0.00316598,0.00354566,0.0164809,-0.000356696,-0.0183148,-0.018033,0.0113254,-0.0122676,-0.00127542,0.00927542,0.00769553,-0.0109485,-0.0025265,0.00833809,0.0142695,-0.0547381,-0.0157409,-0.0166478,-0.00577887,0.00171322,0.025918,0.0213805,-0.015629,-0.0166584,0.000727313,-0.00792128,-0.00807075,0.00117943,0.0144809,0.0131858,0.0520731,0.00453856,0.00886225,-0.00982255,0.000881743,-0.0213292,0.00448602,-0.00396644,0.0331828,0.0357293,-0.0359491,0.0115372,0.0319299,-0.0386949,0.0218055,-0.0131323,-0.0273037,0.0155649,-0.00104231,0.0237053,0.0152571,-0.0318806,-0.0415433,0.0127956,0.0126361,-0.0280081,0.0277067,0.00261548,-0.0454415,0.00190287,0.0378732,0.023647,0.00100769,-0.021929,-0.0349214,0.00785365,-0.00403514,0.00832782,0.00294586,0.0414119,0.0280733,-0.0280364,0.0101182,-0.00158671,0.0201784,0.0160277,0.00483262,-0.0156144,0.00263936,-0.0175283,0.0227122,-0.0070357,0.00047943,-0.0131702,0.00555165,-0.0112817,0.00398644,-0.033925,-0.0101885,0.00302162,-0.0138529,-0.010186,-0.0167736,0.0204158,0.0544325,0.0145907,0.00344651,0.0213794,-0.00830094,-0.0581497,0.0307966,-0.00802122,-0.0161253,-0.0102865,0.00541237,-0.0208778,0.0186826,-0.00167687,-0.0137786,-0.00558936,0.0165363,-0.0313125,-0.013103,0.00644056,0.02346,0.00675521,0.00392918,-0.0163878,0.00036377,0.029407,-0.0388529,0.000657038,0.00554437,0.00862408,0.00685354,0.00903683,0.0078763,0.0162595,-0.0189906,-0.016305,0.0260424,0.00298327,0.0291593,-0.0257198,-0.0295823,0.00164824,0.00864844,-0.0139043,0.0253446,-0.0163079,0.00516645,-0.00689067,0.0136105,-0.0167095,-0.00520246,0.00223559,0.0232393,-0.0279041,0.0191751,-0.00204076,0.0234549,-0.0108818,0.030444,-0.0179573,0.0333979,0.0300494,-0.0119628,0.014215,0.00248453,-0.0179868,-0.0532245,-0.00322371,-0.0367645,0.0127295,-0.00630687,-0.0160733,0.0322763,-0.00446739,0.000878265,-0.0156874,-0.0408405,0.0200385,-0.0208114,-0.00311265,-0.00262397,0.00518645,0.00695716,0.0136904,0.0253284,0.0223068,-0.00876254,-0.00631306,0.00151068,0.014704,-0.0155741,0.0463888,-0.00923165,0.00509943,-0.01366,0.011774,-0.0196295,0.00168618,-0.0202722,-0.0125957,-0.0114008,-0.0104182,-0.00941398,-0.0187134,-0.00171358,0.00462213,-0.0221343,-0.0175354,-0.00333435,0.0230368,0.0038678,0.0121937,-0.0170428,0.00980128,0.0219621,-0.0108608,0.000918996,0.00533208,-0.0255084,-0.00235898,0.0147536,0.00333604,-0.0082143,0.0101224,-0.0185055,-0.0266509,0.0097142,-0.0116574,-0.0209509,0.033308,0.0362961,0.00879707,-0.00933442,-0.0103101,0.03428,-0.0205713,-0.000154781,0.00241761,-0.0177041,0.0146205,-0.0101687,0.00566815,-0.0358675,0.0213955,0.0102724,-0.026177,0.0304658,0.00547335,-0.00117537,0.000791637,-0.0353155,-0.00429476,0.00129502,-0.0346987,-0.0250271,-0.0182627,-0.00553811,-0.0258457,-0.019207,0.0218648,-0.0163867,-0.0144947,0.00117118,-0.0246282,0.0277207,-0.0349957,-0.0337434,0.0103875,0.00502634,0.0160483,0.00511654,-0.00221881,-0.0195325,-0.000891655,-0.0120729,0.0104419,0.0152407,-0.00479826,0.00548854,-0.0185933,0.00690791,-0.0230582,0.0112569,-0.00525076,-0.0236373,0.00784736,0.00223048,0.0011584,-0.00229246],"shape":[64,64]},{"data":[-0.0246889,-0.00047875,-0.0227147,-0.00723681,0.025012,0.0112639,0.00181702,0.0324215,0.0147592,-0.0298401,-0.00573954,-0.0101532,-0.0105203,-0.00939239,0.029368,-0.00181894,-0.00940318,-0.0287052,0.00277716,-0.00129021,-0.0309254,0.01177,-0.00913669,-0.0198237,-0.000554867,0.0287928,0.00414794,-0.000216875,-0.0100127,-0.00301122,0.0259715,-0.049246,-0.00145753,-0.0011967,0.0190924,0.00231254,0.0302326,-0.00966341,0.030554,-0.0254255,0.023255,0.00581193,-0.0186767,-0.00769577,0.00678912,-0.00334896,0.0383253,-0.0353747,0.0291543,0.00321897,-0.0112648,0.030555,-0.0101998,-0.0409036,-0.0176548,-0.0069467,-0.0387291,0.0401002,-0.0109207,-0.0131525,0.0410925,0.00490081,0.0277992,0.00742332,0.01365,-0.0118558,0.0302558,0.0203343,0.0195458,-0.000195112,0.0400388,-0.00908878,0.0137064,0.0117217,0.0158236,-0.00938769,-0.0169592,-0.00233536,-0.0116474,-0.0111843,-0.0136083,-0.00301796,-0.0266292,0.00994769,-0.0345445,-0.0142845,0.00511959,0.0024969,0.00903252,0.00893972,-0.0106657,0.0184421,-0.000927929,0.0200377,-0.0243515,-0.0234873,0.0167228,0.00595404,0.0303407,-0.0134778,-0.00968015,0.00591175,-0.00138475,0.0192292,0.0188925,-0.0329689,0.0144868,-0.00294454,-0.0239595,0.00967541,0.00966371,0.0215418,-0.0152233,0.0307716,-0.024749,-0.0193436,0.00951252,-0.00772721,0.0120295,-0.00945558,0.0277554,-0.0352753,-0.0387891,0.00648296,-0.016628,-0.00552739,-0.033928,-0.0163095,0.0210022,0.0122992,-0.00204879,0.0312672,-0.000877041,0.0290232,-0.0362373,0.0214236,0.00792886,0.0220763,0.0250684,0.00920201,0.00522788,-0.00262742,0.026869,-0.021529,-0.0397311,0.0254853,-0.00298514,0.0136427,0.0114528,-0.0243096,-0.00592624,0.012144,-0.033932,-0.0225202,-0.00952532,-0.036829,0.0090714,0.00482578,-0.0152514,-0.0288726,0.0162113,0.0115154,0.00902577,0.0118384,-0.0239436,0.0114619,0.0417931,0.00299265,-0.0147296,-0.0246392,-0.0117129,0.0298321,0.0180157,-0.0357852,0.00227545,0.00785028,0.0139451,-0.0138131,0.0171164,0.0147158,0.0182131,-0.0295361,0.0192902,-0.0088189,0.0190112,-0.00187737,-0.0254248,0.00671973,-0.0293802,0.00733516,0.0102645,0.000125535,-0.021091,-0.0227826,0.00861738,0.00256483,-0.0112625,0.0116621,0.0163337,-0.0194173,-0.00494373,-0.00550918,-0.0187052,-0.0418301,0.0125957,0.00216814,0.0176504,0.00130548,-0.000561406,-0.0112437,0.0244398,0.00275994,0.0127553,-0.0134518,0.0163351,-0.0146699,0.00922369,-0.0497137,-0.0187835,-0.00171861,0.0329064,-0.0274945,0.0108071,-0.0172768,-0.00584212,-0.0514905,0.0312863,-0.0029857,-0.00237676,-0.000554273,-0.0127628,0.0210288,0.0103688,-0.0138579,-0.00617923,0.00427214,-0.0128793,0.0129242,-0.00297339,-0.0351002,-0.0015252,-0.025293,-0.0260945,0.0105067,0.0281247,-0.0311568,-0.00155073,-0.0246935,0.0130032,-0.0276815,-0.0550994,-0.0199754,0.0301282,-0.0212335,-0.0468654,-0.0239523,0.0241857,0.00106318,0.00597032,-0.00519179,-0.0158943,0.00317867,0.00460564,-0.00454332,0.00309887,-0.029171,-0.0120672,-0.0237877,-0.00987549,-0.000372953,-0.0143105,0.0412092,-0.0397041,-0.00810455,0.00589232,-0.0313088,0.00622976,-0.00762923,0.0248966,-0.0304068,-0.0164019,-0.0182211,0.0094492,-0.0227735,0.00089561,0.0248048,0.018208,-0.0361407,-0.0132802,-0.0249484,0.0310375,-0.00396884,-0.00143751,-0.000176831,0.00267272,0.00234954,0.0343592,0.0179234,0.00550191,0.0078308,-0.022437,0.00146401,0.0126919,-0.00746688,0.00813966,0.00674343,-0.00751721,0.0168768,0.0266107,0.0224205,0.0115006,-0.00506704,-0.0101387,0.00561062,0.0211128,-0.00474485,-0.038176,0.0101496,0.0237957,0.00172314,-0.0616562,0.0135229,-0.0403953,0.00263166,-0.0175521,0.0451624,-0.00842707,-0.0134631,-0.0148638,0.0188639,-0.0200709,0.0126863,-0.00118005,-0.0248704,-0.0104883,0.0511032,-0.00969221,0.00903776,-0.00953108,0.00448586,-0.0115851,0.016645,-0.00969419,0.0110633,0.00939948,-0.0094941,0.0186151,-0.0240188,-2.37415e-05,-0.00895144,-0.00853542,0.00241582,-0.0250938,-0.0292454,0.00276298,0.0300392,-0.0081244,0.0146669,-0.0168943,-0.0228738,0.0179042,0.034187,-0.0229532,0.0141583,-0.0428287,-0.0120532,-0.00486523,0.0217927,-0.0350836,0.0189575,-0.039804,-0.0349164,0.0130968,0.00930302,0.0152888,0.00789107,-0.0164719,-0.0349672,-0.000920564,0.020617,-0.0193228,0.0370215,-0.0282527,-0.00553865,-0.0150903,0.0356529,0.0184299,0.0115944,-0.00631282,-0.0182475,0.039323,0.0212829,-0.0396682,0.0282777,0.021119,-0.000374298,0.0210561,0.00972286,-0.0389288,-0.0140723,-0.0236293,-0.0184345,-0.0340564,0.00647064,0.0149199,-0.029627,-0.00785646,-0.0137985,-0.0368695,-0.0260684,-0.0206795,-0.0200283,-0.0151272,-0.0114382,0.0377603,0.0547374,0.0262903,-0.00351353,0.00254067,-0.00677138,-0.0118616,-0.0249356,-0.0241116,-0.019376,0.0138142,0.00263568,0.0107914,-0.000338076,-0.000513846,0.0149233,-0.0208161,-0.0247891,0.00712257,-0.0251722,0.0102387,-0.0256637,0.0343437,0.0338464,-0.0104062,-0.00751184,0.00283312,-0.0260242,-0.0280755,-0.0263508,0.0133053,-0.00771539,-0.0281624,0.00148543,0.0105382,-0.022818,0.0171657,-0.000337297,-0.0254588,0.0113745,-0.0244302,0.0158619,-0.0475821,-0.0132678,-0.00533629,0.00683992,-0.0123764,-0.0171579,0.0116276,-0.00511692,0.0138936,-0.00999232,-0.0193915,0.0243318,-0.0142608,-0.00986507,0.0463284,-0.00395727,-0.0184349,-0.00289207,0.0335321,-0.00748563,-0.0241671,0.00225746,0.0196727,0.00653466,-0.0180177,-0.0137826,0.0202046,0.00869482,-0.0157026,0.0271734,0.00884568,0.00239786,0.0193832,-0.0109842,0.0128534,0.0333748,0.018959,-0.0205313,-0.00786346,0.00437,-0.00813299,-0.00802227,0.0116086,0.0221532,-0.017532,-0.0188818,-0.00639986,0.000632199,0.0201583,-0.00801035,-0.017023,-0.0368021,-0.0155028,0.010134,0.0110685,-0.0157877,0.0151143,0.0104217,0.0181007,-0.011403,0.0157882,-0.00182088,-0.00210231,-0.0123013,0.00890784,0.0330374,0.0162552,0.00764175,-0.0211174,-0.00322164,0.00341796,0.0456719,0.0106135,0.00752135,-0.0226094,0.0486765,0.0249854,0.0317625,-0.00275103,0.00202621,-0.0174131,-0.00409122,0.0230045,0.0102337,-0.0228935,0.00762481,0.0483938,0.0193763,-0.0321846,0.0159864,0.0243186,-0.0145083,-0.0147337,0.0290898,-0.0169192,-0.0356951,1.65332e-05,-0.0200199,0.0152212,-0.00947557,0.0209791,0.0206229,-0.0139181,-0.0267311,-0.0371001,0.000412646,0.0106681,-0.0160062,0.00682541,-0.0131962,0.00726655,0.0258656,0.0218821,0.0119387,-0.0123695,-0.00614527,-0.0205213,-0.0456527,0.0134731,-0.00455791,0.000413471,-0.0083626,0.0197545,-0.0200033,-0.0286815,-0.0134957,0.019905,-0.00577955,-0.00279097,-0.019967,0.0141653,0.0186044,0.016363,0.00562773,0.00917266,-0.0114476,-0.0018907,-0.0503453,-0.00899653,0.0333839,0.0120302,-0.00926853,-0.0131771,0.00255412,0.0189729,-0.00821904,0.0062023,-0.0282275,-0.00185361,0.0009642,-0.00939424,-0.0100117,0.00939979,0.0328268,-0.03024,-0.000452472,0.00115695,0.00302719,-0.00302781,-0.000339623,-0.0130835,0.00343765,0.0115549,0.0449364,0.00210692,0.0251678,-0.0278923,-0.0127949,-0.00580656,0.0314873,-0.0216935,-0.0141418,-0.0136273,0.0336568,-0.0157345,0.0454551,-0.0155719,-0.0201976,-0.00654178,0.00523856,-0.00961944,0.0267617,-0.00764493,0.0182433,-0.0197501,-0.012217,-0.00593148,0.00572882,0.00362162,0.0225554,0.00401427,0.0307296,-0.000825973,0.00698115,0.00910578,-0.00367642,0.04081,0.0177514,0.0202421,0.00365327,0.0199256,0.0104476,-0.0118207,-0.0373926,0.0178432,-0.0174561,-0.0673245,-0.0228367,0.0464277,-0.00168452,0.00383707,0.00146452,0.0288207,0.0317618,0.00909089,0.0137446,0.0084273,-0.00547946,-0.024412,0.0323195,-0.0121228,0.035,0.0309214,-0.00143179,0.0150332,0.00329843,-0.00209747,-0.0295606,-0.0448903,-0.00845623,0.0270416,-0.0303541,-0.0220668,0.0209287,0.00643125,0.0214617,-0.00517703,-0.0154575,0.00336043,-0.000667347,0.0134121,-0.0237543,-0.0167209,0.0278838,0.00744086,-0.0139581,0.0186345,0.0349956,0.00642567,-0.0238237,-0.0059182,-0.00724347,-0.0168589,-0.023674,-0.00233622,0.00361413,-0.0117813,0.0036141,-0.0107454,0.0225372,-0.0250863,-0.0350659,-0.0118406,-0.0114855,-0.0139582,-0.0166523,-0.0323734,-0.0118901,-0.013052,0.0138742,0.0174057,1.65989e-05,-0.0188633,0.0177526,0.0225105,0.0161137,0.0115784,0.0420263,0.0160123,0.0190199,-0.00791015,-0.0321063,0.021913,0.0131243,0.0431191,-0.0104994,-0.0043418,0.00755425,0.0415439,0.0331202,-0.00569382,-0.0296346,-0.00445347,-0.0102303,-0.0442153,0.00346109,-0.00111966,0.0051596,0.00460012,-0.0144919,0.0327821,0.0045412,-0.0163389,-0.0393202,-0.00835829,0.0118665,0.000179259,0.0257742,0.0145498,0.0471509,-0.0118296,-0.0169343,0.000572872,-0.00488345,0.00166401,-0.00711663,0.0145997,-0.0197789,0.0164699,0.00179642,0.013375,0.030616,-0.0168481,0.00458461,0.0117095,0.00760602,0.00601168,-0.00390741,-0.00939818,0.0343813,0.0208553,0.0299678,0.0398778,-0.00690577,0.0131068,-0.0184855,-0.0141998,-0.00577354,-0.0094261,0.00140748,0.0390329,-0.00190315,0.00590098,-0.0255233,0.00142841,0.00494124,-0.0192744,0.00705482,0.0145789,-0.00829307,0.0163355,0.0126576,0.0139641,0.0199054,0.00455963,-0.019194,0.0111263,0.00124052,-0.0150507,-0.0169255,-0.000256926,0.0149884,0.0200398,-0.0140938,0.000833845,-0.0428309,-0.0111467,-0.0109754,0.000937206,-0.0114999,0.0190097,-0.0135126,-0.0208878,0.0353684,0.0101535,0.00379047,-0.0136589,-0.00887759,-0.0255827,-0.0281273,-0.0161871,-0.0252104,0.011342,-0.0177389,0.0297687,0.0145027,0.0203742,0.00240059,0.0116489,-0.00286869,0.00926291,0.00436855,-0.0244508,-0.0225879,-0.000503608,-0.0196595,-0.0437802,0.0429889,-0.0337016,0.0324815,-0.0113334,-0.017322,-0.00789616,0.0137888,-0.000545957,-0.00920771,0.0148069,0.0181466,-0.0190704,0.0023833,0.0316573,0.00986079,-0.0283404,0.0103917,0.00719051,0.0323956,3.47593e-05,-0.0208277,0.00785259,0.012312,0.0521531,0.0268866,-0.0204545,-0.000601336,-0.0438857,0.000751594,0.0307918,-0.00383306,0.0152067,0.00820287,0.00701947,0.00293097,0.0352653,0.0310329,-0.00483124,0.0160797,0.0306595,-0.0107907,0.00396445,-0.0244058,-0.0189197,0.00113906,0.0257313,-0.0093674,0.010833,-0.0381364,0.0154063,0.032202,-0.0212814,-0.0194513,0.00650529,0.00598343,-0.0341094,0.0148069,-0.0232436,-0.0231278,-0.0119097,-0.0342308,-0.0188942,-0.00121295,-0.0279128,-0.00872658,-0.00029222,0.0427285,0.00133548,0.016599,0.0237327,-0.00976316,-0.0175271,0.014519,0.0248589,0.0123169,-0.0211357,0.00842903,0.00912889,-0.00691367,0.00520347,-0.0297564,-0.00538984,-0.045808,-0.00345734,0.0192398,-0.031199,0.0289006,0.0127786,0.0104842,0.0103752,-0.0233994,0.0195652,0.00794702,-0.0124421,0.0157285,-0.00506071,-0.00830743,-0.00399098,-0.00937756,0.00736408,-0.0011769,0.0294301,0.0187149,0.0151868,0.0150533,-0.0138941,-0.0097266,0.0161919,0.00131728,-0.0169566,0.00269583,0.0207732,0.00567795,0.00412056,9.76861e-05,-0.00761393,0.0404341,-0.0315431,-0.0273366,-0.0323496,-0.0213995,-0.0410786,0.00445283,0.00660619,0.00605703,0.0271564,0.0318698,-0.0167915,0.010862,0.0279616,0.00262343,-0.000944851,-0.0198472,-0.00329983,0.0285791,-0.0202079,0.0253894,0.035068,-0.0281852,0.0274308,0.00754964,-0.0120281,-0.0409623,0.013334,-0.00463597,-0.0103273,0.0218936,-0.00598728,-0.0197065,0.0524954,0.0221359,-0.00698385,-0.0214668,0.0195593,-0.0249446,0.0121971,0.0246491,0.0148974,0.00352207,0.00545947,0.00888227,0.0107738,-0.0232531,0.0017572,-0.0326469,0.0115692,-0.0191208,0.0351063,-0.0040003,0.000454943,-0.0118351,-0.00699449,0.0109044,-0.0260167,0.0192753,0.0193562,-0.000400161,-0.0258621,-0.0156536,-0.00296035,-0.0153964,0.000191965,0.0324325,0.00458338,0.000878189,-0.00650439,0.00515219,-0.00569647,-0.0125818,-0.00758487,0.000433391,0.00168877,0.0220875,-0.0134179,0.0401936,0.0357289,-0.0412067,0.0347875,-0.00488099,-0.00857276,0.00799457,-0.0134458,0.000571428,0.016442,0.000854138,0.0293019,-0.000463092,-0.00584961,-0.00851591,-0.00680214,-0.0252042,0.00766664,0.0172657,-0.000840869,-0.0199976,-0.0134341,0.013423,0.0125325,-0.021123,-0.00365001,-0.0287005,-0.0140533,-0.0252715,-0.0240784,-0.0251111,0.0143962,0.000630295,-0.000413136,-0.00612451,-0.0206172,-0.0270473,-0.0363818,0.00289033,-0.0082006,0.000305119,-0.0112843,0.0208229,0.00168691,-0.0295814,0.00884883,-0.0295367,0.00472579,-0.0256264,-0.00224414,-0.0301147,0.000214939,0.0327838,0.0182721,-0.0186957,0.0142054,-0.00760774,-0.00488885,-0.0172838,0.00524526,0.00672461,-0.0160845,-0.0101553,0.0139947,-0.0165805,-0.0106703,-0.0231069,0.0160118,0.00592113,0.00981879,-0.0237681,-0.0187666,0.0206787,-0.00703774,0.00960389,-0.0054139,0.000998706,-0.00627777,-0.0367148,-0.00428973,-0.0119453,-0.00526286,-0.00724726,0.0155938,0.0117634,0.0510812,-0.0284998,-0.04016,-0.0102756,0.0249591,0.0351087,0.00208524,0.0241057,-0.0193364,-0.00125264,-0.0300854,0.00741914,0.00185807,0.0223281,-0.0222391,-0.0139548,0.0121761,-0.0116728,-0.00241658,-0.0139642,-0.0211722,0.00144039,-0.0237961,0.0146799,0.00997631,0.0209353,0.00176548,0.0543431,0.0210419,-0.00210065,0.00740079,-0.0137872,0.0140767,0.0271756,0.0182035,-0.00595577,-0.0119866,-0.00623456,0.00342356,-0.0318498,-0.0140858,0.0209171,0.0243201,-0.00749244,-0.0265181,-0.0216433,0.0297123,-0.0234303,-0.0151841,-0.0222995,-0.00806506,-0.00641434,-0.00471007,-0.0225592,0.0128293,-0.0119278,0.019656,0.00227533,0.00729999,0.0333878,0.0187223,0.0111598,-0.00863708,0.0194233,-0.00525917,0.0167835,0.0285168,-0.0110557,0.0186438,0.00271632,0.00992412,-0.0306291,0.0136762,0.0129138,-0.00947754,-0.0257622,0.00521018,0.000399024,-0.0116162,-0.000299184,-0.0151934,-0.0172332,0.00203142,-0.0144694,0.0611949,-0.00547482,-0.0327238,0.02647,0.0263694,-0.0139914,0.0112793,-0.00632093,0.00320312,-0.00202159,0.0189142,-0.0136555,0.00792802,0.0166351,-0.00182855,0.00239651,-0.0281363,0.0062222,-0.00510603,-0.0125699,-0.0297076,0.0128461,-0.0609457,0.00929587,0.00332695,0.0110552,0.00994222,-0.0240993,0.0228695,0.0164297,-0.00173407,0.0163226,-0.000963507,-0.00736956,0.00333872,0.0207282,-0.0253965,-0.014594,-0.0280384,-0.0199241,-0.0110591,-0.0518425,-0.0210949,-0.0108191,0.0205189,0.00200298,-0.00795044,0.027743,-0.00267111,0.0227837,0.00790906,-0.00226285,-0.00759317,-0.0129645,0.00363637,0.0126853,0.0148726,-0.00308634,-0.0381785,0.00985008,-0.00421533,-0.011569,0.0256582,0.00450285,0.0327896,-0.0080608,0.0219698,-0.0126344,0.00657988,0.00154063,0.0130166,-0.0291743,-0.000816133,0.0113752,0.0102512,0.00959891,0.0175335,0.0124492,0.0438417,0.018482,0.00793286,-0.00894532,0.0020431,0.0334824,-0.0187575,-0.0262411,-0.00813347,0.00329156,0.0118902,0.0233086,0.00923496,-0.00970879,-0.036419,0.0257995,-0.0188227,0.0329424,0.00493978,-0.0369563,0.018751,0.00158931,0.0282645,-0.0282543,-0.0259604,-0.00656068,-0.0113616,0.00737213,0.00690137,-0.0248608,-0.00352981,0.00805904,-0.0170546,-0.0138722,0.0236437,0.00448227,-0.0294659,0.0534454,0.0183982,0.0040452,-0.0130697,-0.00115049,-0.0234311,-0.0162603,-0.00798995,-0.0450829,0.0140346,-0.000343776,-0.00398344,0.00664899,0.0198006,-0.00110103,-0.0268118,-0.0133251,-0.0156888,-0.028151,0.0227051,-0.0427277,0.0278519,0.0336809,-0.0161494,0.00265293,0.0426452,0.0381255,-0.0148068,-0.00515393,-0.00654078,0.00109799,-0.00889016,-0.0143787,0.0037944,-0.0228432,0.018826,-0.00923363,-0.0167401,-0.0152437,0.00975282,-0.0158884,0.00708248,-7.51222e-05,0.0170176,-0.00535931,-0.0409369,-0.00467824,0.0149847,-0.00349549,-0.0269062,-0.00584345,-0.00509725,-0.00823306,0.00248583,0.0341017,-0.0122818,-0.0396827,-0.00127992,-0.0181562,-0.0161927,-0.002901,-0.00460431,0.0221099,0.0421522,-0.0135849,0.0302409,0.00312757,0.00776351,-0.00986194,0.014051,0.00233458,0.00500124,0.00496399,0.0390136,-0.00268006,-0.0350041,-0.0150532,-0.0024404,0.0130097,-0.0138933,0.000116344,-0.0149843,-0.0355001,-0.0138509,-0.00179613,0.0113092,0.00797854,-0.0152023,-0.00616147,0.0241991,0.00332436,0.0113155,-0.000827671,0.0114304,-0.0116353,0.0152364,-0.0143996,-0.00245838,0.0117702,0.00408902,0.0142445,0.00566206,0.0102985,-0.0208647,0.00220485,-0.00103053,0.00506728,-0.0061752,-0.0128147,-0.0146087,0.00751278,-0.00377788,-0.00492112,-0.00521016,0.00475525,-0.0014347,0.00499254,0.0167806,-0.0403747,0.00890806,0.00145126,-0.00937129,-0.0453426,0.0078836,-0.0277667,-0.0352496,-0.0234571,-0.00588223,0.00647959,0.0390493,0.0063717,0.0398378,-0.00430074,-0.0121162,-0.00363374,0.0148636,0.0247939,-0.000500194,-0.00292726,0.00598335,-0.0278023,0.0274916,0.0437675,0.0232367,-0.0176914,-0.0152568,-0.0357958,-0.0125373,-0.00108096,0.0244839,-0.00370242,-0.0135436,0.0109541,0.0139154,-0.0213529,0.00253948,-0.0234442,0.00775306,0.00635542,-0.03055,-0.00248408,-0.0177932,0.0329193,-0.00113701,-0.0201098,0.0184907,0.00605408,0.0225312,-0.00368942,-0.0193375,-0.0105151,-0.00542156,0.0254054,-0.0133944,-0.025604,-0.00969871,0.00213897,-0.0189656,-0.00806119,0.0281219,0.00289718,-0.0133419,-0.00378985,0.0231078,0.00361066,-0.0240408,-0.0189239,0.0251555,0.033254,-0.0153493,-0.0265242,0.0148858,0.0232004,-0.00823365,-0.00479184,0.00503839,-0.0062042,0.00292954,0.000614473,0.00773753,0.0076991,-0.00291138,-0.00536123,0.0345083,-0.0244194,-0.0200276,-0.0067866,-0.0455094,-0.0119504,0.00322891,3.19803e-05,0.0376773,0.00521335,0.0129497,0.018375,-0.02949,0.0280409,-0.0193837,0.0251391,-0.041177,-0.0476112,-0.00348215,-0.000382716,0.0055117,-0.00370986,0.0123307,0.00334309,-0.0282289,0.0180135,-0.00271866,0.0196023,0.0110657,0.0268876,0.0243464,-0.013274,-0.0150887,-0.0142776,-0.020021,0.00053371,0.0181298,-0.000993932,-0.00895575,0.0333199,-0.0469791,0.030353,-0.0187555,-0.0468312,0.0304006,0.000248811,-0.00103202,-0.00855451,0.00108195,0.0194643,0.0270894,-0.014439,0.0226271,-0.0288036,0.0393889,0.0107303,-0.000556673,0.00878137,0.000884199,0.0314736,-0.0015137,-0.00300024,-0.0179788,-0.0281937,-0.00869761,0.0110643,0.0039421,0.0016015,0.00402924,0.0012191,0.00643593,0.0394904,0.0016135,0.0195916,-0.0260296,0.0130094,-0.0213511,-0.018699,-0.000420971,-0.021236,-0.000897654,-0.00451973,0.00298054,-0.0265877,0.00838022,0.0200777,-0.0257718,-0.0112472,-0.0193347,-0.018597,0.00955244,-0.0237368,0.00712897,0.0178376,0.0107548,-0.00273333,-0.00435815,0.0194169,-0.00821183,0.00194292,0.0132792,0.00283299,-0.00102228,-0.0250979,-0.021416,0.00893799,-0.0126417,-0.00973007,-0.0180494,0.0105132,-0.0180612,-0.00196933,0.0023989,0.0269773,-0.0225732,0.0181451,0.00918488,0.00785621,-0.0184463,-0.0262041,-0.00433895,-0.0328836,-0.0225528,-0.024177,-0.0083079,-0.000207471,0.00600221,0.0125887,0.0184173,0.00443707,0.0156518,-0.0453947,-0.0367909,-0.0136373,0.0153363,0.0291914,0.00452703,-0.00211142,0.00274871,-0.0019847,-0.00375477,0.0275463,-0.0255415,0.0156704,0.0302941,-0.0166102,-0.00256992,0.0048386,0.00780903,-0.00201494,0.00401659,0.033965,0.0160514,0.0366784,0.024433,-0.0201592,0.00203527,-0.0059112,-0.0135075,-0.0239764,-0.000764725,-0.0387809,0.0269721,-0.0224609,-0.0114006,-0.00533221,0.00597441,-0.0130335,-0.00394623,0.0482813,-0.0432682,0.0338427,-0.0157662,-0.0148781,-0.010773,0.00696214,0.00160576,-0.0224745,-0.029555,-0.000317493,0.00516722,-0.0172937,0.0012648,0.0166235,0.014103,0.0144464,-0.0330979,-0.0116259,-0.00679879,-0.0303166,0.00364037,-0.0166788,-0.00873274,0.0112478,-0.0268626,-0.00217019,-0.00839371,-0.00777737,0.0193649,-0.00841384,0.0217436,-0.0141684,-0.0235048,0.00808078,-0.0076508,-0.0328639,0.0124555,-0.025764,0.0343595,-0.0216343,0.0205354,0.00302945,-0.00550379,-0.0104216,-0.0013152,-0.00747347,0.0109535,-0.0118445,0.00450927,0.0130377,-0.0299349,-0.0154251,-0.0333526,0.000665041,0.0105611,0.014649,-0.0166601,-0.0210697,-0.0150213,-0.030465,-0.0372498,-0.00171091,-0.0191047,-0.00030787,-0.0104108,-0.0347302,-0.000704587,-0.0501769,-0.00697105,0.0606257,0.0075534,0.00183188,0.0185442,-0.00852714,-0.0103158,0.00667481,0.0281111,-0.00870144,0.0169056,0.0171194,-0.0189383,0.0208428,0.000932069,-0.000348941,0.00822004,0.000300355,0.00656952,0.0448323,-0.00155856,0.000283259,0.00123157,-0.00436587,0.0357761,-0.000834918,0.0347412,-1.41256e-05,0.00237063,0.00013559,-0.016,-0.017821,0.0244724,-0.00961871,-0.0104437,0.0310138,0.0110275,0.00342064,0.0131413,-0.0177898,-0.040446,-0.0153789,0.0090539,-0.0268119,-0.0282587,0.00529489,-0.00234811,-0.023871,-0.0161126,-0.014973,-0.0392035,0.0308898,0.0181527,0.0133152,-0.0213006,-0.0194236,0.0375637,0.00554263,0.0276258,-0.0121933,-0.000434153,0.00467712,-0.0195271,-0.032163,0.00290176,-0.00643591,0.00119845,0.000165071,0.00491544,0.0292177,0.00739311,0.0561987,0.0289391,-0.00531304,-0.0423909,-0.00328909,0.0018987,0.0514464,0.0183651,-0.0452665,-0.0130701,-0.00477078,0.0239907,-0.0202482,0.022768,0.0227252,0.00589879,0.00409792,0.00992305,-0.0155868,-0.0216807,0.00652931,0.0244258,-0.00322306,-0.00105208,0.0132235,0.0270287,0.00879787,-0.0224244,0.00129597,-0.00350023,0.0314593,0.0411657,0.0188047,-0.00178105,-0.0157333,0.000103837,-0.030466,-0.023352,-0.0176839,0.0244509,0.0244512,0.0123225,0.0060654,0.00137882,-0.000906393,0.0106478,0.00278225,-0.0191004,-0.0123067,0.02617,0.00854381,0.00826263,0.00490452,0.0249251,-0.00277682,0.0518796,-0.00119293,0.00809474,0.0142628,-0.00661224,0.0135167,0.0144296,0.00689215,-0.0400479,-0.0209796,-0.0388694,-0.0160114,-0.0286194,-0.0239385,0.0273853,0.0299801,-0.00318607,0.0313634,0.0330418,0.0131207,0.0343033,0.00484489,0.0112497,0.00218156,-0.0318041,-0.0134723,-0.0223541,-0.0321126,-0.000525265,0.0175757,0.016188,0.014095,0.0028091,-0.0184744,0.0305839,0.0193967,0.0253109,0.0154632,0.0185878,0.0139569,0.0232159,-0.0243678,-0.00670217,0.0309636,-0.00122835,-0.029281,-0.0222924,0.0240704,-0.0118917,0.0182514,0.011792,-0.00583238,0.0103789,-0.0102187,-0.00605647,-0.00130174,0.00941354,0.00257564,-0.0180219,0.0255501,-0.0257416,0.0211432,0.0166655,-0.00587386,-0.0149875,-0.0122722,-0.0373237,-0.0119127,-0.0211327,-0.0120999,0.0401062,0.00427143,-0.000457392,-0.0326707,0.0272833,-0.0102615,0.0163858,-0.0289187,0.0100085,-0.0362194,0.0135592,0.00138962,-0.0137208,0.00893609,0.0360238,-0.0191285,0.00177561,-0.00732924,0.0213483,-0.000808934,0.00279859,0.0013036,-0.0195556,0.0337615,0.0017591,-0.0199767,-0.0519085,0.000899369,0.0353594,0.0103746,0.0143834,0.0113425,0.0296415,