{"config":{"context_length":256,"hidden_size":64,"learning_rate":0.001,"num_layers":2,"vocab_size":113},"weights":[{"data":[0.0273157,0.00991188,0.000572507,0.0201216,-0.00106986,0.00887938,0.00140706,0.00392108,0.0116554,-0.0164586,-0.0100959,0.00243752,-0.0127864,-0.00955855,0.0241762,0.00831088,-0.0182109,0.0282914,-0.00306892,-0.0168693,-0.00221232,-0.0206287,-0.014511,0.0245891,0.000532673,-0.0160003,0.036435,0.010103,0.0217448,-0.0179933,0.0055386,0.0168043,0.036393,-0.0180115,-0.00916537,-0.0207551,0.00435757,-0.0162195,0.00575064,-0.0151229,0.0244783,0.0449481,-0.00539316,-0.0101824,-0.0115097,0.0183665,0.024948,0.0127454,0.0252848,0.040153,0.0377243,-0.00478734,0.00366477,-0.0184821,0.00941418,-0.0168077,-0.00368991,0.0124475,0.0101249,0.0122664,0.0178776,0.0120544,-0.0212374,-0.0222907,-0.0134976,-0.0114965,0.0362673,0.0182134,0.0114373,-0.00512049,-0.0100535,0.0187209,0.00412755,-0.0394228,-0.0499017,0.0354283,-0.0151813,0.0105586,-0.0194781,0.0148776,0.0167622,-0.00398919,0.00441041,-0.0065307,-0.026258,-0.0228866,0.00558585,-0.0254346,-0.00843228,-0.0203619,0.0132198,0.00707767,-0.00466091,-0.010992,0.0263074,0.000808713,0.00407363,0.0089584,-0.0283235,-0.00969297,-0.00826072,-0.0030533,-0.0244467,0.00157212,0.00621671,0.0289078,-0.025571,-0.0290306,0.0120964,0.0332397,-0.0108548,0.0349704,-0.0141129,-0.00340767,0.0295556,-0.0123145,-0.0254935,-0.00708141,-0.0155008,0.00801399,0.00247589,-0.000422534,-0.0182931,0.00308543,-0.0534091,0.0109207,-0.00408721,0.0063399,-0.0135719,0.00432979,-0.00748906,-0.00524534,0.0262786,-0.00452926,0.0118757,0.0129425,-0.0218812,-0.00955653,-0.015531,0.0236935,0.0037658,-0.0133167,0.029519,0.0100535,-0.0142082,-0.00422917,0.00415701,-0.0408108,0.013298,-0.0295273,-0.0034198,0.037222,-0.0010091,-0.00314442,-0.0142196,-0.0227768,0.00444459,0.000934123,0.0141857,0.00532524,0.0296975,0.00956237,0.0183599,0.00775162,-0.012758,-0.00146591,0.00354666,-0.0178658,0.00815026,-0.0188735,-0.00330791,-0.00123917,-0.018942,0.0017708,0.00224451,-0.0101463,-0.0095836,-0.000861636,0.0171351,0.00450124,0.0125387,-0.0109052,0.0230688,0.0110816,0.00531567,0.038574,-0.0146664,-0.00476002,0.00246297,-0.030388,-0.0235095,0.0177615,-0.0282414,-0.0121052,0.0350331,0.0293447,0.020029,0.00857516,0.00461776,-0.0105879,0.00228131,-0.0300995,0.0178088,0.0309567,-0.0125786,0.00463848,0.00254718,-0.0176744,-0.0046629,-0.0424965,0.0244019,0.0164303,0.00609407,0.00140938,0.0248496,-0.017542,0.0325824,0.00646399,0.014244,0.0202384,0.00266339,0.00982389,-0.0145576,0.0103848,-0.0159833,-0.0298386,0.0101483,-0.0230603,-0.0236104,-0.0131401,-0.0331665,-0.0209718,-0.00289903,-0.0165001,0.00642126,-0.0218978,-0.0342696,-0.0184438,-0.015338,-0.00497082,0.0124354,-0.0176543,-0.00159609,-0.0376938,0.0226071,-0.0310868,0.00340494,-0.00557964,-0.0358603,0.023912,-0.000731516,0.0130371,0.00166005,-0.0337937,0.0160792,0.019079,-0.00184619,0.00243646,0.00439791,0.040023,-0.00762537,0.0130283,-0.0154581,0.0449429,-0.0237511,0.0416639,-0.0102792,0.00693241,-0.00820592,0.0020584,-0.00188909,0.0146854,0.00400708,-0.00502535,-0.00612307,0.0454594,0.00667033,0.0121327,0.00874815,0.031204,-0.00460667,-0.0416335,0.00474609,0.0326392,0.0052865,-0.0116002,0.0175416,-0.0219083,0.0383395,-0.015235,-0.00217887,-0.0235389,-0.019403,0.025219,-0.000672669,0.0168304,-0.00186795,0.0101711,-0.0228169,-3.15704e-05,0.022383,0.0321271,-0.00173442,0.00285616,0.00192239,0.00784472,-0.0133675,0.0127071,0.0297771,-0.0230961,0.0481388,-0.0120927,0.013912,0.010386,0.000552051,0.00219563,-0.00265161,-0.00407303,0.0492995,-0.00318358,-0.00787461,0.02545,0.0131926,0.0292843,0.00989325,-0.0145482,-0.0144449,0.0357682,0.0148904,0.0264764,-0.013724,0.0103707,-0.00352846,0.0126975,0.000185928,-0.0193366,0.000363185,0.0209009,-0.0164159,0.0280896,-0.017181,-0.00792463,0.0291831,0.0252479,0.00927345,-0.00108122,-0.00684351,-0.0403833,-0.0226398,-0.00668229,-0.00907891,0.0195521,0.0380363,-0.00160114,-0.00424275,0.0180491,0.000188742,0.0119288,0.033531,0.00695874,-0.0224999,-0.00436204,-0.0227821,0.0242639,-0.030229,-0.0143652,0.0346885,-0.0348492,-0.00979913,0.00820933,-0.0101113,-0.0427413,0.00314911,0.0371137,0.00595046,0.00484223,0.0313687,-0.0370061,0.00517127,-0.0223062,0.0423273,0.0014382,0.017688,0.0203033,0.0189677,0.0288487,0.026196,0.0139,-0.0163797,0.0118341,0.0122033,-0.00596442,0.00239605,0.0569977,0.0383809,-0.0122322,0.0302172,-0.0115201,-0.0206889,0.0312296,0.0104885,-0.000290288,-0.0246284,0.0125727,-0.0215086,0.0200824,-0.0226609,0.011545,0.0500173,0.00281151,-0.0165427,-0.0388047,-0.0144305,0.0120411,0.0287338,0.0145241,0.013717,-0.0108379,-0.00570346,0.0258606,-0.00639641,0.0249049,0.00505282,0.0262069,-0.00959376,0.00977152,-0.0261036,0.0418111,0.00631196,-0.00635355,0.0287123,-0.0250282,-0.0206757,0.00200854,0.0471199,-0.036536,-0.030474,0.0142379,0.00543278,-0.00560581,-0.00622965,0.00694263,0.000167684,-0.00367347,0.00409673,-0.0199397,0.0245585,0.021153,-0.0268597,0.0187956,0.0217327,-0.00336689,0.0129065,-0.0227477,-0.0125686,-0.00774193,-0.0237951,0.000482411,-0.0191202,0.0181902,-0.0201834,-4.18844e-05,0.0142296,0.0126624,0.000767202,-0.0240464,0.0225005,0.00565419,0.01008,0.0117397,0.0389528,-0.000573003,0.0216271,-0.0123329,-0.0174925,-0.00117514,0.013467,-0.0135122,0.00766583,0.0259128,0.0201806,-0.0307413,-0.00736874,4.61206e-05,0.00245566,-0.00669975,-0.0102856,0.0330641,0.0109687,-0.0311059,0.00814129,0.033754,0.0171779,0.00230859,-0.00215624,-0.0121454,0.00891408,-0.000994048,-0.0421115,-0.036553,-0.00548592,-0.00950238,-0.0199722,-0.00266311,0.00609089,-0.00404959,-0.00262106,0.00450671,0.0120742,-0.0459985,-0.00785404,0.0144349,-0.0146549,0.010625,0.00641468,-0.0438336,-0.00692602,-0.0116677,-0.0111797,0.0189645,0.000670868,0.0221418,-0.022623,0.0209549,0.0442562,0.0467247,-0.0364744,-0.0193214,-0.0240843,-0.0169633,-0.00133275,-0.00938175,0.00875699,-0.00767587,-0.0226152,0.0054235,0.0226483,-0.00698093,0.0173423,-0.0271378,-0.0034051,0.0442169,0.0228321,0.0260056,-0.0196228,-0.0250831,0.0160913,-0.00531652,0.0383459,0.00640283,0.00719629,-0.0144987,0.0141355,-0.0103252,0.0247885,-0.0693993,0.00782264,0.00442612,-0.00557301,0.0126446,0.0185801,0.0176736,0.00493008,0.0512422,-0.0459134,0.0180976,-0.000813161,0.0277681,-0.00250324,0.0244825,0.00889209,0.00577267,-0.00919204,-0.0055391,-0.0114513,-0.0436514,0.0126725,-0.00253314,-0.00125675,-0.0208742,0.0172457,-0.0137751,0.0166604,0.00143701,0.00236552,0.0150356,-0.00190895,-0.00490561,-0.0302671,0.0115208,-0.0202881,-0.0156583,0.02862,0.0282623,-0.00810064,-0.0172799,0.00473669,0.000264494,0.0367176,0.00993334,0.00590799,-0.0340741,-0.0133343,0.0267864,0.0211246,0.0183769,0.0206567,0.00407028,-0.020083,0.0400547,0.0251935,0.0016194,-0.0126113,0.0190191,-0.0363079,0.00678421,-0.0136437,0.0245176,0.00881914,0.00569266,-0.00197336,0.0432315,-0.000665575,-0.0172527,-0.0178351,0.0205313,-0.00751674,-0.0244847,0.0427272,0.00659392,-0.0170306,-0.0106838,0.00310304,0.00957528,-0.0100823,-0.049686,0.00267594,0.002472,-0.0179284,-0.00451074,0.0170066,0.0089728,0.0187263,-0.00416895,0.010931,0.0148906,-0.0271789,-0.0288561,-0.034129,-0.0182971,-0.00308686,-0.035998,0.0214021,0.0062887,0.0074519,-0.00367742,0.0252761,-0.0109932,0.0239668,-0.0241032,0.0172946,0.0153197,-0.0239525,-0.0136351,0.0108506,-0.00387913,0.0133438,-0.0200555,-0.0306111,0.0277308,0.00179616,-0.0248681,0.010634,0.0074409,0.0117138,-0.00270432,-0.043962,0.0411924,0.00270801,0.00422372,0.0579151,0.000389382,0.00167413,0.0172195,0.0305535,-0.0205685,-0.00068921,-0.00496088,0.0160995,-0.00728662,-0.0341922,0.0057643,0.00534304,0.0145661,-0.0246032,-0.00169528,-0.00363922,-0.004062,0.049581,0.0218967,0.00848956,0.0121721,-0.00777322,-0.0018491,0.00419832,0.0339591,-0.013918,0.0144238,0.0073663,0.0088336,-0.0141186,-0.0303357,-0.0192386,-0.00287878,-0.0116433,-0.0119255,0.0121452,0.0223608,-0.00914895,-0.00742037,0.0352727,0.00570184,0.0146775,-0.0377747,-0.0207555,0.054308,0.00310228,-0.020657,-0.000753211,0.0175515,0.00543395,0.019447,-0.00623965,-0.0330126,-0.00870605,-0.00173545,0.0628089,0.00948505,0.0195364,-0.00994948,0.0303677,-0.00245435,-0.00696038,0.0258947,0.0249289,-0.0213149,-0.0191624,0.0210102,-0.0325106,0.00753245,0.00560684,-0.00408239,-0.00370383,0.000204183,0.00642055,0.00837163,-0.0172473,-0.00946948,0.0340314,-0.00177379,0.00530488,-0.0141296,0.00096911,-0.0127093,0.0127632,0.0250269,-0.0309782,-0.00341191,0.00705255,-0.0109408,-0.0164384,0.0544117,0.00866222,0.0249768,-0.0137928,0.048882,0.0140668,0.00743651,0.000212185,0.0173818,0.0139603,0.000773009,-0.0182182,0.0105743,-0.00308786,-0.0245202,-0.00252732,0.00130538,-0.00867456,-0.000988726,0.0499921,0.0134593,0.0272853,0.0227397,-0.0071396,-0.0263842,0.00306951,-0.0199729,-0.0187827,0.0343769,-0.0198087,0.00289308,0.0182611,0.00372116,-0.00352205,0.0361645,0.050585,0.00682382,0.013478,-0.0334172,-0.0020242,0.00934458,0.00429018,0.0386944,0.0248162,-0.0314612,-0.00610031,-0.0210128,-0.00559365,-0.00173755,-0.00538849,0.01766,0.0138393,-0.0249524,-0.0459486,-0.0198309,0.0207058,-0.0022079,0.0324742,0.0124088,-0.0384943,-0.00405746,-0.0198798,0.0266893,0.0212969,0.00388451,0.017174,0.00902141,0.0343685,0.0285225,0.0187942,0.00523655,-0.0226046,-0.0403559,0.0106439,0.0292843,-0.0185714,0.0170936,-0.0191223,0.0150618,-0.0185558,0.00711643,0.00824834,0.00939037,-0.0354591,0.0139714,0.031311,-0.000288198,-0.00174393,0.0354546,0.0117301,0.0128346,-0.0180666,0.031754,-0.00705145,0.00499405,-0.0189042,0.0207138,-0.00246497,0.0171315,0.00954045,-0.0411941,-0.0283016,-0.0232425,-0.00139194,0.0191931,-0.0328797,-0.0275639,-0.00846573,-0.0130235,-0.00351276,-0.0207089,-0.00203462,-0.020035,-0.0200672,0.000514167,-0.029201,0.0085947,-0.0043809,-0.00426457,0.00387479,-0.0205624,0.0313954,-0.0141278,-0.00399687,0.00372053,-0.0215355,0.0325069,-0.00388763,-0.00211283,0.0276947,0.00593228,-0.0238003,-0.0185202,0.0162084,0.00622604,-0.008525,0.0237145,-0.0347178,0.00840423,0.0256453,-0.00907678,0.0215411,0.00636526,0.0256993,-0.0352533,0.000411469,0.00685733,0.0152729,-0.0209098,-0.0116822,-0.00782637,-0.00594669,-0.019031,0.0415957,-0.0178457,0.0112527,0.00831874,0.0171262,0.0042799,0.00825949,0.00796235,-0.00877688,0.0117193,0.016484,0.0280766,-0.0177575,0.00862599,-0.0367721,0.0155422,-0.0223889,-0.000463772,0.0221643,-0.00739057,0.0174363,-0.00699614,-0.0241728,-0.0019488,0.00554564,0.0093445,0.0164973,-0.00353238,-0.0218446,0.013191,0.0156818,0.0182045,-0.0193855,-0.001945,-0.00443267,-0.00117085,-0.00767906,-0.0614105,-0.00017648,0.0144604,0.0210082,-0.0512223,0.0101261,0.0194774,-0.00500761,0.040709,-0.0381288,-0.00730636,0.00379506,0.0118275,-0.0390889,0.0149639,0.0026617,0.0354126,0.00047899,-0.00534963,0.00666486,-0.0267101,-0.0314147,-0.0101961,-0.00680465,-0.015972,-0.00180729,0.000164062,-0.0202501,0.0113065,-0.022153,-0.0120742,0.00383768,-0.0129336,0.0124297,0.020463,0.0426884,-0.0217146,-0.00366813,0.0153794,0.0077805,0.0124599,0.0163143,-0.015956,-0.0272541,0.0145199,0.0286244,0.0126757,-0.000640089,0.0105267,0.0299687,-0.0087732,0.0316548,-0.00185553,0.0105887,0.0085699,0.0117737,-0.00107092,-0.0280024,-0.00973519,0.0209138,-0.0138844,-0.0336218,0.0257029,0.02154,-0.0351735,0.0435334,-0.0109833,0.00365807,0.0181555,-0.00150837,-0.0549119,0.00602732,-0.0223317,0.00567985,0.0404824,0.0106157,-0.00826591,-0.0435323,-0.0101292,0.0234823,0.0316993,-0.00838703,-0.00122107,-0.0105615,-0.00267667,-0.00441792,-0.00636662,-0.0323998,0.0111069,0.0355641,0.0120111,-0.000170046,-0.00163824,-0.00704769,0.0277678,-0.00768664,0.00332719,-0.0196487,0.0179149,-0.0318495,0.0043594,0.02819,-0.0120917,-0.0130662,0.0135616,0.037763,-0.0273008,0.00513187,-0.0143056,0.0257629,0.0136248,0.00256594,0.00761798,0.0107473,0.00931608,-0.00757186,0.0176762,-0.0174918,0.014164,-0.00926035,-0.00646936,-0.0106524,0.00532824,0.00648939,0.00795053,0.0121525,-0.00589785,-0.00272003,-0.0138558,-0.0192325,0.0174056,0.020301,0.029403,0.0325868,0.00572356,0.0081321,-0.0207155,-0.0301283,0.0288553,0.0120375,0.00429661,-0.0558171,0.00576361,-0.0288002,-0.00464249,-0.0387978,-0.0125258,-0.0352177,0.0063531,-0.0163955,-0.0213426,-0.00438046,-0.00569164,-0.0022047,0.0138117,0.00755753,-0.00954013,0.0169797,-0.0113264,0.00694464,0.00238873,0.0130729,-0.0143722,-0.0263069,-0.00481025,-0.0133775,-0.000473612,0.0252501,0.00073426,0.020389,0.0408518,-0.0289135,-0.00693773,0.0110266,-0.00581657,-0.0403399,0.00892088,0.0138398,0.00425906,0.0219247,0.00832952,0.0208962,0.00902672,0.0343499,-0.00342457,0.0330623,0.00366685,-0.026541,0.0318832,-0.011305,0.00224333,0.00501541,0.00669219,0.00727364,-0.00666088,0.0218711,0.0151007,0.01087,0.0243716,-0.0177396,-0.00181816,0.0264565,0.0082071,0.0619611,0.0151727,0.0051895,0.00469632,0.00690917,-0.0276258,-0.0473211,0.00442874,-0.00919845,0.00587673,0.00341163,0.0027088,-0.00348539,-0.0124735,0.00905348,-0.00427619,0.0421745,0.0123749,-0.0164886,0.0227785,0.0146619,0.018669,0.0170373,-0.00464531,0.0364065,0.00431329,-0.0321339,0.0207616,0.0110859,-0.012006,0.00650325,-0.0161742,0.00505409,0.0183369,0.00343533,-0.0163309,0.0472248,-0.00731,-0.00591349,0.044302,-0.0102893,0.0211281,0.00351754,0.00402233,-0.0190892,-0.0120912,0.0150268,0.000776881,0.0396688,0.0376225,0.0103397,-0.0433793,-0.0073193,-0.0109611,-0.0187876,0.0109504,0.00825426,0.00407376,0.000169425,-0.0190522,-0.0114009,0.024066,0.00455716,0.0156902,0.0171954,-0.0607747,0.0204431,-0.0285762,0.013927,-0.0129023,-0.0180189,0.0169822,0.00400217,0.0132346,0.00383552,-0.0128504,0.0133062,-0.01274,-0.00770618,0.0248934,-0.0253835,0.00329953,-0.00266498,0.027529,-0.00884027,0.0234531,0.000775695,-0.0327848,0.0120432,-0.0224502,-0.00249774,-0.0136701,0.00602251,0.0015157,0.0027146,0.0242314,0.026011,-0.00864447,-0.00130807,-0.00401408,0.00287808,0.0163861,-0.0186039,-0.0178679,-0.00613746,0.00670702,-0.0320738,-0.00727738,0.0154858,0.0103507,0.00665881,0.0344667,-0.0162189,0.0164002,-0.00251449,-0.0449815,-0.055728,-0.0631137,0.0175121,0.0138406,0.00130106,0.00946279,0.00443574,0.0139627,0.00255078,-0.058969,-0.0211427,0.0416087,-0.0156075,0.00300342,0.0212078,-0.000757747,0.00934664,0.00960706,0.0362409,-0.0340924,-0.00106774,-0.0164404,-0.0174153,-0.0292476,-0.00286899,-0.00549921,0.00107439,0.0197247,-0.0200777,0.0401242,-0.0245081,-0.00522617,-0.00906334,0.012697,0.0388201,0.00727169,0.0262923,-0.00533434,-0.0127718,0.00354422,-0.00642601,-0.0148692,-0.0233368,0.0137912,0.0249758,0.0250671,0.0494524,-0.0266271,-0.00398627,0.00336705,-0.0158677,-0.000285574,0.0215396,-0.0504756,0.0059124,-0.00590858,-0.0221671,0.00702419,-0.0295918,-0.0149999,-0.0271988,0.00796421,-0.0237525,0.0436676,0.0401305,0.0208866,-0.02983,0.00637854,-0.00446791,0.00960818,-0.0222406,0.000190473,-0.000525272,-0.00992768,-0.0282064,0.00711312,0.00124856,-0.0199155,-0.0228961,-0.00122056,-0.0388937,-0.00143092,-0.00400327,-0.0106729,0.0456459,0.000644924,0.0123157,-0.0403078,-0.0271779,-0.0191625,-0.000207983,-0.0084773,0.0179832,-0.0101657,0.00674162,0.0393661,-0.00134882,0.026884,-0.0189873,0.00723322,0.0319177,0.0169957,0.0177885,0.00427866,0.0135388,-0.0182968,-0.00660162,0.000690555,0.00987424,0.0160555,0.003482,-0.0345573,0.0123652,-0.0209285,0.0047588,0.048057,-0.0114112,0.0231573,0.0279936,-0.0030508,-0.0176353,0.0296975,0.00772102,0.00944271,-0.00933696,-0.031785,-0.00498518,-0.00124342,-0.0115995,-0.0330368,0.011238,1.27559e-06,0.0212003,-0.0126182,-0.00530723,0.0177391,-0.027785,0.0415058,-0.00617985,-0.0134579,-0.0101009,0.00368621,-0.0134307,0.0293545,0.0414083,-0.0162297,0.0122476,0.0201826,-0.0185777,-0.0353798,-0.00812639,-0.0123354,-0.00416219,0.0164145,-0.0198742,0.002319,-0.038921,-0.00806759,0.0493199,0.00431372,-0.00024983,0.0331404,-0.00655876,0.045171,-0.0175622,-0.03009,-0.0194719,-0.00620069,-0.00859458,-0.0185687,-0.00312142,0.0132594,0.00303886,0.0182235,-0.0140692,0.0155066,0.000355829,0.000165418,0.00777956,-0.0194073,0.00951127,-0.0134028,0.00749258,0.0175702,-0.000706262,0.0467571,0.00510796,0.0272078,-0.0163034,-0.0137863,-0.000114821,0.0265839,0.0312212,-0.0275473,0.016092,-0.00772749,0.000973074,0.0122649,0.0304365,-0.0113219,-0.0230219,0.0237262,0.01599,-0.0164154,0.0270895,-0.0146576,-0.00197349,0.0086697,0.0130891,-0.0140369,0.0218498,0.0424852,-0.0367134,-0.00975322,0.0417627,0.0146094,-0.0145863,0.00152221,0.0205107,0.00160126,0.0162735,-0.00463712,0.00685039,0.00883266,-0.0141199,0.0148638,-0.0315192,-0.00546912,0.0101643,0.0447966,-0.00539097,-0.00937698,-0.00561326,-0.0026194,0.0262936,0.0134143,-0.00789067,-0.0143367,-0.0339517,-0.0095332,0.0234813,0.0158133,0.0290045,-0.0214395,0.00608934,-0.0193095,-0.0399605,0.0188444,-0.00667321,-0.0151057,0.0291316,0.0117627,0.00212851,-0.0321519,-0.037746,0.00102134,-0.00700972,0.0466296,0.0123855,-0.00553807,-0.0104644,0.0303546,-0.0383982,0.0131234,-0.0158722,0.0115592,-0.00088739,-0.0129007,0.00701125,0.0407989,0.0231313,0.0120711,-0.025871,0.0239338,0.00742192,0.0330043,0.0247084,-0.00300117,0.00364098,-0.0235045,-0.00209453,0.0151367,0.00953145,0.00939799,-0.0130135,-0.00588948,0.0248438,0.0278563,0.01069,0.0241709,-0.00315725,-0.0142102,0.0185194,-0.00209568,0.0084737,-0.0148237,0.00060676,0.013288,-0.0193653,-0.0386253,0.00647344,-0.0154076,0.0210951,0.00226488,0.0203943,-0.0143743,0.0151042,0.0217424,0.0139068,0.00249316,-0.0116046,-0.00921829,0.00284165,-0.0210567,0.000208022,0.00710467,0.0205336,8.72325e-05,-0.028396,0.00941865,0.0155751,0.0228492,0.0251377,0.0260279,0.0407866,-0.00922902,0.0131932,-0.00773552,0.0120153,0.0322395,0.0174402,-0.00821208,0.033211,-0.031495,0.00110049,0.0203775,-0.0211861,-0.00201973,0.0112605,-0.0195663,0.029964,0.00841345,-0.00605405,0.00512496,0.060683,0.0379414,0.0167898,0.0142919,0.00665412,-0.0193923,-0.0472766,-0.0345774,0.0289901,-0.00557528,-0.0136834,-0.00341935,0.039852,-0.0285686,-0.000200558,0.0155524,0.022507,0.0191427,-0.0225793,0.0579378,-0.00981967,-0.0113466,-0.0220593,-0.00526885,-0.0213262,0.00672597,0.00724376,-0.0122372,0.00685845,-0.0118753,0.00296251,0.00347101,-0.0165522,0.0368041,-0.000719545,0.0108842,0.00148705,0.0193491,-0.0233831,-0.0306459,-0.00132241,-0.000810679,0.00316108,0.0257394,-0.0208807,-0.00820771,0.0134151,-0.0129189,-0.01832,-0.0163958,-0.0159651,-0.00406838,-0.0156249,-0.00639214,-0.0267463,0.00998109,-0.000339049,0.00281642,-0.00234701,-0.0474626,0.0414497,-0.0182188,0.0103451,-0.0274204,-0.022489,0.0150446,-0.0283165,0.0162246,0.0174652,-0.0066103,-0.011033,0.00885601,0.0274854,0.00681655,0.0385681,-0.00557026,0.00173096,0.0032072,0.00905638,0.010425,-0.00231317,-0.000971921,0.00439896,-0.0172063,-0.00902383,-0.0306052,0.0131799,0.019227,0.0218173,0.012835,-0.00990173,-0.0349997,-0.0264529,-0.0186438,-0.0023342,-0.0218836,0.00614254,0.00414503,-0.00799469,0.010403,0.0102621,0.00809912,0.00660611,0.0103192,-0.0161114,-0.0103362,-0.0311926,-0.0109634,0.0268999,0.00504919,0.0125943,-0.0272642,0.0175347,0.0131546,0.0102354,0.00290506,0.000833948,0.0110527,-0.00746633,0.0166886,0.0108977,-0.00955698,0.021617,-0.0178439,0.0177878,0.000365812,0.00776373,0.00461751,-0.00141296,-0.0408866,0.0282037,-0.0221093,-0.00619459,-0.00883326,0.00160675,-0.0184506,0.0170307,0.0251848,0.000975664,0.0150841,-0.0208168,0.0412489,0.00185635,-0.0186113,0.00913225,-0.0225504,0.0508547,0.00653874,-0.0173939,-0.0219473,-0.00656088,-0.0123492,0.0107967,-0.0149443,0.0161181,0.00759497,0.00718731,-0.0300709,-0.0222737,-0.00754723,-0.0173825,0.00188408,5.42124e-05,0.0151038,0.00380461,-0.0183759,-0.0374379,0.033536,0.00884937,-0.00516633,0.00726753,-0.00323846,0.013496,0.0148554,-0.0118732,-0.0107842,0.0171099,-0.00627789,0.00307433,0.0220696,0.0125976,-0.02542,-0.0210017,0.00335837,0.00395086,-0.00383556,0.0325456,0.0107532,0.000573023,-0.00714937,0.0179689,0.0100444,-0.00621971,-0.0263283,0.0175276,0.00360166,-0.0128947,-0.025098,0.024829,1.63212e-05,-0.0196641,0.00705322,0.0358136,-0.0192306,-0.00993557,0.0239375,-0.00725174,0.0221535,-0.0137124,0.0124979,0.050658,-0.0214908,-0.0330852,0.0284551,0.0141836,-0.019886,0.0200162,-0.000215552,0.0318292,-0.0114786,-0.0133084,0.00770324,-0.00520149,-0.0220194,0.0190122,0.00551082,-0.000715863,0.00223585,0.00851503,0.0195189,0.0399018,0.0147604,-0.00189785,0.00355777,0.00912875,0.0082544,-0.00652244,-0.0195267,-0.0251297,-0.0381351,0.0375116,0.0197077,-0.00130201,-0.011588,0.00472136,0.0247619,0.0276098,-0.0034916,0.0330337,-0.00431614,0.00173222,0.00168241,-0.0196555,0.0049225,0.0375683,0.0253305,0.0109914,-0.00766712,-0.0138659,0.00491521,0.0129388,0.00474105,0.0172671,-0.0103789,-0.0163648,-0.0287901,-0.0166417,-0.0233606,-0.027837,0.000696759,0.0194665,0.00154733,0.0211752,0.000846025,0.0194293,0.033445,-0.0143984,0.029683,0.00393803,-0.0124349,0.00910787,0.0246385,0.0177778,0.00166647,-0.000306857,-0.00629496,0.00228147,-0.00996679,0.00174138,-0.0196742,-0.0020005,-0.0194153,0.0419658,0.00882317,0.0300354,0.00586313,-0.0198433,0.00835455,-0.00272173,0.00101687,0.0231202,-0.0059568,-0.0249856,-0.0155444,-0.00129437,-0.0227627,-0.0386012,-0.008486,-0.0331949,0.00812997,0.0291818,0.00436254,-0.00890297,-0.0374048,-0.0110194,0.00396206,-0.00671898,0.0126687,-0.0018231,0.0059542,-0.00927414,0.0127484,-0.0215316,0.0217955,0.0261798,0.0162234,-0.0356446,-0.00768417,0.00437315,-0.0088317,-0.00980087,-0.015476,-0.0117772,-0.0134679,-0.00497793,-0.0358955,-0.0015134,-0.00305736,-0.00474983,0.0215042,-0.0396023,0.00316918,0.0287515,-0.0328261,0.0114711,0.0247116,-0.00215223,0.0434167,0.00643121,-0.0114291,-0.000101262,-0.0058827,0.0140628,-0.0291628,-0.00188926,-0.0180108,0.033099,0.01173,-0.000532028,0.0248243,0.01469,-0.0191991,-0.0169605,0.00556074,0.0392664,0.00869533,0.00254734,-0.0115071,-0.0107094,0.0111553,-0.00518645,-0.00207256,0.00884023,0.0136806,0.0154629,0.00808213,0.00944635,-0.00103435,0.0376154,0.0251569,0.0177417,0.0215427,0.027124,0.0339843,0.00983842,0.0382099,0.0218156,0.00508066,-0.00378655,0.0408882,0.0114375,-0.0165356,-0.0117364,-0.00753532,0.0355689,-0.00111311,0.00345642,-0.00511896,-0.0159096,-0.00997534,-0.00101937,-0.0205264,0.0257002,0.00824394,0.0504863,-0.0188955,0.0251132,0.00234771,0.0131993,0.0334343,-0.00135243,-0.000616019,0.0037012,0.0380992,0.027748,-0.0216034,0.0185411,0.023504,-0.018029,-0.0344844,0.0536555,-0.0130654,0.0025142,-0.00193901,0.00528306,0.0333906,0.027044,-0.0207255,-0.0172524,-0.00613414,0.0292995,-0.0180093,0.0310728,-0.00978908,-0.00521226,0.0230525,0.0153652,-0.0122865,-0.0221161,0.0138444,0.00488114,0.0117141,0.0423811,0.0206918,0.00677684,-0.0312417,0.0179991,0.00804688,-0.0263458,0.0257968,-0.000681601,0.0369645,-0.0113822,-0.00342161,-0.0369025,0.0072024,-0.00649191,0.0158164,-0.0238193,-0.0323096,0.0118119,0.0164325,-0.03092,-0.00581488,0.0209825,0.00837957,-0.000988395,0.0204079,0.00877849,-0.00463076,0.00238718,-0.0260394,0.0144312,-0.001571,0.0141238,0.0223185,0.0138886,-0.0152506,0.00721059,0.0440332,0.0245847,0.014378,0.0222896,0.0104755,-0.0165112,-0.0151817,0.0225159,-0.0786234,-0.00646807,-0.0105973,-0.0242021,-0.0191965,-0.00734043,0.0338117,0.0101757,0.00968786,-0.0118639,0.00432195,-0.0145031,0.0208596,-0.0194314,0.00499638,0.0155664,0.0100091,0.0064436,-0.00711975,0.00902199,0.0142122,-0.0182639,-0.0472042,0.00855305,0.0577442,-0.0147659,0.0194005,-0.00515675,0.000649185,-0.00345317,0.0252949,0.0228632,0.00809674,-0.0362116,-0.0125196,-0.0212377,-0.0251861,-0.0127785,-0.00361858,0.00863564,-0.0239948,-0.0187126,0.0391414,0.0173963,-0.0108921,0.0401275,0.0111958,0.00304271,0.0246014,0.00762341,-0.00444281,0.0223989,-0.0265119,0.00817221,-0.0010377,-0.0230337,-0.0564389,0.0121978,-0.0119564,0.0256824,-0.00169424,-0.0155633,0.00504525,0.0194549,0.00810537,-0.0205454,0.0380112,0.0155877,0.026707,-0.00803301,-0.0580083,-0.00487585,0.0578229,-0.0059987,-0.0135277,-0.00341479,0.019486,0.0225301,0.0217545,0.00827179,0.0364043,0.00326987,-0.0312189,0.00807792,0.0176082,0.0160568,0.0125709,0.0152971,0.00341714,0.0185482,0.00929773,0.0290699,0.0244204,0.0219805,0.0216556,-0.0151977,-0.0178445,-0.0274456,-0.00745997,0.0467014,0.0243635,0.00690525,-0.00632784,0.0160804,0.0316866,0.0123225,-0.0167793,-0.0251534,0.0126104,-0.0365489,-0.0219942,-0.0216706,-0.0114543,0.000864041,-0.0402188,0.0122768,0.0124512,-0.0151459,-0.00356387,0.013676,0.0173546,-0.00706507,0.0299801,0.0355732,0.0406577,-0.0196679,-0.0273929,0.0291919,-0.0292977,-0.0189261,-0.0108442,0.0127717,0.0302999,0.00598463,-0.0398648,0.00842335,-0.00409551,0.00539211,0.0446526,-0.0058827,0.0310199,0.000107247,-0.010024,-0.02582,0.0259024,-0.0415078,-0.00504775,-0.0144089,0.0124287,-0.0197079,0.00182239,-0.0262682,-0.0137064,0.0177919,-0.00176862,-0.0195185,0.0157671,-0.0119139,0.0256033,0.00358148,-0.0191819,-0.0175571,-0.0094971,-0.0186819,0.020903,0.0293857,-0.0118623,-0.0215408,0.00338635,0.0718138,0.00835402,0.0181711,-0.0223777,-0.00368568,0.000693679,-0.00524862,-0.013452,-0.0136342,-0.0164619,0.0286372,0.0254676,-0.00379029,0.0115171,0.0116585,-0.0122227,-0.0124212,-0.0294371,0.0235842,-0.00790486,-0.000564976,-0.0164942,0.00641727,-0.0260889,0.00351774,-0.00783109,0.0347124,-0.00234178,0.0203501,0.0227066,0.010458,0.0309185,0.0312836,-0.0446764,-0.0281081,-7.0305e-05,0.0354071,0.0121,-0.0181649,-0.0126893,-0.00919903,-0.00900685,0.0058702,-0.00435185,0.018333,0.0121587,-0.0125626,0.0214299,-0.0332816,0.0194539,0.0189339,0.0117482,0.018572,0.0225293,0.0146668,0.0340516,-0.0240376,-0.0029122,0.00762451,0.0421909,-0.0109809,-0.00955807,0.0075125,-0.00290425,-0.000395777,-0.0327037,0.0180253,-0.0240939,-0.0196288,-0.00868378,0.00668199,-0.0424186,-0.00995334,-0.0184311,-0.0149888,-0.0121662,-0.00203597,0.00917112,-0.0046417,0.00840019,-0.0252195,-0.0111782,0.039253,0.0362203,-0.014085,-0.00158139,0.00936274,-0.0371284,0.0104956,0.0103902,0.0141888,0.0094948,0.0145094,-0.00211508,0.0129424,-0.0223073,-0.00785209,-0.0144487,0.00466671,-0.0297283,0.0023945,-0.00616663,-0.000691809,0.00931347,-0.00291284,0.0230365,-0.00313572,-0.0178417,0.0063626,0.00636751,-0.0181136,-0.0364067,0.0358877,-0.00887225,0.00023416,0.0102699,0.0274496,-0.00614594,0.00802251,-0.0238972,-0.0358632,0.0140268,-0.0160939,-0.0341038,-0.0101783,0.00127631,-0.0220105,-0.0366054,-0.00331061,0.00656188,-0.0197047,-0.0132405,0.0165551,-0.0215197,0.00668514,0.00485616,0.0333277,0.0468775,0.0407116,0.0141616,0.00727374,-0.0381523,-0.00173332,-0.0161412,0.0167911,0.0220301,7.61394e-05,-0.038908,0.00632327,0.0143816,-0.0422518,-0.03685,0.0190672,0.0152522,-0.0113008,0.0172612,-0.00325741,-0.0239231,-0.00505495,0.00641706,0.0130954,0.0261905,0.00115279,-0.0124352,0.00428632,0.00341865,0.015157,0.0218703,0.0190633,0.025016,0.0294018,-0.0304181,0.0146468,0.0110942,0.0170774,0.0116151,0.0354859,-0.0206236,-0.0077223,0.00652419,-0.0131368,-0.00190889,-0.0193586,0.00427685,-0.00597061,0.0263132,-0.00412845,0.00327465,-0.0116312,-0.0204672,0.000625394,-0.0144616,0.00286516,-0.00674657,0.0275331,0.0143645,0.00824772,-0.0138372,-0.0411592,0.00552887,0.00493554,-0.00795133,0.00162953,-0.0107437,0.00405995,0.0119171,0.000490325,-0.024167,-0.0107717,0.00937798,-0.00609137,0.042507,0.0057383,-0.00767067,-0.00406831,-0.019233,-0.0156573,-0.00901998,0.0219493,-0.0150194,0.00912907,-0.00987655,-0.0130677,-0.00748231,0.0340908,0.00201406,-0.0263488,0.00710798,0.00213746,-0.00968282,-0.0040782,0.0475262,0.00920486,0.0234781,0.0408449,0.0327789,0.00853855,-0.000168585,0.0350053,0.0183244,0.0187253,0.0156857,0.0353976,-0.0221169,-0.0126316,-0.0550819,-0.00268141,-0.00403699,-0.00807979,-0.0124081,0.0117756,-0.0157021,-0.00596327,0.0115038,-0.0104328,-0.0129627,-0.0399199,-0.0209415,0.0327066,0.0285014,0.00367885,0.0204037,-0.014093,0.0023124,-0.0133661,-0.0197181,0.00411648,-0.0110879,-0.0101176,0.0406535,-0.0238173,0.00109468,0.0396962,0.0109497,0.0329498,-0.00520126,-0.021288,0.00997809,-0.039041,-0.0211597,-0.0121006,0.0121395,0.0173622,0.00751062,0.0191261,-0.024966,-0.0178718,-0.0106051,0.0138008,-0.0121454,0.0258706,-0.0113356,-0.0374485,-0.0394699,0.0138037,-0.0211144,-0.0210435,0.0108013,-0.00577528,-0.0365847,0.0269795,-0.0199707,0.00358958,0.00853321,0.0157498,0.04439,0.0143907,-0.0167792,0.00193671,0.0132586,-0.0242816,0.00500891,-0.017381,0.00191937,0.00453529,0.0156778,0.0100183,0.000199901,0.0163638,-0.0214291,-0.00796724,0.00612846,0.00437074,0.0131589,0.00867097,-0.0146215,0.0203615,-0.0108262,-0.0124178,-0.0126115,-0.000338858,-0.00200795,0.00477038,-0.0030293,-0.00115433,0.016164,0.0263484,-0.0229996,-0.01432,-0.00636487,0.0275888,-0.0431775,-0.0231552,-0.0261032,0.0285838,-0.0444803,0.00261046,-0.0230902,0.0217632,-0.0197101,-0.00482524,-0.0310092,-0.00743101,-0.000930688,0.0158853,0.0136273,-0.0119869,-0.032272,-0.042272,-0.0210125,0.0101689,-0.0110257,0.0329458,0.00835799,0.0283888,0.0124007,0.0478768,0.0125733,-0.00653966,0.0127015,0.0206359,-0.00951245,0.0408522,0.0578147,0.0189322,-0.0222766,-0.0174877,0.00876181,0.00276957,0.0152408,-0.00632476,0.00582303,-0.0324703,0.000923286,0.00205496,0.00438767,0.00596588,-0.0252514,0.0298494,0.00511398,-0.0252077,-0.029007,0.0179753,0.00872452,0.0102055,0.00203198,-0.00333029,0.0130872,-0.0140713,-0.020696,0.0275303,-0.0279138,0.0199883,-0.0409298,0.0047207,0.0144451,0.00506408,0.0109029,-0.0137072,0.0156351,-0.0406655,-0.0131633,-0.0163761,-0.0104514,-0.000946182,0.00484383,-0.0248777,0.0315829,0.00427459,-0.0221373,0.0221175,0.0402585,0.0379362,-0.00155758,-0.00372478,0.00899414,-0.0065995,-0.00867571,0.00494274,0.0101503,0.0132376,0.0241646,-0.018053,-0.0255843,-0.0132109,-0.00993973,0.0214295,-0.00208173,-0.00727309,-0.0309868,0.00372433,0.0168133,-0.00378824,-0.0415809,0.0112919,-0.00569515,0.0250039,-0.00544118,-0.0285833,0.00658255,-0.0158013,-0.0125293,0.0244352,0.0169977,0.0135665,-0.0200571,-0.0299345,0.0331872,-0.00467619,-0.0310817,-0.00836609,0.0214705,-0.0165397,-0.0145429,0.0135833,-0.0243041,0.000141761,-0.0112354,-0.00142864,-0.0128421,-0.0161361,0.00813344,0.00706776,-0.00317249,-0.0203386,0.025507,-0.00985623,0.0248075,-0.0271378,0.00696726,-0.0143711,0.0171906,0.0452,0.0269264,0.0288294,0.0319857,-0.000103554,-0.0132513,0.00118006,-0.0127259,-0.0165193,-0.0231611,0.0164455,-0.00789913,0.0194101,-0.0177811,-0.012227,0.0116294,0.00988776,-0.0215754,-0.0398882,0.0197472,0.00758007,0.00313474,0.00886321,0.000105315,0.0166633,0.0233151,-0.00467235,0.00483466,0.0329759,-0.0344737,0.00510595,-0.00364517,0.00944862,-0.0165008,-0.0241779,-0.00804293,-0.0229877,-0.00538498,-0.0281103,0.0337486,0.00273974,-0.00142368,0.0458225,-0.0184558,-0.0240541,0.0248768,0.00660714,0.0194718,-0.0305886,0.00960927,-0.00580351,0.00540781,0.030284,0.0141846,0.0168305,-0.0114833,-0.00146259,-0.033586,0.00988008,-0.00797104,-0.00138997,-0.0142659,-0.010515,0.0373596,0.0310799,-0.0226737,-0.0127145,-0.00167612,-0.0322036,-0.00528686,0.0258838,-0.00162136,0.000946205,-0.00302993,0.0361825,-0.017462,0.0291222,-0.00619842,0.0226071,0.0202421,-0.0229008,0.0115027,-0.00723899,0.017294,0.00767759,-0.0138586,0.0246165,-0.0427713,-0.0266809,0.0366204,0.00973747,0.0208189,0.00617151,-0.00576332,-0.0260558,0.0225987,0.00439765,0.0276109,-0.00388456,0.0502688,-0.00358946,0.0181486,0.00832199,0.00372857,0.00330258,0.0346539,-0.00191982,0.00777222,0.0174465,0.00522763,0.0380227,-0.00694646,-0.00309479,-0.018277,0.0103814,-0.0148841,-0.00921653,0.00418332,-0.00470876,0.0245349,-0.0380783,-0.00209624,-0.0251747,-0.0173251,-0.0326807,-0.00494789,-0.0255901,0.02498,-0.0266718,-0.00961689,-0.0166726,-0.00965529,-0.00951066,0.00748849,-0.000521265,-0.00126672,-0.00478039,-0.0263549,0.0337985,-0.0247129,-0.0290188,0.0158445,-0.00632799,-0.014335,-0.00601216,-0.00220719,0.0455748,0.0255786,-0.0152364,0.0260057,-0.00743973,-0.00887676,-0.0268771,-0.00158601,-0.00335318,0.0300509,-0.014903,-0.00389195,-0.0245593,0.00609228,-0.0310268,-0.0144264,0.00318398,0.017622,-0.00414478,0.00743302,-0.0150542,-0.0160776,0.0352099,0.0068982,0.00234584,0.00392655,0.00569629,-0.0321658,-0.00317029,-0.00725721,0.00194186,0.00113275,0.0130266,-0.0298995,-0.0425518,0.036526,-0.00668629,-0.0287759,-0.0472987,-0.0687877,0.0227823,-0.0515708,-0.0414973,0.002127,-0.00699364,-0.0484872,-0.0163726,-0.00697951,-0.00826261,0.00925248,-0.0141901,-0.00169715,-0.0102646,0.0110381,-0.00687896,0.0165686,0.00771569,0.00326767,0.0208113,-0.00350794,-0.00930816,-0.00214943,-0.000857286,-0.00832599,0.0167784,0.0502738,0.0291965,0.0116916,0.00484523,-0.00847692,0.00609468,0.0268237,0.00837866,0.00268683,-0.0272236,-0.012641,-0.00642723,-0.0284955,0.0029811,-0.0130086,-0.0171319,-0.00613656,-0.0316729,-0.0233406,0.0277979,0.00211718,-0.00783251,0.00417775,-0.00997873,-0.0358419,-0.00670827,-0.0157055,-0.00252256,-0.000321642,-0.00158654,-0.00671625,0.0241284,-0.0498514,-0.024181,0.0325717,-0.0380643,0.036135,0.02138,-0.00725328,0.0373033,-0.048495,0.0346884,-0.0226225,-0.0387532,0.00636291,0.00179173,0.0102219,-0.026306,0.0115082,-0.015346,-0.0380316,0.0164104,0.0169796,-0.0309152,0.0200924,0.0113123,-0.0516966,-0.0245623,-0.0132934,0.0132222,-0.0139357,-0.00174006,0.0336305,0.0229278,-0.00551886,-0.0208695,0.0468361,-0.00773603,0.00252695,0.00367606,-0.00385816,0.00145685,0.0391054,-0.0217932,0.0128391,-0.0012491,0.00829069,0.0183858,-0.0171648,0.0476263,0.0218311,0.0315749,0.0209173,0.0155692,-0.0161643,0.00138725,-0.0286078,0.027142,0.0169964,-0.0198811,0.0280915,-0.00709872,0.00980009,-0.0398773,0.010679,-0.0312162,0.0135118,-0.0248708,0.0396559,0.000793496,-0.0202294,0.00143412,0.0390692,-0.0193977,-0.0289749,0.0120894,-0.0144228,0.0362072,-0.0346682,0.0113339,0.0134678,-0.0158299,0.0159395,-0.0218082,-0.00653743,-0.0150094,0.00256142,0.00934122,0.0119386,-0.010949,0.0369137,-0.0154904,-0.00743054,0.0376129,-0.00606694,0.0149255,0.00218885,-0.0115009,0.0263856,0.0304915,0.000279723,0.0167217,-0.0313772,0.0356489,-0.0233165,-0.0071921,-0.0147201,-0.000742457,0.0233816,0.0268826,-0.0160376,0.000657432,0.0133133,-0.0325828,-0.0290616,-0.0054762,0.0289529,0.0124644,-0.00124438,0.030732,-0.00724803,0.0213769,0.00443178,-0.0345653,-0.00743552,-0.00475783,-0.00550424,-0.00964041,-0.0109645,-0.0139803,-0.00121988,0.0314491,-0.00922083,0.016942,-0.0146856,-0.00158137,-0.0221291,-0.00490578,0.000160546,-0.00662475,0.00862604,-0.0114768,0.0237856,-0.0330321,-0.0389356,0.0134083,-0.0109279,0.0122129,-0.0110151,0.0105181,0.00801881,0.0185413,0.0112507,-0.0211589,-0.00639425,-0.0123622,-0.0299629,0.0175266,0.00335394,0.0114469,-0.0047997,0.017732,-0.0357454,-0.00302874,0.0479576,0.043575,0.00879623,-0.025849,-0.0277244,-0.0170238,-0.00649996,-0.0109774,0.00335337,0.017123,0.0370722,-0.0275572,-0.00440166,-0.00797229,-0.0585014,0.0165213,-0.0238814,-0.0295108,-0.0128471,0.000413928,-0.0358802,0.0122978,0.0117067,0.00121922,-0.000125751,-0.0381945,-0.0143288,-0.00929069,0.00881068,-0.0236744,0.00738385,-0.00151176,0.00882528,-0.00828074,-0.0253758,-0.00967224,-0.010998,0.0157487,-0.0290181,0.0231533,-0.0160233,-0.0125825,-0.000190428,-0.0261912,0.006027,-0.0298172,-0.0290273,0.0050363,-0.00983996,0.0123689,-0.0049364,-0.0035719,0.00540149,0.00735863,0.0181006,-0.0114697,0.005341,-0.00421706,-0.0147997,0.00600735,-0.0247042,0.0110359,0.0183448,-0.0164838,0.00711324,0.00237979,-0.0276037,0.00864851,0.00712535,-0.0263376,-0.0260854,0.0227565,0.00398429,-0.0127654,0.0305552,-0.015578,-0.0344013,-0.00701706,-0.0111788,0.0018281,-0.0239739,-0.0396887,0.0159378,-0.00385025,-0.0340734,-0.0179789,0.00160344,-0.0327261,0.034967,0.0365039,-0.0319159,0.000365325,0.0409858,0.0239523,-0.00557388,-0.00197218,0.0239546,0.0164628,-0.0290343,-0.00643231,-0.0298546,-0.00797207,-0.0100617,-0.0172025,0.0159295,0.00151238,0.012082,-0.000534257,-0.0148952,0.00227063,0.0222767,0.0231811,0.0484973,0.0117441,0.0121951,0.0386133,-0.0139296,0.0226599,0.01554,-0.0316792,-0.000393665,-0.000251494,-0.0189879,0.0448276,-0.00909438,-0.0316824,0.0107294,0.0013188,-0.0228941,0.0263353,-0.00971916,0.0444198,0.00107401,-0.0292518,0.0130274,-0.0250548,-0.0230155,0.0131686,0.0331383,0.0137374,-0.00191487,0.0285669,0.0131845,-0.0291351,-0.0275772,-0.0315111,0.0228436,0.0231634,-0.0348925,-0.0228659,0.0159077,0.0362093,0.00125735,0.000828474,0.0198287,-0.0347443,0.00170774,-0.0232157,0.0246984,-0.0212298,0.0180724,0.00735944,-0.00591229,-0.00842134,-0.00261647,0.0288211,-0.00527306,0.0173412,0.0041475,0.0349287,-0.00807872,-0.0202873,0.000966612,0.0316531,0.0334138,-0.0117631,-0.0331365,-0.0336472,-0.00693086,0.00270193,-0.015325,-0.0424611,0.0162388,-0.00817744,-0.0411632,-0.0101989,-0.00631985,0.00467559,-0.00482849,0.00185977,-0.0116507,-0.0222602,0.00460721,0.0279542,0.0290948,-0.00350942,0.0100211,-0.0379532,0.0149111,0.00500812,0.0168221,0.0209421,0.035201,-0.00594608,0.0225211,0.0303717,6.03721e-05,0.00392572,0.0166967,-0.0180202,-0.0360852,0.023813,0.00913445,-0.0296761,0.0254513,-0.0176899,-0.0211368,0.019816,-0.00733329,0.0126414,-0.00312732,-0.0281957,-0.0197605,-0.0085322,0.0126803,0.0230819,0.0351956,-0.00511973,0.00100563,0.0193391,0.00743002,0.00926036,-0.0263322,0.0193901,-0.00699436,0.00685825,-0.00333591,0.00911998,0.00947283,-0.0197524,0.0253636,-0.0278327,-0.0137022,-0.0113129,0.0095145,0.0137142,0.00140789,-0.0230446,-0.0084306,0.0085602,0.0411514,-0.0136124,-0.0207372,0.00101876,-0.00275456,0.00347707,-0.0316637,0.0183315,-0.0120876,-0.00773765,0.0197566,-0.00744703,0.00445686,0.0246528,0.00608532,-0.011493,-0.000448296,0.0121465,0.00241424,0.0222741,-0.0288341,0.0138762,0.0389757,-0.0165652,-0.0389364,0.0140365,-0.026809,-0.00605215,0.0174643,-0.0205777,-0.0161252,-0.0100947,-0.00833031,0.0271211,0.00435829,-0.0361346,-0.0108045,0.0118755,0.0358104,-0.0129995,-0.0223888,0.0156445,0.00333606,0.0426257,-0.0311146,-0.0341306,-0.0175423,-0.0489482,0.0228707,0.0209876,0.0117601,0.0298147,0.013895,-0.022379,0.0348469,-0.0176743,-0.0122702,0.00662768,-0.00578534,0.0213564,0.0205481,-0.00342721,-0.00941997,-0.0104165,0.00335618,0.0230602,0.012096,-0.00235981,-0.0274662,-0.00741059,0.000515354,0.0145445,0.0026157,-0.0453099,-0.0200201,0.0168042,0.00323844,0.00825929,-0.0123761,0.0348035,-0.0343055,0.0325251,-0.00136274,0.0501637,-0.0232869,-0.0088789,-0.00716584,0.00400006,0.00103538,-0.0213501,0.0180887,-0.00110379,-0.0170729,-0.00578232,0.000757803,-0.0402789,0.0221597,0.0107319,0.00615782,0.0433635,0.0217276,-0.0148308,0.0128834,-0.012746,0.0110963,0.0041425,-0.0114558,0.00631676,-0.00298713,0.0229753,-0.00993254,0.00520455,0.0234804,-0.0141741,0.0108035,-0.00988469,-0.0126832,0.000195435,0.00463638,-0.0225508,0.0232368,-0.00990949,-0.00941061,-0.0432876,0.0106559,0.00761866,0.0146633,-0.0202232,-0.015804,-0.0245435,-0.0216641,-0.0173709,-0.0414511,0.0293601,0.00717784,-0.00156868,0.00675783,0.0076854,-0.00296083,-0.0140894,-0.00694215,0.0148828,-0.00672419,0.0212298,0.029917,0.0400316,-0.00573258,-0.00586749,0.0176741,0.0387955,0.0179621,-0.0216639,-0.00819289,-0.02028,0.022223,0.00963436,-0.00271666,-0.0207573,-0.0335415,-0.0285966,-0.0145221,0.0118406,-0.0409123,-0.0184824,0.0123045,0.00281854,-0.0293447,0.021715,0.022643,0.0342046,-0.0093887,0.0127543,0.0262588,-0.00480474,0.00259725,-0.0189965,0.0193961,0.0311906,-0.0110576,0.0141801,-0.0151313,0.00734843,0.0316286,-0.0117389,0.00449049,-0.00528071,-0.0202546,0.0118504,-0.00327188,-0.00832031,-0.00557384,-0.0300046,-0.0116166,0.000916753,-0.0140544,-0.0416852,0.036582,0.000716811,0.0228135,0.00642052,-0.0315703,-0.0022309,0.00659274,-0.0314616,0.0396893,0.00179635,0.0329739,0.0234517,-0.0494038,-0.0364218,0.021467,-0.050892,0.0010888,0.00882684,-0.0262837,0.00986277,-0.0200903,-0.032076,0.0168212,-0.00794031,0.0182481,0.00509817,0.0161994,0.00658787,0.0343037,0.0403835,0.0464279,-0.0382557,-0.0281732,-0.000921974,0.0233416,0.0296126,-0.0512206,0.006102,-0.00431168,-0.0119377,-0.02257,0.00338822,0.0169296,-0.0113873,-0.0130767,-0.0203454,-0.0195197,-0.000833382,-0.00659515,-0.00296243,-0.00289439,0.0138933,-0.00680119,-0.0425039,-0.001199,-0.0173371,-0.0196357,-0.0183002,-0.0195168,0.0310748,0.0138115,0.00350898,-0.0209035,0.0272474,0.00589925,0.0103755,-0.0149456,-0.0431645,0.0341976,-0.0133627,0.047223,0.00752061,-0.009099,0.0132446,0.00704522,-0.025693,-0.0613701,-0.0243736,-0.0253018,0.0195956,0.0402971,0.0110492,0.00922353,-0.0131731,0.00645387,-0.00942088,0.00154082,-0.000634043,0.0137729,0.00579439,0.0222862,0.0106419,-0.0236922,0.0292559,-0.0116208,0.0373377,0.0223021,6.96345e-05,0.00666161,-0.0216537,0.0151561,-0.00274106,0.00572396,0.0165834,0.0282226,-0.0310565,0.00973642,0.0102175,-0.0108875,-0.0108848,-0.0111994,-0.041263,0.0197276,-0.00741859,0.0130681,-0.0485678,-0.0181732,0.00500385,0.00252836,-0.000494124,-0.0330183,0.0230204,0.0458706,0.000823967,0.0173266,-0.0339591,0.0291893,0.0305567,0.0375145,-0.00944319,0.0244298,0.0110358,-0.003093,0.0130768,0.00450434,-0.0018127,-0.0018629,0.0160046,0.0339497,-0.0280824,0.00134094,0.0427679,-0.0280933,-0.00431066,0.000126663,-0.0488907,-0.00924649,-0.00879809,-0.011498,0.0109716,0.0228564,0.0228214,0.0127766,0.00477929,-0.00221162,0.0167807,-0.0031003,0.0392599,-4.01905e-05,0.0116695,-0.00379894,0.0138056,0.00357471,-0.00678105,0.0026642,0.00201613,0.0104072,0.000444255,0.00909553,0.00249774,0.00463901,0.0151864,0.00640601,-0.0350235,-0.0136428,-0.0393854,0.0192019,-0.00325105,-0.0168099,-0.00947176,0.00509354,-0.0184713,0.0226596,0.0139494,-0.020737,0.000616478,-0.0170722,0.00679115,-0.00889607,-0.00859024,0.0429794,0.0125504,0.0212163,-0.0119039,0.019326,0.00872919,-0.00437691,0.0406615,0.0138314,-0.0463913,-0.0187908,-0.0218496,0.00651275,0.000443041,-0.020859,-0.00227687,0.0107133,-0.013932,-0.0222696,-0.0129231,-0.0292614,-0.00800331,-0.0230141,0.0226134,0.0201333,-0.0112742,0.0326466,0.00835654,-0.00540467,-0.00545102,-0.00700674,0.00539039,-0.00350565,-0.0224971,0.019135,0.0156047,0.0152871,-0.00118204,-0.0168642,0.0426124,0.0012722,0.0262954,-0.00969972,0.000474648,-0.0152103,0.00849373,0.0185497,-0.0211117,0.00380312,0.00968365,-0.0288268,0.0149339,-0.00460935,0.032462,-0.00236475,0.0462424,-0.0222897,0.0119932,-0.029514,0.00565357,-0.0178514,0.0397235,-0.00260495,0.0223761,0.00360402,0.0312484,0.027226,-0.0188853,-0.00330147,0.0164312,-0.0114335,-0.0184245,-0.0110505,-0.0224889,0.0211678,-0.027468,-0.00752695,-0.0144471,-0.0101658,-0.0138657,0.0120601,0.0354807,-0.0300232,-0.0224991,0.00928069,-0.00186021,0.00899291,0.0410506,-0.0211887,0.0206092,0.0257074,-0.0126524,-0.0118147,0.0179106,-0.0021129,-0.0191644,-0.0222365,-0.0141245,-0.0285266,0.0262056,-0.0228853,-0.00850626,0.0213121,0.0177494,0.00232877,0.0104097,0.0112364,0.0216003,-0.0119452,0.00938119,-0.0251262,-0.0068536,-0.0078993,0.026668,-0.0182992,-0.0255459,-0.0285576,0.0381821,-0.0193032,0.0279114,0.0387642,0.00941385,0.0560172,-0.0212043,-0.0077429,0.00369468,-0.000737149,0.00547938,-0.0153421,-0.0261693,0.0190247,-0.00321757,-0.000878779,0.0309238,-0.00746086,-0.00405831,-0.0177002,0.0244469,-0.0281613,0.0460048,0.0207224,-0.0312022,-0.03228,0.0030797,0.0122198,-0.0296517,0.0109223,-0.0164816,0.00346314,0.00686603,-0.0137256,0.00412077,0.00525112,-0.0247211,0.0164121,-0.0205426,0.00548248,-0.00466181,-0.00916466,0.00980767,-0.0243971,-0.0329411,-0.028,0.00529636,-0.00649794,0.0359756,-0.00703081,-0.00889837,0.0076972,-0.0222297,-0.024194,-0.0112633,-0.0253605,-0.00413387,-0.0154116,0.0171565,-0.00196459,0.0171582,-0.00778611,0.00264928,-0.0172789,0.0462357,0.0055854,-0.0376302,-0.00852799,-0.00520815,0.0129951,-0.0134685,-0.0130946,0.0208994,-0.0187364,0.00518365,-0.00206918,-0.000143002,-0.0108825,0.0132558,-0.0113985,0.0193232,0.0114186,-0.0221621,0.0271803,0.00751702,0.0303459,0.0292941,0.025498,-0.0123239,-0.0348055,0.0076508,-0.0220675,0.0225946,0.00395298,-0.00655516,-0.0372132,0.0226419,0.000472094,0.0420783,0.00243688,-0.00234653,0.0147549,-0.0275423,-0.0685587,-0.0196423,-0.000795166,0.011611,0.0172935,0.0236577,-0.0343866,0.0243311,0.0478703,0.0128226,-4.79198e-05,-0.0144006,0.0150513,-0.0202377,0.00148944,-0.0057626,0.024469,0.00773929,0.0188858,0.0152191,-0.0261303,0.00637071,0.00711785,0.00289381,-0.0216023,0.00754087,-0.0186119,0.0254053,0.0049325,0.010434,0.00774077,-0.00300421,-0.000591552,-0.020157,0.00901427,0.0164509,0.0151962,-0.0106833,0.0231482,-0.0229549,0.0298308,0.0339612,-0.00626365,-0.0137222,-0.00262573,0.00719215,0.0221349,0.0109375,-0.0235629,-0.00559267,0.0206079,-0.00460522,0.000402113,0.00213831,-0.012201,-0.0059608,-0.00171294,-0.0103109,0.0144047,-0.00137493,0.00474553,0.0474011,-0.0155652,0.0246095,-0.0136682,0.0149268,0.00273241,0.0241699,-0.0473359,-0.0250833,0.021319,0.0141238,0.0125613,-0.00936499,0.0249348,0.000168586,-0.0679128,0.0175959,0.0183638,0.024261,-0.0294499,-0.0238387,-0.0161716,0.0184448,0.0257136,-0.0092782,0.00687806,-0.00425849,-0.0506407,-0.01466,0.0400814,0.0138356,0.0340421,0.0265943,-0.0215126,0.0205973,-0.0166767,0.031301,-0.00410032,-0.0375098,0.00867605,-0.0119774,0.0171858,0.0204066,-0.0238625,0.0199849,-1.66169e-05,-0.0215945,-0.00454256,0.0361752,0.00736913,0.00695986,-0.00949335,0.0136008,0.00038595,-0.0079757,0.014352,-0.0144198,-0.0137954,0.00219747,0.0255371,0.0170655,0.00327322,0.0172146,-0.00100601,0.0144918,-0.00725138,-0.000605083,-0.0534356,-0.0417245,-0.00697071,0.0289407,0.0467993,0.0164822,0.0433114,-0.0357427,-0.00481225,4.09425e-05,0.00046234,-0.00899853,-0.0305001,-0.0426141,-0.0132631,-0.0331202,-0.0151954,-0.00658042,0.00299954,-0.00809271,-0.00492611,-0.00607275,-0.00978814,-0.0255739,0.00101283,0.0263544,-0.0161816,0.0209256,-0.00783342,-0.0294495,0.00728168,0.000277636,-0.00537056,0.00545362,0.0154212,-0.0118519,0.02621,-0.045326,-0.0236516,0.0153506,0.0046403,0.00297087,-0.0278758,-0.0107653,-0.0191863,-0.032706,-0.0121194,0.00457247,0.0219371,-0.0017618,-0.00639669,-0.00907824,0.00160253,-0.0398811,0.00679917,-0.00931677,0.00362142,-0.0179019,-0.0113369,-0.0262875,0.00556971,-0.00493492,0.00595864,0.0175992,0.0227815,-0.00974854,-0.0255443,-0.00513666,-0.00351442,0.00624996,-0.00476626,-0.00921191,-0.0059467,-0.019386,-0.0113654,-0.0105266,0.0252017,-0.0384954,0.00591513,0.0305633,0.0028573,-0.0323319,-0.0154162,-0.0481465,-0.0125614,-0.0164198,-0.0112006,-0.00881157,0.0185523,0.00791176,-0.0212426,-0.0307843,-0.0102359,-0.0427482,0.017304,0.0094548,-0.0246092,-0.00382827,-0.0182814,-0.0165952,-0.00650781,0.00334537,0.00171137,-0.0171383,-0.0164498,-0.0307932,-0.0410391,-0.0115965,-0.0130651,-0.0200434,0.0151654,0.0322835,0.00505215,0.0115774,-0.0143176,0.00410364,-0.00174005,-0.0264253,0.00798101,-0.0101292,0.0364485,0.00367254,0.0282468,0.00831082,0.00333957,-0.0371105,0.0210712,0.0509355,-0.0209661,0.0530278,0.00185504,0.00105038,-0.0323973,-0.0109698,-0.00129506,0.0161864,0.00626447,-0.00904605,-0.0174565,-0.0284281,0.0123558,0.0105801,0.00481815,-0.0345928,-0.0306178,0.0272824,0.023365,0.0200983,-0.0144512,0.0204484,0.0185752,-0.0187308,0.00942436,-0.0121979,0.00172616,-0.000651904,-0.0288422,-0.00736764,0.0164118,0.0236258,0.0125871,0.0110528,-0.0355891,0.0124492,0.0231341,0.0205672,-0.0378427,-0.0315398,-0.0189708,0.00605796,-0.0036085,-0.00730628,0.0125923,0.0118185,-0.0119417,-0.0112562,0.00160947,-0.00532374,-0.0226318,0.000296787,-9.44239e-05,0.0295563,0.00761057,-0.00376949,0.0385402,-0.00732395,0.00725974,-0.0037566,0.0662696,-0.0305772,0.0170104,-0.00899072,0.0692989,-0.010647,0.00382251,-0.00848739,-0.0367339,0.0226645,-0.00193243,-0.0070443,0.00715957,-0.013165,0.015487,-0.0105174,0.0434904,0.016617,-0.0118422,-0.022585,0.00160608,0.0323084,0.00777453,-0.0155109,0.0170159,0.022105,-0.0389139,0.0162139,-0.0517797,0.0024266,0.0070294,-0.0122567,-0.0319324,-0.0192322,0.0226839,-0.026243,-0.0124041,-0.0154904,-0.0156714,-0.0351979,-0.000799942,-0.0147911,0.0130444,-0.0162085,-0.00444928,8.19249e-05,0.0291805,0.00714477,0.0143148,-0.0145452,0.00505471,0.00820921,-0.0148968,-0.0123051,0.025154,-0.00233699,-0.0185201,0.0128151,-0.0188855,0.0141966,0.0300453,-0.00385973,0.0133332,0.00200858,-0.00170529,-0.0148423,0.0157478,-0.0172222,0.0181284,0.0028752,-0.012313,-0.0134122,0.00192487,-0.0267399,-0.0328815,-0.01843,-0.0344249,0.0172673,-0.0048768,0.00338049,-0.0519275,-0.0218553,-0.00773716,-0.018068,0.00449937,0.00060512,0.0262556,0.0108563,-0.023784,-0.0590273,-0.0190159,0.0164604,-0.0487045,-0.000315603,0.0606991,0.0051065,0.0117858,-0.025503,-0.00120985,-0.00995526,-0.00919462,0.00836874,-0.0427976,0.00535265,0.00268394,0.0327117,-0.0138917,-0.00603445,0.0101965,-0.0166087,0.0181983,-0.0429407,-0.038894,0.00029631,-0.00687032,0.0329251,0.00252627,-0.0224175,-0.0135626,0.0337416,-0.0289085,0.00645651,-0.00926304,-0.00616939,0.00913681,0.00760581,0.0209743,-0.0092735,-0.00494697,0.00193887,0.000153658,0.0217799,-0.0179243,0.0254415,-0.0099113,0.0446508,-0.0110979,0.00668647,-0.0256718,0.0237208,0.0185096,0.0154789,0.0107667,0.0261124,-0.00877068,-0.0274197,-0.0135532,-0.00236925,0.0261928,-0.0149238,-0.0013777,-0.0217332,0.0351326,-0.0632301,0.0118499,-0.0133115,0.00369579,-0.00438129,-0.0192552,0.0102032,0.0355035,-0.00514407,0.00499116,0.0128555,-0.0156322,-0.006255,-0.0281372,0.0220636,-0.00387537,0.0101569,0.0141565,0.0057125,0.0278268,0.0182178,-0.0162232,0.0171228,-0.0115864,0.0214242,0.0017668,-0.0216652,-0.0104718,-0.00487647,-0.00559069,0.0026963,0.00468526,-0.0386106,-0.00431254,-0.0237559,0.0659984,-0.019385,-0.0263241,0.00393959,0.0210621,0.021637,0.00796433,0.0122019,-0.0269502,-0.000530537,0.00205095,-0.023296,-0.0479724,-0.0169104,0.00551062,-0.00957347,0.0416249,-0.00706733,0.0318794,-0.00566795,-0.0255683,0.00176503,0.0035391,-0.00220115,0.00436485,-0.0139318,0.00896602,-0.0165425,-0.00459343,-0.014836,-0.0178743,0.027514,-0.0101046,-0.0193463,0.0198801,-0.0117694,0.0329871,-0.0388831,-0.0161825,0.0183191,-0.000387563,-0.00326026,-0.00807686,0.0187449,-0.0016966,3.07256e-05,-0.0395866,-0.0424238,0.0235691,-0.00670079,0.0123285,-0.00693845,0.00599502,0.010242,-0.0113493,0.0252946,0.0462553,-0.00121437,-0.00857524,0.0165021,-0.0300721,0.00180931,-0.0280251,-0.0227345,0.00708707,0.0177459,0.00216362,0.045924,0.00639613,0.00528272,-0.0170915,-0.0204715,-0.0116465,-0.00168234,-0.00515793,-0.0173831,-0.0373922,-0.00101857,0.0559125,-0.00495803,-0.000872876,0.0104976,0.0320086,-0.0295074,-0.024829,0.0153552,-0.0180333,-0.0164436,0.026045,-0.000227984,-0.000552985,-0.0230008,-0.00606772,-0.0345834,-0.0274517,0.0147674,0.00308114,-0.0116904,-0.0173813,-0.0321998,0.0149468,0.0602841,-0.0348713,-0.00385862,-0.0167731,0.0105715,0.0164303,0.014843,-0.0128804,0.00137714,-0.00448196,-0.00520447,-0.0107422,-0.0205488,0.0123753,0.00855561,-0.00939271,-0.00331613,-0.0123197,-0.0237034,0.0157824,-0.0103284,-0.00178063,-0.0402131,-0.00313651,-0.0182617,0.0348989,0.0139959,0.0461923,0.01979,0.0372736,0.0322736,0.0076106,-0.011741,-0.0156662,0.00264163,0.00369069,-0.0170634,0.0111432,0.0393891,-0.0206884,0.00942251,0.0249622,0.0261352,0.0135673,0.00141329,0.0175967,-0.0166794,-0.0198319,0.0114244,0.043614,0.0322796,0.0176355,0.013604,0.00416286,0.0129267,0.00782626,0.0141218,-0.00195342,-0.0250717,-0.0204393,0.00568797,-0.043632,0.032893,-0.0111501,-0.00448187,0.0318333,-0.0149977,-0.0115133,-0.0159529,-0.0155239,-0.0186061,0.022663,0.0110209,0.0309342,0.02669,-0.00624728,0.0125993,0.0239751,0.00298529,-0.00814959,0.0250905,0.000746257,-0.00438115,-0.0301871,-0.00718706,0.0389625,-0.00660361,0.018728,-0.0278116,-0.00552981,0.0198533,0.0059508,0.0156722,0.0140966,0.0181237,0.00124278,-0.00711993,0.0161337,-0.0144463,0.0179847,0.00484217,-0.00999263,-0.0205062,0.0153331,-0.0212971,0.0197356,-0.0169189,-0.0120356,0.0316923,-0.0322813,-0.0180201,-0.0209175,-0.0293007,0.0217338,-0.00899558,-0.00395458,0.0291931,-0.0294372,-0.0163352,-0.0214391,-0.0279291,0.00488017,0.0125882,-5.20861e-05,-0.0145084,0.0295361,-0.00751274,0.00247323,0.0267748,-0.00189489,-0.00076796,-0.0201704,-0.00745508,-0.0350475,0.0103343,0.00839747,0.00347168,-0.0298224,0.0101651,-0.0163657,0.0178929,-0.0105041,0.0369862,0.00530358,0.000325679,0.00236712,0.0154429,0.0101574,-0.00425094,-0.0121906,-0.0355889,-0.0204837,-0.000458819,-0.0152283,0.00959918,0.023547,-0.0305425,0.0258881,0.0512297,0.0467558,-0.0129884,-0.0220493,-0.0131107,0.0143896,0.0147973,0.0236064,0.0193832,-0.0199463,-0.00424221,-0.0127737,0.010356,0.0237432,-0.0132351,0.000401681,0.00314545,0.00614813,0.02434,0.0295769,0.0470975,0.0183536,0.0179945,-0.0171817,0.051139,-0.00930417,0.000852774,0.0308185,0.0241733,-0.0176528,0.0371585,-0.0121559,0.0403527,0.0237569,-0.0101504,-0.0170162,0.00979293,0.0236953,0.0103427,-0.00617924,-0.0190522,0.0213769,-0.00344244,-0.0456195,0.0206977,0.0145359,0.0260928,-0.0207383,-0.00748949,-0.010812,-0.0176564,-0.00130549,0.00632985,-0.00484482,0.00938958,-0.0189856,0.0266486,-0.000200261,-0.0176392,0.0222193,0.0257422,-0.0122022,0.0268049,0.0194414,-0.0515887,-0.00849721,0.0109778,-0.029013,0.0192131,0.00477464,-0.0108704,0.0335519,-0.00477511,0.0214572,0.00627175,0.0045051,-0.00522969,0.006722,-0.0479184,0.00103875,-0.0161273,-0.0293951,0.0141972,0.00998863,0.00344988,-0.0193035,0.0485483,0.00327352,0.0142762,0.00617966,0.00503786,-0.02737,0.0401671,-0.0143855,-0.000694401,-0.027819,-0.0315847,-0.0236634,0.00382651,0.0314832,0.00192151,0.0182711,0.0153152,-0.00289226,0.00726545,-0.0234513,-0.028242,0.00952779,-0.00815603,0.00482293,0.0142518,-0.0457136,-0.0154128,-0.029975,-0.00756369,0.0251521,0.0140868,-0.0543304,0.00878797,0.0211916,0.00672502,0.021762,0.0076246,0.0293537,-0.0441577,-0.00432141,0.0209292,-0.0159104,0.0588827,-0.00929987,-0.0171621,-0.0027089,-0.021227,-0.0175611,-0.0115063,0.0173003,0.0341044,-0.00489811,0.0221548,-0.0295811,0.00327329,0.00506006,-0.0273583,0.0116136,0.00490176,-0.00964044,0.0334256,0.0242172,0.0219724,-0.00629805,-0.00437875,-0.0465998,0.00125137,-0.00568376,0.0122387,-0.00186348,0.0484288,-0.00672662,-0.044705,-0.029175,-0.0337821,0.0107847,-0.0161554,0.0407292,-0.00624081,-0.0193869,0.00989109,-0.00615861,-0.00349673,0.00048742,0.00418317,-0.00539368,0.00136192,-0.0235048,0.0286525,0.0407483,-0.00594508,0.0360767,-0.00765552,-0.00242712,0.0258719,-0.0324315,0.00943209,-0.0207036,0.0135031,-0.00131345,0.0332146,0.00657452,-0.0398305,-0.00133507,0.00875501,-0.0058224,0.00434691,0.017119,-0.0164353,-0.0191642,0.00858221,-0.0290537,0.0105586,-0.00683971,-0.0105384,0.00739276,-0.00746208,-0.0139325,-0.00531453,0.0033848,0.0284236,-0.0024014,-0.0236081,-0.0208101,0.000523065,0.0309935,0.0108209,0.0116539,0.00494266,-0.0377608,-0.0113323,-0.0103916,0.0243676,0.0227605,-0.0073072,0.0197804,0.0227379,-0.0355152,0.0313546,0.00766406,-0.00288888,0.0432339,0.0247594,-0.01338,0.0080806,-0.00819462,0.00170844,-0.0256658,0.0226246,-0.000871731,-0.0157487,0.00423936,0.0380179,-0.0290502,0.0383281,0.0390786,0.0215426,-0.00916853,0.026033,-0.0170075,0.0470045,-0.00460409,-0.0264329,0.0172457,-0.0166287,-0.000984997,-0.0712696,0.0163823,0.0302412,-0.0156382,-0.00163063,-0.0279735,-0.0010262,-0.0157243,-0.0456797,0.0137456,0.0190496,-0.00894113,-0.0316078,-0.0414379,9.23291e-05,0.0183818,-0.00989049,0.0437619,-0.0360563,0.00831981,-0.0311649,0.0154571,-0.0303736,-0.0119475,-0.0136101,0.00329959,-0.00225306,0.000705557,0.000792086,0.00748859,-0.0146231,-0.00107145,0.0124706,0.00420992,0.0404343,-0.0270936,-0.0176065,-0.0109663,-0.0238149,0.0108444,-0.015983,0.0176805,0.0397176,0.0206757,0.00881151,0.0180415,-0.0102212,-0.00697341,-0.0269878,-0.0109144,-0.0305524,-0.0238026,0.0305198,-0.00198023,0.00210145,-0.0144091,-0.00259478,-0.00197842,0.00300467,0.0208865,-0.0271413,-0.00256205,0.0293218,0.0167,0.00010142,0.021042,-0.0122659,-0.0323297,0.0116486,0.0047065,0.0133622,0.0112761,-0.00581615,-0.0340472,0.000148507,0.00578622,0.00619056,0.0167765,0.0346109,-0.00822909,0.00601135,0.01556,-0.0126755,0.0118883,0.00646235,-0.029284,-0.00255283,-0.00515816,-0.00421289,-0.0140241,-0.0152969,0.00780757,0.00837018,0.025919,-0.0313244,0.0173721,-0.00895656,-0.0397277,0.00812493,0.0102146,0.0081313,0.0302946,-0.00894971,0.00249871,-0.0206347,-0.0124553,0.0409968,-0.00192039,0.0399132,0.00800756,-0.0103464,0.0235196,-0.000536698,0.00255895,-0.0114488,0.0469351,0.020414,0.00252914,0.00720043,-0.0136412,-0.0170577,-0.0214844,-0.0406696,-0.00426885,-0.0191868,0.00405011,-0.0119868,0.0226019,-0.0138598,0.0135168,0.00744654,0.0139366,0.000734014,-0.015528,-0.00799434,-0.0200468,-0.00257951,0.00593555,-0.0201376,0.0366636,-0.0019469,0.0221082,-0.0488219,-0.00718457,0.0244004,0.0134024,0.0384418,0.00694734,-0.0223261,-0.00832708,-0.00414001,-0.0120314,-0.000930703,0.00384082,-0.00473932,0.048705,0.00899385,-0.0276174,-0.00141939,0.0217773,-0.00932792,0.0346937,0.0131125,0.00855028,0.00450514,0.0355657,-0.0132567,-0.0360038,0.0439415,-0.0284605,0.0283636,0.00204273,0.00820496,-0.00658678,-0.0140488,-0.0183114,-0.00376311,-0.0132987,-0.0249768,-0.0139313,-0.0127474,0.0105398,-0.0100792,0.0230051,-0.0084038,0.00719816,0.0169035,0.00322452,-0.0238245,0.0164066,0.0156763,-0.00168393,-0.000291625,-0.0359714,-0.0153821,0.000763341,0.000998322,0.014774,0.0127331,-0.023188,-0.0348895,0.000968586,0.0181173,-0.0100412,0.00826055,0.0272716,0.004447,-0.00937982,-0.0197242,-0.0275376,0.00488901,0.0146483,-0.0232857,0.0200524,-0.0149021,0.0243132,0.00936926,0.00540088,-0.016167,0.0270001,0.0226294,0.00263755,-0.0187512,-0.0273464,-0.0170768,-0.00841835,-0.0144228,0.00781233,0.0374072,-0.0177146,-0.0110037,0.012066,0.0232704,-0.0175331,0.00330859,-0.029585,0.011206,0.00743197,0.0267954,0.0272244,0.000820684,-0.015019,0.0163201,-0.00091434,-0.0133884,0.0148588,-0.00434443,-0.023222,0.0286639,-0.0184487,0.00136078,0.0188862,-0.00805395,-0.0106,0.0261006,0.0208175,-0.0353192,0.00105998,-4.92578e-05,-0.0170304,-0.00158646,0.0134919,0.00330455,0.01545,-0.0052123,-0.00141938,-0.0077103,0.0349899,0.00157322,-0.0143182,0.0181115,-0.0214623,0.00375997,0.0252443,-0.0363833,0.00168655,0.0329967,-0.0124048,-0.0161364,-0.0191154,0.0288839,-0.0250317,0.0271097,0.00976191,-0.0229561,0.00210759,4.28872e-05,0.0175821,0.00635572,-0.00677123,-0.00953326,-0.00681473,0.0240399,-9.91422e-05,0.0119707,0.0198071,0.0189364,0.00547212,-0.00863645,0.00893023,-0.0307292,-0.00528423,0.0194448,-0.0252305,0.0308594,0.0684136,0.0189786,-0.0271466,0.0121866,0.0438661,0.0306484,0.0244389,0.0211314,0.0231233,0.0168901,-0.00432175,0.0112827,0.0288655,-0.00838009,-0.0258944,0.0143601,0.00526265,0.00626787,0.00704238,0.0245231,-0.00876742,-0.00379908,-0.0254303,0.0352433,-0.0263114,0.034277,-0.00139009,0.00121233,0.0166053,0.00358568,0.0185612,0.0286783,0.00924216,-0.00986121,0.00693335,-0.00338021,0.0326597,0.00470086,-0.019457,0.00790464,-0.0166947,-0.0124126,-0.00599716,-0.0141806,-0.0243065,-0.0144829,-0.0121479,0.0179783,0.00453768,-0.0275652,0.00596285,-0.000106998,-0.00636313,0.025045,-0.000185635,-0.0103748,-0.018182,0.0155356,-0.000158505,0.00441867,0.0076719,0.00388091,0.00201158,-0.00393309,-0.0130895,-0.0259774,0.00754801,0.011578,-0.00768341,-0.00399395,0.042137,0.00878467,-0.0133848,0.0110887,-0.0100651,0.00858567,-0.00233022,-0.0403257,-0.00399008,0.0227216,-0.0148084,0.00675627,-0.0022651,0.0128284,0.04615,-0.0101614,0.0408402,0.0117519,0.00504683,0.0102255,-0.00909376,-0.00593763,-0.00295551,0.0204476,0.0128905,0.0525176,-0.035792,0.015933,-0.0183883,0.00376544,-0.0143422,0.0110908,0.00324788,-0.0077544,0.020276,-0.0325212,-0.03122,0.00471726,-0.0476765,-0.0125117,-0.0198043,0.0088626,0.0127026,0.00138704,-0.0208477,0.0210275,0.00662591,0.0157817,0.00256599,0.00640602,-0.00963516,0.009457,-0.0348789,0.0105662,-0.0348588,-0.0470589,0.0158558,0.0282271,-0.0220977,-0.0134613,-0.0194919,0.0272133,0.0259041,-0.00677886,-0.0322344,0.00927822,0.0159918,0.000659422,0.0180378,-0.0190789,0.0107229,-0.0193203,-0.0220287,-0.0297662,-0.00604039,-0.0042297,0.0155977,0.0176287,-0.0107017,-0.00713667,-0.0189382,0.00486783,-0.0137347,-0.0289292,-0.0131655,-0.000973425,-0.012783,0.0156607,-0.00822404,0.0444487,0.036943,0.0126449,0.00141327,0.0229913,-0.0210101,0.0499995,-0.0124701,-0.0063754,-0.0294778,-0.0149851,0.0306773,0.00329962,0.00581024,-0.0289094,0.0281298,0.0167374,-0.0151499,0.056487,0.0249519,-0.00330635,-0.00678411,-0.00608966,0.00430954,-0.00973012,-0.0113848,-0.00916397,0.00790051,-0.0268609,0.00039262,0.00332178,-0.0045948,0.0424885,-0.00794084,0.01847,0.0214004,0.000518181,-0.033444,0.000683069,-0.0236632,-0.00319702,-0.0254063,-0.0131685,-0.00731339,-0.0076516,0.00308269,0.0256853,-0.0156438,-0.0379746,0.00452414,-0.0163617,-0.0134799,-0.0040397,0.0371124,0.0076677,0.0229085,-0.0248331,0.0235125,-0.000291847,-0.00127341,0.0231179,-0.0333182,-0.0179515,0.0302657,0.022216,0.000779725,0.00528806,-0.0015132,-0.0404127,0.013259,-0.0288823,0.0393848,-0.0268902,-0.0174626,-0.0269511,-0.0285627,-0.0192232,-0.00395546,-0.0078994,0.0048727,-0.0113585,-0.0337989,-0.00444187,-0.0120969,-0.00543841,-0.0277285,-0.0139987,0.0422302,-0.00688922,0.00258679,-0.0102067,-0.0152163,0.0179231,0.0015692,-0.0130543,0.0117465,0.022986,-0.0117503,-0.00268564,0.0290709,-0.0152057,0.0217715,-0.00618369,0.00197319,0.0311495,0.0293956,-0.0102913,-0.0217892,0.0133272,-0.0161521,0.0193015,-0.00303758,0.017159,-0.00469938,0.0162611,-0.00169346,-2.51178e-05,-0.0094313,0.0131142,0.000859452,-0.017337,0.0261501,0.0239304,-0.00959982,0.0104275,-0.0103777,0.00660051,0.0327861,0.0032271,0.0219138,0.00785856,-0.0143894,0.014957,-0.0185737,-0.00963932,-0.0308629,-0.0224366,0.0178521,-0.00333067,-0.0150257,0.0288178,-0.0179675,0.0426145,-0.0112199,0.0191003,-0.0227657,-0.0359977,-0.00417492,-0.00575389,-0.000956479,-0.0243254,0.0229597,0.0151177,0.0017632,0.00398775,-0.0170069,0.00288542,-0.0408591,0.015811,-0.0157253,-0.00707135,-0.0245082,0.0245851,-0.0201725,0.0143381,0.000501997,-0.0111053,-0.0172736,-0.0130567,-0.00132107,-0.0172219,0.00934337,-0.0268576,0.0244118,0.0489369,0.0131749,0.0137143,0.0211014,0.0160284,0.0213856,-0.0118642,0.0213786,-0.016644,-0.0116867,-0.0195292,-0.00202209,-0.009241,0.00579842,0.0337334,-0.00952097,0.0207662,0.0401116,0.00213786,0.00896107,0.0221819,0.00603392,-0.0345922,0.0343349,-0.000564697,-0.0177659,-0.0206658,-0.0305403,-0.0204525,0.00886824,-0.00544376,0.0309574,-0.0312458,0.0138991,-0.0194574,-0.0146069,-0.0258916,-0.0112627,-0.0355626,-0.00823774,-0.0181194,-0.0238666,0.00799261,0.00136973,-0.0261355,-0.0118753,0.0187547,0.0030048,0.0216933,-0.0100928,0.00473677,-0.032774,-0.0114061,0.00114086,-0.0159467,0.0155712,-0.0274307,-0.00113622,-0.00285359,-0.0336641,0.00574983,-0.00318136,0.0353918,0.00602744,0.00856275,0.0120904,0.0108418,0.00141795,0.0162187,0.0250596,-0.0263398,0.0136171,0.051758,0.00110968,-0.0545656,0.0243269,-0.0134963,-0.00411453,-0.0157438,0.0147239,0.00590515,0.0209454,0.00182217,0.0429367,0.00457057,-0.00452079,-0.00999552,-0.0110228,0.0093106,-0.0247319,0.0155025,0.0287411,0.0069804,0.00424384,-0.00734826,-0.033579,-0.022884,0.00720943,0.0114002,-0.010926,-0.0351418,5.98054e-05,-0.0160586,0.00312421,0.00843922,-0.0192879,-0.02298,-0.0267453,0.0132276,-0.00123691,0.0168923,-0.0160999,-0.0321789,0.0104142,0.00423106,-0.0213139,-0.01443,-0.0423501,-0.0328642,-0.0247202,-0.0380089,0.0235047,-0.0028942,-0.041014,-0.0184375,-0.00186212,0.00597287,-0.00444533,0.00721684,0.0244422,0.00315539,0.022043,-0.0207698,0.00745574,0.0246216,0.00494529,0.0216514,0.0264507,-0.00510547,0.0134716,-0.00516953,0.00623284,-0.024328,0.0207233,0.0271261,-0.000819467,-0.00401293,0.0049185,-0.0169021,0.00285236,0.000856274,0.00844353,-0.00729263,0.00809581,-0.0247268,-0.00371308,-0.0120904,-0.00860651,0.00563639,0.0434634,-0.0218418,-0.00137117,-0.00937641,-0.0227788,-0.0207407,0.0169431,0.0242757,0.0135655,0.0192478,-0.00836944,0.0146873,0.0115003,0.0111056,0.00449433,0.0202375,-0.0308454,0.00153116,-0.0157993,0.019987,0.0121541,-0.0353916,-0.0131175,0.00280929,0.0254442,0.00812334,0.000589175,-0.0339317,-0.0109164,0.0302422,-0.0258368,0.0103545,0.00839776,-0.00684231,-0.0168062,-0.00564799,-0.0152856,0.00979662,0.0271366,-0.00762798,-0.00857926,0.0221959,0.0277084,-0.0151507,-0.0206523,-0.00281357,0.00319175,0.0318102,0.00810176,-0.00158968,-0.00821286,0.000514435,-0.0494789,0.00102044,0.00253284,0.0165742,0.00268471,-0.0504159,6.37691e-05,-0.0148745,-0.00266855,0.0143559,0.00246595,0.0272461,-0.0032464,-0.00923493,-0.017983,-0.00082987,-0.00869919,-0.0229628,-0.0115017,0.00996847,0.0213095,0.022284,-0.0305209,0.024305,0.0147373,-0.0155023,0.0112287,-0.0153038,-0.015536,0.0186161,-0.008318,-0.00388082,0.0122443,0.0397079,-0.0375117,0.0360038,0.0097303,-0.0262445,0.0607713,-0.0207021,0.0260355,0.0197153,0.00329597,0.0279011,0.0175038,0.00564854,-0.00252423,-0.00814468,0.00785722,0.0137423,0.022767,-0.0139388,-0.0075019,-0.00203585,-0.0131933,-0.0472822,-0.0154339,-0.0244287,-0.0286308,0.0042485,0.0137571,-0.0130574,-0.000748357,0.000398526,0.0425758,0.0148843,-0.0165993,0.0121765,0.00948761,0.0129924,-0.0119489,0.0068466,-0.00235906,0.0132431,-0.00802895,-0.00989659,-0.00436448,-0.0185128,0.0327405,-0.0179652,0.0417781,-0.0230486,-0.015642,-0.0176602,-0.0107855,-0.0302723,0.00691176,-0.00465025,0.0155243,0.0234075,0.00036706,-0.0305146,-0.0222175,0.00936309,0.0324781,-0.0416439,0.00335898,0.00322354,0.00627942,0.00576343,-0.034898,-0.013899,-0.00520798,-0.0031115,-0.0170393,-0.00168313,-0.0033886,0.00260577,0.00732838,-0.0164957,-0.0351432,-0.0394086,-0.00559953,0.0274412,0.0524451,0.0114889,0.0198152,-0.00506007,0.00252637,-0.0103451,-0.000332404,-0.0269973,0.0169165,0.0300678,0.00465174,0.019133,0.0383598,-0.0556281,-0.00899569,-0.0299252,-0.000163367,-0.0371138,-0.0291683,0.0120767,0.00341923,0.015615,-0.0107281,0.00712473,-0.0038631,0.0278915,0.00281617,-0.00456784,0.00402614,0.0412133,-0.0230532,-0.0198333,0.0139937,-0.0268046,0.0185065,-0.00761092,-0.0218496,5.69756e-05,0.0189346,-0.00964741,-0.0416123,-0.00818963,-0.0203594,0.0150258,-0.0120128,-0.0252514,-0.043961,0.0121434,-0.00572312,0.0259506,0.00637674,0.00436246,0.00974001,0.00489311,0.0344477,0.00909333,9.65269e-05,-0.00270819,0.0355729,-0.0187669,-0.0266871,-0.00587629,0.0393242,0.0032016,0.00375152,0.00390261,0.0124404,0.0219851,-0.0183174,-0.026071,0.009955,0.00576069,0.0105154,-0.00527817,0.0156688,0.0225656,-0.00933955,-0.0137873,0.0159292,0.0115966,-0.0231592,0.0152498,-0.0157838,-0.0198832,0.0201155,0.0112992,0.0281793,-0.0311006,-0.012651,0.00185073,-0.0174306,0.0285909,-0.00439028,0.00402695,-0.00497918,0.0171275,0.0237152,-0.0170926,-0.0383761,-0.0198771,0.000101542,-0.0172275,0.00819724,0.0087818,0.0193806,0.0101183,0.00399981,-0.0105199,0.0239418,-0.00540901,0.0159926,-0.00785161,-0.00697889,0.0324986,0.00505996,0.0107597,0.00766813,-0.0300789,0.00832005,0.0387922,0.00602374,0.0130351,0.0202417,0.0373754,-0.0355897,0.0207856,0.0438528,-0.00189696,0.0360535,0.0324283,-0.00699562,0.00987305,0.00843371,0.0242987,0.00421979,0.0146767,0.00964617,-0.00475321,-0.00177019,-0.0170477,-0.0306086,0.0105794,0.00959225,0.0111288,0.00707372,0.0152859,0.006653,0.0237402,0.00798063,0.00843788,0.0187855,-0.0119562,-0.00174953,0.0430838,-0.0152866,0.0201791,-0.00210819,-0.0398636,-0.0051834,-0.0159495,0.041714,0.0353404,-0.00448992,0.0142533,0.00328705,-0.00731318,-0.0268131,-0.00157587,0.0110769,0.00743755,0.0156146,0.0197607,0.0201775,-0.00729408,0.0151205,0.0215348,-0.0165602,-0.0191832,-0.0141303,0.0207968,0.017812,-0.00190827,0.0214754,0.014563,-0.0293606,-0.00112338,-0.00675929,-0.0188388,-0.0140223,0.0171343,-0.00215028,0.0205101,0.032946,-0.0165342,-0.0416017,0.0590527,-0.0199691,0.00709358,0.0036739,0.0247747,0.0175574,-0.0204278,0.0180555,0.00938079,0.00676434,-0.000294076,-0.0411583,0.0204393,-0.0090959,0.0273466,-0.00951567,0.0044485,-0.017436,0.000877507,-0.00784461,0.00548035,0.00843533,-0.00267198,0.00258911,0.00994042,-0.0295867,0.0324565,0.018945,0.0232034,-0.00271387,0.0214948,-0.0187233,-0.0056107,0.0468068,0.00765491,-0.0113995,-0.00501749,-0.0269632,-0.00114688,-0.00522771,0.00487008,0.00391624,-0.031805,0.00646083,0.0101337,0.015474,-0.0398945,0.00375772,-0.0184556,0.0200409,0.00901309,-0.0288332,0.0355195,0.00170838,0.00727963,0.0214974,0.0305763,-0.00650637,0.0246268,0.0191255,-0.00150329,-0.0209025,0.0217313,-0.0134778,-0.0442325,0.00453762,0.0186306,-0.0157439,0.0446712,-0.00444849,0.00490311,0.0188547,-0.0073165,0.0142001,-0.0192331,0.0235676,0.00135127,-0.00514495,-0.0159821,-0.00437475,0.0102337,0.0153308,-0.00884659,0.00670596,-0.000136016,-0.0263325,-0.0077468,0.0197392,0.032143,0.00843308,0.0302937,-0.0218267,-0.0042954,0.0157355,0.0033729,-0.0163805,-0.0173822,-0.012065,0.0217049,-0.00280276,0.0133147,0.0109559,-0.0190428,-0.00549689,-0.00889747,0.00142847,-0.00701006,0.0297913,0.0140898,0.0255905,-0.00713418,-0.0191123,0.0166557,0.00384655,0.0147903,0.00622199,-0.0332587,-0.0307688,0.0032329,-0.0201812,0.00372973,0.0290919,0.0142591,-0.0386406,0.0250646,-0.0132488,0.0195632,-0.000321945,0.00532254,-0.00524939,0.00265763,-0.0104216,-0.000729724,-0.0146793,-0.0199825,0.00690385,0.000707658,-0.00381162,0.0448129,-0.000108578,-0.00901268,0.0093834,-0.00196174,-0.0209498,-0.00596457,0.0209808,0.0106047,-0.00499466,-0.024593,-0.0108439,0.0182798,-0.00743007,0.000293013,0.0286513,0.0111075,-0.0345481,0.0360024,-0.00355656,-0.0116026,-0.034416,-0.0127214,0.000587472,-0.0477212,-0.0132198,-0.0128541,0.0255827,0.0203344,0.00877422,-0.0245691,0.00784637,-0.0397055,-0.000299126,0.00349915,-0.00660711,0.00331663,0.0037588,0.0222945,-0.0398474,0.0122827,-0.00972352,-0.00962643,-0.0253235,-0.0017804,-0.00971452,-0.0118835,-0.00963867,0.00651456,0.0109417,0.023198,0.0128416,0.00533101,-0.00897811,0.0204723,0.00232365,0.010211,-0.0168641,-0.0062669,-0.00492486,0.00906827,0.00488924,0.00925652,-0.0258158,0.0160935,0.0320343,0.025483,0.00513816,-0.0128256,-0.00460883,0.0145626,0.0104793,-0.00324418,-0.00797103,-0.00814764,0.0232563,-0.0104592,-0.0269842,0.00741652,-0.0295558,0.0274755,-0.0246024,0.00896461,-0.0209256,0.0478747,-0.00230674,0.00960159,-0.0215872,0.0199858,-0.0398571,-0.00543361,0.00657193,-0.0144059,0.0063469,-0.00678563,-0.0174555,0.0142011,-0.015038,0.00454174,0.00870181,-0.017985,-0.0353986,-0.0472952,-0.00777422,0.00131136,-0.0110075,-0.0102379,0.00907697,0.0116489,-0.0292925,0.0111483,-0.00103641,-0.0211878,-0.0170927,-0.0354226,-0.0162891,0.0258947,0.00936031,-0.0177161,0.0460801,-0.00985447,-0.0181703,0.00693592,-0.0093296,-0.00254737,0.0356154,-0.0065227,-0.0134071,0.0239092,0.00155131,0.0490175,-0.0376626,-0.00796044,0.00314621,0.0320666,0.0130681,0.0146915,0.00242676,0.0165194,0.0174551,-0.0175457,0.0134785,-0.000521669,-0.0079371,-0.000757599,0.0177094,0.0142452,-0.0168726,0.0143302,-0.0139789,-0.00791697,0.0273692,-0.00607863,-0.000879139,0.0174564,0.00149804,0.00144869,0.00740257,0.0157352,-0.00823684,-0.00608081,0.0203373,0.006726,0.0125339,0.0142162,-0.00808588,0.0141283,0.0107031,0.01505,-0.0121614,-0.0345707,-0.0156968,-0.00556865,-0.0197258,0.00396293,0.0118224,0.00142311,0.0138174,0.00194718,-0.0238009,-0.0171491,0.00680693,0.0103372,0.027826,0.0222045,0.0127696,-0.021876,-0.00365953,-0.00329807,0.0188186,0.00255637,0.0217763,-0.0464845,0.00671268,0.00047111,-0.015192,0.0415408,0.00696416,-0.0187767,-0.0158148,-0.0355078,-0.0138142,0.00795619,0.0158233,0.0289664,-0.0317715,-0.0158442,0.00303225,-0.0103556,0.002169,0.00838652,0.0223891,0.00738314,0.0267925,-0.00329238,-0.0120591,-0.00916273,0.00601503,-0.0207973,0.0178173,0.0422737,-0.00999152,-0.000837646,0.00380298,0.0173463,-0.00578563,-0.0258102,-0.00479795,-0.0189871,-0.0282742,0.0227148,-0.00835745,-0.00592704,0.0164975,0.0122234,0.0182746,0.0143403,-0.0102356,0.0250681,-0.0112989,0.00814329,-0.0120173,-0.0171034,0.0222799,-0.00240342,-0.0189293,-0.0270533,-0.0121207,-0.021708,-0.0136722,-4.60022e-05,0.0337448,-0.0317463,-0.013266,0.0164754,0.00777135,0.00462642,-0.00353877,-0.00615445,-0.00309669,-0.00270001,-0.035233,-0.0184993,0.0105528,-0.00343603,-0.0230063,0.0262469,-0.0221951,-0.032457,-0.00162332,-0.0210416,-0.0195086,0.0116719,-0.00500605,0.00972856,0.0104749,-0.00172998,0.0240845,0.017066,-0.044878,0.00826657,-0.0250469,-0.0222605,0.0160976,-0.00498664,0.00659486,0.0145251,-0.00796954,-0.033711,-0.01165,-0.0105073,0.0239502,0.00843173,0.00895635,0.0038439,-0.0108487,0.0282076,-0.00745154,-0.0240904,0.0035516,-0.00822968,0.00786656,-0.023406,0.0222369,0.012998,-0.0155261,-0.00349927,0.016876,0.00654324,-0.00523629,0.00510336,0.0027727,-0.015138,-0.00109344,0.00511147,0.00456769,0.000939083,0.00761912,-0.014347,0.0139858,-0.0271114,0.0200395,-0.0092029,-0.0119354,0.0107698,-0.00713299,0.00818523,0.00925539,0.00927383,0.0128474,-0.0162067,-0.0274137,-0.0118599,-0.000307692,0.0240897,0.001479,-0.0180316,0.0127446,0.0198945,0.00951407,-0.00577164,-0.0218488,-0.0295835,0.0107067,-0.0101944,-0.012131,0.0293875,-0.047272,0.0187842,0.0180426,-0.00391392,-0.0326139,-0.0255109,-0.00985822,0.0172919,-0.000348286,-0.0323694,-0.0168455,0.0142973,0.0269896,-0.00838234,0.0121308,0.0362769,0.0230801,-0.0166736,-0.0180642,0.0176392,-0.00449967,0.0190848,0.0114857,-0.00449368,0.00780904,-0.0136212,-0.0204855,-0.019231,-0.0110078,0.0214673,0.0237258,-0.0100046,0.00161426,0.0024894,-0.0253097,-0.000801836,0.00326646,-0.0148542,0.0438181,-0.0174908,0.0397925,0.0475292,0.037701,0.000888509,-0.00604771,0.0254845,-0.00179016,0.0142708,0.00862234,0.00145896,-0.0141987,0.0390612,0.0334257,0.00128157,0.00864964,0.0131041,0.00439175,0.0185619,0.0499888,0.00907362,-0.00460297,-0.0293714,-0.0260165,0.0372142,-0.013062,-0.0469897,-0.00977965,-0.00213867,0.0201749,-0.0260385,-0.00067174,-0.00235319,0.022736,-0.0101913,-0.0201351,0.0203459,0.00981028,-0.0211638,0.00408471,-0.0227309,0.00034265,0.00542543,0.0136303,-0.00599773,0.0113187,-0.0217863,-0.0299755,0.0338948,-0.00849504,-0.0040359,-0.0104614,-0.0255691,-0.00947274,-0.0186732,0.0151882,-0.0130181,-0.0139535,-0.013128,-0.0262409,0.0382126,-0.0225367,-0.00476987,0.0173402,-0.00436684,0.0374711,-0.0356395,-0.000134208,-0.041601,0.0295895,0.0357321,0.00200515,-0.00389137,-0.029134,-0.0286287,0.0273213,0.0176782,0.016268,0.00898064,-0.0368809,0.00699118,0.0280025,-0.0279618,-0.0298734,-0.00655342,-0.0068562,-0.00512979,0.00722823,0.0121928,-0.0244715,0.0110639,0.00373724,-0.0428452,-0.00522243,0.0183571,-0.0132119,0.0143429,-0.0192743,0.0152304,0.000524589,0.0303609,0.00602549,-0.00923538,-0.000471176,-0.00919998,-0.0226188,-0.00885985,-0.0310495,-0.00285824,0.0143491,0.000314429,0.0133564,-0.0373064,-0.0365853,-0.000935115,-0.014163,-0.009311,-0.014098,-0.00224141,-0.00602,0.0107253,0.00169156,-0.00579525,0.0326942,0.0229453,-0.0104534,-0.00525615,-0.0201264,-0.0198678,-0.0425758,0.011155,0.0088596,-0.0174829,-0.0139094,0.0177617,0.0118385,-0.00261138,0.0136341,0.0112137,-0.0140404,0.0119652,-0.0362319,-0.00960837,0.0125412,-0.0395133,0.00667043,0.0332343,0.0524732,-0.000815603,0.0214229,0.00575063,-0.0303373,0.00917877,-0.0106734,0.0401531,0.020177,-0.00021599,0.0169707,0.0161864,0.016556,-0.0440284,0.00392515,0.00728566,0.0317688,-0.0120573,0.00898296,-0.00587884,-0.0216741,0.0228857,0.0384206,-0.0101165,-0.0029424,-0.0177911,0.0214651,0.00238187,0.00513438,0.000525225,0.0110264,-0.0364722,-0.00759669,-0.0127875,-0.00581684,0.0112271,-0.0071714,0.0277776,0.000150223,0.00582686,-0.0187096,0.0223219,0.00507822,-0.0040547,0.00820264,0.00855466,0.00297858,-0.00307452,-0.0114188,0.01384,-0.00716346,0.00330421,-0.000391497,-0.0193039,-0.020394,0.00793781,-0.0172095,-0.0062451,0.00693218,-0.0144925,0.0265132,0.0257686,0.0159067,-0.000896565,0.0241982,-0.00271245,-0.0167067,0.0478141,0.0154809,-0.0284325,-0.0149549,0.010542,0.0127314,-0.0283287,0.00203587,-0.0244295,-0.0304906,0.0146301,-0.00926601,-0.015726,0.0115757,0.0179871,-0.00650059,-0.0166291,-0.00305763,-0.0273467,0.0206924,0.0178814,0.0295031,0.00638717,0.0119972,-0.00418679,0.00927878,-0.00303078,0.00879331,-0.0329843,0.00677504,0.0109121,0.00290296,-0.0236061,0.0309408,-0.0330459,-0.000844147,-0.0194193,-0.000779315,-0.0109973,0.00862811,0.00632287,0.0147474,0.0168262,0.0155971,0.0250903,0.0228542,0.0359538,0.0279326,0.0302263,0.0106421,-0.0111702,0.0155652,-0.0595924,-0.00222283,-0.0217559,0.0320475,0.0189885,-0.00977685,0.0147833,-0.0202887,0.00955134,-0.0113775,-0.00608931,-0.0268438,-0.0139774,-0.00193827,-0.000386662,0.00860045,0.0222662,0.0117114,0.0198749,-0.00201922,-0.00764334,0.0248782,-0.0173505,-0.00754025,0.0126239,-0.0213353,0.0121514,0.00179822,0.00679466,0.0546538,-0.00473442,0.00781239,0.0095934,-0.0174984,-0.0119923,0.0107247,-0.0283868,-0.005301,0.00373058,-0.0234201,-0.0071443,-0.0302047,-0.0102921,-0.0257122,0.0320884,0.00202423,-0.00212137,0.00821753,0.00782675,0.00194177,0.0220596,0.00251559,-0.0137562,-0.0191604,0.00540007,0.015219,-0.0404057,0.019215,0.00666998,-0.0298146,-0.0376133,0.00866285,0.00888275,0.0253841,0.00354737,0.0340111,0.00565315,-0.0126957,-0.0220075,0.0184162,0.0100514,-0.0233341,0.0277024,0.00123491,0.00152132,0.0344064,-0.0120394,0.0120375,0.00733342,0.00534211,-0.00974012,-0.00329423,0.00495785,-0.01679,0.0181787,-0.0448279,0.0130631,0.0187906,0.00640311,0.00879866,0.00102375,0.00892775,-0.0385367,-0.00575516,-0.00296232,0.00885263,0.0153485,0.0190248,-0.00220473,-0.0101121,0.0218973,-0.0337437,-0.0272299,-0.0133444,-0.00988655,-0.0133961,-0.0313152,0.00564186,-0.0446168,0.0205645,0.0129317,-0.00271772,-0.00450405,-0.00751561,0.0223948,0.0120139,0.00753493,-0.0207284,0.0238418,-0.0231282,0.0292687,0.0277203,-0.00642163,-0.0225343,0.00397534,-0.0325113,0.0103711,-0.00481956,0.0344099,0.0105104,0.0231406,-0.00116131,0.00268501,0.0262551,0.00461769,7.13265e-05,-0.0228127,-0.0226238,-0.0266013,-0.00265066,-0.0244144,-0.00499037,0.00567815,-0.00336302,-0.0302907,0.00622155,-0.0083684,0.0225782,-0.00579652,-0.0269963,-0.0294386,-0.0219636,0.0291412,-0.0305627,0.0439271,0.00862507,0.00829016,0.0368682,-0.0337332,0.00125342,-0.0108337,0.0293025,-0.0206131,0.00265329,-0.00993036,-0.0466568,0.00666956,-0.0201258,-0.0155703,0.0325916,0.000604088,-0.0129809,-0.00718887,-0.023687,0.00910343,0.0221239,-0.00886895,-0.00279743,0.0421204,-0.0177007,-0.0037173,-0.0456874,-0.0232588,0.018748,-0.0352719,0.0016846,0.0310842,-0.0142146,0.00720089,0.0328356,0.0150537,-0.0155469,-0.00476751,-0.0256286,0.0102014,-0.00299375,0.0216371,0.0207807,-0.0316205,0.0116611,-0.0116824,-0.054982,-0.00247394,-0.0131942,0.0054873,-0.0150186,-0.00310058,-0.00193122,0.0121217,0.00475858,-0.00851681,0.0107492,-0.00417687,0.0237109,-0.0192215,-0.0241808,0.00594646,0.00407327,-0.0310416,-0.00741369,0.0388524,0.023444,-0.00848078,0.015459,0.00754691,0.0139714,-0.0467639,0.0212552,0.0030172,0.0388635,-0.0140089,0.0290476,-0.0229979,-0.00649893,0.00896629,-0.000123664,0.0217134,0.0295161,0.0183961,-0.0079335,0.0413888,-0.0149704,-0.0128107,0.0105238,-0.010633,0.0183929],"shape":[113,64]},{"data":[0.0108756,0.0027185,-0.00387602,0.00693351,-0.0155583,0.0291812,0.0232887,0.00393315,0.0075961,0.00209931,-0.0489274,-0.0491754,-0.0456057,-0.0390864,0.0195498,0.0452516,0.00640657,0.0346465,-0.0029229,-0.0116619,0.0291083,0.00911026,0.0201477,-0.000801639,-0.0353299,0.0272262,-0.0120068,0.00635265,-0.0252791,-0.000195689,-0.0154582,0.00269741,-0.0112687,0.020676,-0.0191872,0.0241215,0.028363,0.00927228,-0.00508589,0.0082363,-0.00356519,0.034125,0.00773472,-0.0516935,0.0208893,0.02471,0.0132787,-0.0209337,0.00887321,0.00875774,0.014772,-0.00334685,0.0274213,-0.00722713,-0.026457,-0.0445498,0.0139002,-0.00731768,0.039288,0.000568439,0.0135553,-0.00382864,0.0163446,0.0124871,0.0123043,0.0124691,-0.00625405,0.00248448,0.00481005,-0.0112906,-0.00971178,-0.00256762,0.00387005,-0.00893555,0.0154125,-0.0241693,-0.014383,0.00449349,-0.0173992,0.0252089,-0.0439173,-0.0277832,-0.00369232,0.0234809,-0.0135474,-0.0172971,-0.0360844,-0.000640192,0.0181565,0.0167546,-0.0138217,0.0189831,0.0111592,0.00908464,0.0122834,0.006066,0.0100336,-0.00749991,-0.0121685,-0.0180728,0.0224234,-0.00152089,0.0149581,-0.0205073,-0.0204364,0.00244987,-0.0373396,-0.0353578,0.0203802,-0.02276,-0.0367332,0.0391125,0.0119603,0.0120259,0.0209094,0.0276054,0.0263647,0.00702593,-0.00656174,-0.0285484,0.010898,-0.0209163,-0.02903,0.0111042,-0.0169767,-0.00330759,0.0101162,0.0242304,0.000546739,-0.00891913,-0.0412024,-0.0128805,-0.004066,0.0438994,0.00251071,0.0217969,-0.014525,-0.0181679,-0.0115384,-0.00874021,0.00791289,0.00327286,-0.00414899,0.00498881,0.0204679,0.0066227,-0.0312235,0.0425464,-0.0248838,0.00982471,0.0171801,0.0139244,0.0135804,0.0262517,-0.00538728,-0.0122811,0.00358937,-0.0159858,-0.00301536,0.00417882,0.0103555,-0.0231106,-0.0049996,0.00737254,0.0256324,-0.0228132,0.027617,0.0253185,0.0152363,0.00790031,0.0412874,0.0215177,0.014715,0.0318433,0.000859026,0.000621437,-0.0081877,-0.0145159,-0.0143674,-0.00262303,0.0291918,0.0049947,0.0120745,0.00744909,0.015393,-0.0150085,-0.0292512,0.0184582,0.00140254,0.0132562,-0.0343404,0.0105453,-0.000304401,0.0331531,-0.0232599,-0.00114532,-0.00348978,0.0246813,0.00835215,-0.0203968,0.0113071,-0.0179971,-0.0156049,0.0125986,0.00721306,0.0245124,0.00159046,0.0352163,0.00749674,-0.0135547,-0.00628135,-0.00444752,0.00461329,-0.0292181,-0.0162964,-0.00469429,0.0256114,-0.0262391,0.00627088,0.0327654,0.018026,0.00761892,0.00383867,0.0136318,-0.0127636,-0.0446365,-0.0148338,0.0047773,-0.017416,-0.0238091,-0.0190502,0.00427742,0.0131556,0.0444886,-0.0161682,9.59929e-05,-0.00696564,0.00147286,-0.0165151,0.0230579,-0.000370224,-0.0261918,-0.00775951,-0.0134914,0.0157428,0.0150435,-0.00362451,0.004477,0.0246391,0.0331396,0.0205084,0.000135305,-0.013106,-0.0113383,0.0442503,0.0241399,-0.0151248,0.00539708,-0.0422041,0.0167477,0.0284526,-0.00316897,-0.0136763,-0.00909665,0.0138275,0.0212734,0.00251517,0.00329722,-0.00732892,0.00359272,0.000750582,-0.0188519,-0.0276181,0.0351162,0.0296025,0.0036496,-0.0257658,0.00585854,-0.00700364,0.0492508,0.0250244,0.0077598,0.0254523,0.0242338,-0.00127558,0.0213351,0.0293947,-0.027023,-0.00901165,-0.00465892,-0.00157309,0.00889555,0.0150486,0.0428165,0.00421405,0.0127386,-0.0150414,0.0316788,0.0228231,-0.00688972,0.0125653,0.0112452,-0.0195476,0.010535,-0.0313784,-0.0088051,0.00666405,0.00626904,-0.0237744,0.0189739,-0.00885254,0.00167145,0.00263273,0.000323651,-0.0232785,0.0440202,-0.00175075,0.0134641,-0.0310134,-0.0198346,0.017925,-0.00413815,0.00901591,-0.0156587,0.00465042,-0.00319895,0.0103924,-0.00351468,0.0124838,0.00345242,-0.00419417,-0.0185659,0.0207578,0.0104908,0.00664521,0.0420207,0.00752404,0.0331795,-0.0273524,-0.00983584,0.00971723,0.0118154,-0.0453119,-0.00799215,-0.0197707,-7.7409e-05,-0.0183523,0.0139314,0.000598247,0.0400948,0.00821399,0.0139027,-0.00663342,0.00865161,-0.0414231,0.0494761,0.00739555,-0.000575809,0.0335725,-0.0171403,0.00368653,0.0540614,0.0166207,0.0279547,0.0104607,-0.023643,-0.021661,0.00538428,0.0115765,-0.00975602,-0.000363872,-0.000105581,-0.00808597,0.0162465,-0.0230179,0.0205583,0.013468,0.0123627,-0.0308446,0.00175246,0.0172069,0.0357826,-0.0200585,-0.0181966,0.0268419,-0.000727301,0.0154084,0.0530402,0.00249663,-0.0424015,0.0116031,0.0239512,-0.000945715,0.0509591,-0.0137324,-0.00974075,0.00645802,0.0143786,-0.00393632,0.00696682,0.00117019,0.0150881,-0.000899593,0.014538,-0.00355022,-0.00530522,0.0167588,0.0210679,0.0250077,-0.00594733,-0.00374712,0.0127926,0.00357781,-0.0294771,0.0150621,-0.0262286,0.0119171,-0.00727241,-0.0326815,-0.00372873,-0.0281262,-0.00463267,-0.0139546,-0.0132546,-0.00627979,-0.0415268,-0.0166669,0.00756775,0.00884007,0.0272723,-0.0254863,0.0490381,0.0213753,0.0148278,0.0175099,-0.00512941,0.0302115,-0.00843479,7.83858e-05,-0.0339108,-0.0151949,0.0222087,0.0101337,0.015708,-0.0201787,-0.0042806,0.0178,-0.0313628,0.0289338,0.0370249,-0.00455797,0.0166299,-0.00581496,-0.0102198,0.00973037,-0.0208387,-0.00161505,-0.03419,0.00454041,0.00571417,0.00451475,-0.0315842,0.0149391,0.0073787,0.000892519,-0.00894456,0.0225985,0.00138118,-0.0275651,-0.00733335,-0.0148914,-0.000278616,-0.00888885,0.00312553,-0.0243698,-0.00977584,0.0106,-0.000185397,-0.0270926,0.00870504,0.0200156,-0.0191169,0.00403655,0.0118428,-0.0145457,-0.00856575,0.000485314,-0.0387911,0.0169532,-0.0735134,0.00770502,-0.0162617,-0.00279887,0.0274925,-0.0238451,0.000550785,-0.000795849,-0.0139903,-0.00243494,0.00131788,-0.0322195,-0.00770544,0.0143642,-0.00931777,0.00866504,-0.0132186,0.0163777,0.0283134,0.0167235,0.00685691,0.00280216,-0.023289,-0.00735721,-0.00756161,0.0375393,0.0412514,0.0345703,0.0148996,-0.0131963,0.000876994,0.00848344,0.0237323,-0.021226,0.022447,0.00669993,0.0274686,-0.00638018,0.0494471,-0.00513176,-0.0251309,-0.0245048,-0.00224083,0.0231061,-0.000724672,-0.0250017,-0.00313912,0.0147082,0.0303435,0.00153366,0.0250673,-0.0100297,-0.0064668,-0.0109862,0.0255327,-0.00763695,0.00843058,-0.00685805,-0.0313356,-0.000774223,0.000956148,-0.0178133,0.00767494,-0.00962655,-0.00919054,0.000614425,0.0154756,-0.00252216,-0.0222536,0.0166018,0.0343217,0.00542156,0.0116366,-0.000153408,0.00173365,0.0152173,0.00867901,-0.00552075,0.0384214,-0.0136277,0.0265591,0.0175498,0.00676877,-0.019015,-0.025815,-0.00657141,0.0137144,0.0106695,-0.0251163,0.0407575,-0.00123584,-0.00426528,-0.00383346,0.00787451,0.0222824,-0.0162721,-0.0262968,0.0281843,0.0037704,0.0114384,0.00646309,-0.00615703,-0.000169023,0.00274806,0.0175626,0.022513,-0.00287091,0.0274873,0.0188826,0.00166698,-0.0191852,-0.0267514,0.00463501,0.00395861,-0.0138763,0.0392137,0.0114901,0.0270941,-0.00785281,0.0143541,-0.0074003,-0.00852764,0.0160755,-0.0101463,-0.0203142,0.0112914,0.0213292,0.000647336,-0.00797141,0.0315765,-0.0298873,0.00873521,-0.00515633,0.0295835,0.0375495,0.00979768,-0.052417,-0.0404933,-0.0262327,-0.00501943,0.0225276,0.00287687,-0.0024601,-0.016418,-0.0213505,0.000324545,-0.0138785,-0.0321372,0.00054339,0.0167393,-0.00067716,0.0136844,-0.0165302,-0.0169808,-0.0213034,0.00189185,0.0113086,0.00479909,0.0151722,0.000266015,-0.00807027,0.000117868,0.00261117,0.0219314,-0.0268337,0.0203595,-0.0173767,-0.0209324,0.0159596,0.0108891,0.0176393,0.0201104,-0.0102012,0.000334408,0.000265118,-0.00206255,0.0332849,0.0142216,-0.017828,0.0135239,0.0110655,-0.0138726,-0.0157299,0.0223677,0.00399803,-0.0106638,0.00321004,0.0228744,-0.0163994,0.009097,-0.0420585,-0.0161659,0.0215808,-0.0338119,0.00771351,0.0131615,0.00290132,-0.0130665,0.0071829,0.00633357,0.00461601,-0.0103913,0.00822527,0.0195151,-0.0191095,-0.00836049,0.0231066,0.0262907,-0.00283182,-0.0113741,0.0390087,-0.00673666,0.00486864,-0.0164722,0.0177792,0.0161636,-0.00586715,-0.0207551,-0.00987526,-0.00817663,-0.0326406,-0.0532236,-0.00357874,0.000789712,0.00646762,-0.0310303,-0.0093357,-0.00973371,-0.0158779,0.00733758,0.0496582,-0.0101856,-0.0160984,-0.0379563,0.0235618,0.00703988,-0.0170141,0.0113715,0.0174857,0.0515705,0.00872845,-0.0357046,0.023701,-0.021963,0.0113252,-0.0314475,-0.0113648,-0.00378857,-0.0173327,0.0442102,0.0362345,0.0192699,0.0162952,-0.000648575,0.0495727,0.0153802,-0.0185112,0.00452443,0.00134191,-0.0378302,0.0129789,-0.0233558,-0.0184148,0.0190722,-0.0212944,0.00923288,-0.0181094,-0.00905672,-0.0138566,-0.0259273,0.0152678,0.0370772,-0.0250533,0.000450602,0.00194402,0.025159,-0.00369204,-0.00399347,0.0267483,-0.0126783,-0.000574781,-0.0356202,-0.0114061,-0.00446674,0.0329925,0.0087848,0.00550734,-0.00946264,-0.0149353,0.0262801,-0.00824177,0.0628487,0.00568925,-0.00775283,-0.0239057,0.0037044,0.0155168,-0.00878382,0.00194423,0.00604112,-0.00159512,0.0154732,0.0381241,-0.0329593,0.0249484,-0.00018805,-0.020241,-0.0101585,0.0094399,0.0148801,-0.0406609,-0.00949382,0.00117624,-0.00800294,0.0355963,-0.0184727,-0.00310597,0.00521441,-0.0103862,-0.0388999,0.00406867,-0.0064948,-0.0119358,-0.00986313,0.00723781,0.0306877,0.016548,0.0289927,-0.036004,-0.0161536,0.0328033,0.0144259,0.030417,0.00339872,0.00243314,-0.000580234,0.0124442,-0.0149265,0.0296949,0.0264855,-0.00223181,0.00296148,0.0280253,-0.00164956,-0.0396164,-0.0319551,0.00359367,-0.00838911,-0.0052567,-0.0388048,0.00549743,0.0345941,0.00152407,-0.0461135,0.0251838,-0.0223568,0.0210595,-0.0506445,0.0474796,0.0225956,-0.0246096,-0.00457816,-0.0154366,0.0281979,0.00321656,-0.0139257,0.00758605,0.03315,0.0195986,-0.0306294,-0.019214,0.0230012,0.0017896,-0.00411791,0.00766288,-0.00688212,-0.0211317,-0.0185336,-0.0259696,0.0213304,0.00487956,-0.0177243,-0.00305912,-0.0189521,-0.0285821,-0.0236555,-0.000100634,0.00554643,0.00623827,-0.0229191,0.00917343,-0.0145744,0.00809615,0.0273177,-0.00564877,-0.020213,0.00444999,0.0306483,-0.0137813,0.00221934,0.0148247,0.0567904,0.00546264,0.00437836,-0.0168739,0.0385347,-0.0210862,0.00991881,-0.0144433,0.022521,-0.00574077,-0.00768568,-0.00865135,-0.0152633,-0.0370803,0.0354747,-0.0272921,0.0321515,-0.000560321,0.00521798,-0.00426777,-0.0261439,0.0115812,0.0424609,0.0158038,0.00175008,0.0241818,-0.0230186,0.00261584,-0.0187765,0.00989554,-0.0065552,0.0356758,-0.024764,-0.00763526,-0.0143887,0.0102625,-0.0185989,0.00761479,-1.99241e-05,0.0458265,-0.0138919,0.00781842,0.012399,-0.00649814,-0.0201905,-0.0244462,-0.0287747,-0.0185393,-0.0192204,-0.00235629,0.00694862,-0.0042696,-0.0235792,0.00634157,0.00805063,-0.0111227,0.0135329,0.0142911,-0.0182905,0.00543424,0.0258617,-0.0166921,0.0267791,-0.0295615,-0.00359505,0.0445299,-0.0183629,0.0185997,0.00603835,-0.0203592,0.0108835,-0.0198655,0.00678889,-0.00212865,-0.0134126,0.0118492,-0.000332932,0.0183721,-0.0278401,0.0320752,0.0226597,-0.0179997,0.0209718,-0.019936,0.0190676,-0.0281707,0.00873382,0.0356515,-0.0129573,0.0183381,0.027389,-0.0180479,-0.000302989,0.0254832,-0.0233341,0.000677595,0.0262309,-0.0139093,0.00210663,0.0289189,0.023698,0.0086466,0.00791434,0.0154508,-0.00301098,0.0162412,0.0187754,-0.00419884,-0.0444019,0.0329229,0.00321721,-0.00250302,0.00374319,-0.0245085,-0.0209307,-0.0491335,-0.0211177,-0.018987,-0.0117744,0.00949591,0.0117854,-0.00204496,0.00923419,-0.0233698,-0.0319998,-0.0397506,-0.0140117,-0.00167846,-0.0167776,-0.0196407,-0.000866868,0.00113838,0.0174017,0.00672413,-0.00662484,0.0207597,-0.0121022,0.00172705,0.00686561,0.0091339,-0.0105576,-0.0318846,0.0186977,0.00481885,-0.00218572,0.0178677,0.00974077,-0.044208,-0.0165266,0.0286221,0.00115952,0.00245708,0.0224481,-0.00326055,0.000369239,-0.00341051,-0.00140352,-0.0339639,0.00703502,0.00218086,0.0115285,0.0267605,-0.0237534,-0.0224859,-0.0204539,0.0118625,-0.0347507,0.0164401,-0.00480377,-0.0167631,0.0244735,0.00497401,-0.0169375,0.00696416,-0.01728,-0.0430275,-0.0134821,0.0164815,-0.0111463,-0.00797252,-0.00799991,-0.00101081,-0.0036979,0.0134177,0.0018133,0.0161853,-0.013675,0.00441905,0.00835877,-0.028464,-0.0100809,0.00692862,-0.0202789,0.00333411,-0.00494622,0.0189633,-0.0275898,0.0230535,0.00405806,0.00672388,-0.00608131,0.0066871,-0.00402446,0.0235189,0.03552,-0.00793136,-0.00482457,-0.0275839,-0.00664602,0.0217607,-0.0238152,-0.010592,-0.0161733,0.033631,-0.00561828,-0.00224103,-0.0108444,0.0413653,0.00376852,0.00787557,0.0158588,0.00407169,0.0375724,-0.017984,-0.00221461,0.025007,0.00591885,0.000854777,-0.0115368,0.0014811,0.00807269,0.00230679,0.0215071,0.0075996,0.0125831,0.0254488,-0.00437663,0.00431177,-0.0132532,-0.0455208,-0.0168832,0.00305844,-0.0098104,-0.00708029,0.0124337,-0.0174506,0.0233564,0.00532756,0.0284525,-0.0073216,-0.00188942,0.00800082,-0.0140799,-0.0207607,-0.0341656,0.00230733,-0.0103065,-0.0180713,-0.0359971,-0.00378571,-0.0294535,0.0422984,0.00581246,0.00512936,-0.0204147,0.00229365,-0.00643609,0.0290071,0.000809425,-0.00889585,-0.00654479,0.0176535,-0.013624,-0.0179428,-0.023823,-0.0015763,-0.00790645,0.00442837,-0.0175539,0.00349813,0.0173673,-0.000366333,0.00555033,0.0161694,0.00492907,0.0291577,-0.0133358,0.0167397,0.0121618,0.00614793,-0.00662064,-0.0122089,0.0398156,0.0141647,-0.00518518,0.0248933,0.00828119,-0.00349708,-0.00491985,-0.0104444,-0.0133626,-0.0393395,0.0439327,0.00727529,-0.0153217,-0.0218341,0.0188794,0.020839,0.00131556,0.00265934,0.0175517,-0.0184749,-0.0150148,-0.0139725,0.00187269,0.0150924,0.0163269,-0.0194828,-0.0196293,-0.0209967,0.00404967,-0.00262438,0.0113622,0.00493721,-0.0215892,-0.00287294,0.0246762,0.0363818,0.0394708,-0.0130811,0.0138012,-0.0222215,-0.00470703,-0.00612787,0.00686718,0.00905325,-0.00989424,0.0233576,0.0384616,0.00963701,0.00266122,0.0014585,0.00693209,-0.00515591,-0.023721,-0.00176306,0.0112414,-0.0195847,0.0269505,0.0091739,-0.0106588,0.0124689,0.00449071,0.0011834,0.0160775,-0.00245411,0.0246946,-0.00474585,0.0368426,-0.040121,-0.0241989,-0.0171666,-0.0289239,0.0217648,-0.0130258,-0.00736286,0.0126379,-0.0117466,-0.00435074,0.0107957,0.00354206,-0.020634,0.0135319,-0.0119871,0.000467578,0.0199,-0.0170172,0.00746807,-0.0028227,0.016888,-0.0526154,0.0137526,0.0123971,0.0101773,-0.0108447,-0.0185288,-0.0338553,0.000630028,-0.0336554,0.0096405,0.0252517,0.0278343,-0.0180613,-0.018167,-0.0286915,-0.0338688,-0.00355591,-0.00420178,0.0225455,-0.0246173,-0.00627338,-0.0145712,-0.0118432,-0.00144777,-0.0226972,-0.00873003,0.00401131,0.00855286,0.00105997,-0.000910365,-0.0323231,0.0210018,-0.000116545,0.0130113,-0.00965886,0.0114664,-0.0122123,-0.0175379,-0.0208394,-0.000481752,-0.0100695,0.00981607,0.0244056,-0.00917704,0.0119182,-0.0205831,0.00417555,0.0210872,0.00758221,-0.0149367,0.0173221,0.0188844,-0.00692055,0.0189695,-0.010535,-0.00976357,0.0248583,0.00551821,0.00690075,-0.00491658,0.00137633,-0.020343,-0.00866052,-0.00654683,-0.00307623,0.0123552,0.0196169,0.0071367,-0.0169092,0.00471225,-0.0123383,0.0271259,-0.00920226,-0.0148266,-0.0068852,-0.0136157,0.00388212,0.0105346,0.00945681,0.000747719,0.0371919,0.0529348,0.0185621,0.0133523,0.00786876,0.0036367,-0.0176614,0.00203266,-0.0352888,-0.0284179,-0.0126091,0.0299555,-0.0193702,0.0173444,0.00592223,-0.00989561,0.040187,-0.0201482,-0.011095,0.0365304,-0.0361025,-0.00808149,0.000131863,0.00447646,0.019136,0.00922285,0.00660188,0.012205,0.00989341,0.0055502,-0.0304377,0.00670276,-0.00657791,0.010034,0.0028144,-0.00581091,-0.0276323,0.029569,-0.00268913,0.0074728,0.0502795,0.0179417,0.025698,-0.012935,-0.00588595,0.0026853,-0.00020897,0.00302876,-0.0236911,0.0057604,0.031471,0.00888719,-0.00973818,0.0126734,0.0371584,-0.00887099,0.0270136,0.00107512,0.00816637,0.0185001,-0.0200645,0.0111217,-0.0263031,0.00168312,-0.0169284,0.00213658,0.0242615,-0.00664824,-0.00823273,0.0261168,0.00128598,-0.0418183,0.00720139,0.0172913,0.0155943,-0.0439525,0.0533142,-0.0179957,0.0315754,-0.00807793,0.033221,-0.0237584,0.0164762,-0.0361053,-0.0247769,-0.0221608,0.00322864,-0.0250164,-0.0151078,0.00226113,-0.000368996,-0.00428813,0.0182058,-0.0173698,-0.022719,0.00803009,0.0148248,0.00682559,-0.0433085,0.00920842,0.0201496,0.00505767,-0.00268978,0.0123526,-0.0166646,-0.0275682,0.0130573,-0.00835654,-0.0445755,-0.00366157,-0.000768942,0.00641277,-0.0162034,-0.00804228,0.00459266,0.0189993,-0.0261476,-0.0149978,0.019557,-0.00762888,0.0134335,0.0284124,-0.00850862,0.0189307,-0.0233145,-0.00822614,-0.00584824,0.0144168,0.0259684,0.0128469,0.0330399,-0.023638,-0.017614,-0.0213275,-0.00274565,-0.00396865,-0.0208398,0.0131855,0.0113551,0.0165221,0.0140556,0.0125332,-0.00779076,-0.0201416,0.00127724,-0.031995,-0.00983171,0.0226417,0.00478283,-0.053607,0.0130478,-0.000379163,0.00234665,-0.0155842,-0.00364477,0.0189983,0.0670721,-0.0225397,0.011337,0.000132267,-0.023143,0.00707928,-0.0254742,-0.000336558,-0.000750157,-0.0206569,-0.00183131,0.0312376,-0.0170879,-0.00897067,-0.061606,0.0278145,-0.0185145,0.0147152,-0.0332927,0.0253715,-0.0231373,-0.0164984,0.00686003,-0.000599565,-0.0109047,-0.0206452,-0.00414566,-0.0203409,-0.0109851,0.0336427,0.0158594,0.0168835,-0.0528677,-0.00635728,0.00497392,-0.0199185,-0.00166867,-0.00861415,0.0318957,-0.0211434,0.0156113,-0.0126219,0.0213153,-0.0228668,-0.0117332,0.00741193,-0.0139326,-0.0104557,-0.0115275,-0.0082781,0.0059771,-0.0339814,0.0199327,0.00852286,-0.00947427,0.0166386,-0.00225581,0.0256602,-0.0253535,0.00994517,0.0224152,-0.0100403,-0.0216478,0.0541691,0.0284784,0.0322399,0.0101367,0.00102675,0.0100583,0.000361181,-0.00132902,0.0321313,-0.0116484,-0.027678,0.0219556,-0.031885,0.0395765,-0.0336441,0.00168398,0.0138874,-0.0217219,-0.0211162,0.00579236,0.0162345,-0.0043107,0.0075265,-0.0282464,-0.00987252,0.0212721,0.0171475,0.0180345,0.0264133,-0.0203393,-0.009627,-0.0121012,-0.0127656,0.00513872,0.00496421,0.00896575,-0.0168234,0.0246192,0.00850239,0.00883704,0.00255389,0.00931388,0.0271141,0.039345,0.04584,0.016364,0.0387494,-0.00717521,0.000530602,0.0180133,0.0158632,0.0182648,-0.0202889,0.0272442,0.0051474,-0.0302626,-0.0118631,-0.0315453,0.0266505,-0.0288385,-0.0032347,0.0115597,0.0119985,-0.0345835,0.0395428,0.045688,0.00545514,-0.0391088,0.0183784,0.0140829,-0.000302381,-0.0330645,-0.00420279,0.0153537,-0.0056759,0.0230103,0.00511487,0.00474146,0.00168933,0.00702175,0.00745236,0.0246174,0.0110512,0.0187182,0.0121423,0.0186701,0.00674289,0.0366106,-0.020011,0.00675305,0.0235198,0.0153393,0.0197271,-0.0440724,0.00378045,-0.00245918,0.00672545,-0.00964326,0.00715774,-0.0436618,-0.00447642,0.0213568,0.00508548,0.036752,-0.0195334,-0.0211256,0.00216247,0.0251656,-0.0213553,-0.00443682,0.00104025,0.00402042,-0.018573,0.0208484,-0.0126626,-0.000336277,0.00108354,0.0242854,-0.00102052,-0.0128421,-0.0438702,-0.0246335,-0.0134835,-0.0155593,-0.00261212,-0.0330918,-0.023766,-0.01345,-0.0127988,0.00309535,0.0072294,-0.00898343,-0.0112742,0.0524871,0.00813495,0.0311891,0.000626116,0.00214579,-0.0122779,-0.027404,-0.00482885,0.00541135,-0.0197714,0.0156676,0.0208816,0.0224698,0.00797332,-0.0148384,0.0187673,0.00180983,0.0124488,0.000106429,-0.00838315,0.0150946,-0.00291605,-0.00984902,0.00692076,-0.00472355,0.0110201,-0.00841947,-0.000278664,-0.0158705,0.036053,-0.0138802,0.0220656,-0.0135968,-0.000315374,0.00764967,-0.0104631,-0.0252508,0.0405309,0.00469297,-0.0226887,-0.0283697,0.00124805,-0.0060555,0.0226703,0.0228252,-0.00238694,0.0370181,-0.00873223,-0.0216875,-0.00919398,0.00821231,0.00141294,0.00943638,-0.0248235,-0.0417809,0.00798471,0.0134283,-0.00118264,-0.0135358,-0.0206924,0.000131949,-0.0130476,0.00710015,0.00400996,0.00809029,-0.0267827,0.0118521,0.0109248,-0.0187089,-0.00319441,0.0494163,0.0238303,0.0197682,0.0278884,0.0311299,0.000477617,0.00986253,0.0113763,0.0206425,0.0140214,-0.0321009,-0.0115582,-0.0118221,0.0384639,0.00790493,-0.00101027,0.0257605,0.00531401,-0.00775162,-0.008783,0.00345119,-0.0040958,0.0257466,0.0282923,0.00775905,-0.00336901,-0.0102211,-0.00396461,-0.0170611,0.00450414,0.0140462,-0.00659634,-0.0117001,0.0319892,0.00665737,-0.0122035,0.0183854,-0.0124115,0.042114,-0.0164206,0.00947398,-0.0301241,0.0292294,-0.0109227,0.00415212,-0.034198,0.0190654,-0.0277734,0.029748,0.0193835,0.00361004,-0.0216793,0.00611262,0.00221458,0.0014014,-0.000249196,0.0408562,-0.0161039,0.00694432,0.00259206,-0.0340111,-0.031596,-0.00624414,0.00256576,0.0177728,0.0117974,-0.0207312,-0.000683569,-0.00885132,-0.0271851,-0.0253276,0.0395153,-0.0160071,-0.0105234,-0.0407151,0.0029555,0.00518779,0.0417331,-0.022231,0.000485004,-0.0344829,-0.0125378,-0.00102227,8.70225e-06,-0.00605423,0.015823,0.00204227,0.00423101,0.00449395,-0.0260817,-0.0173118,0.0326825,0.00188321,-0.0106178,0.00793921,-0.0102583,-0.00832686,-0.0346401,-0.0167432,-0.0532857,0.00353769,0.0126574,0.00801959,-0.00849608,-0.0138552,-0.0274024,-0.0130532,-0.00912002,0.00993524,-0.0129198,0.00378717,-0.00510585,0.00016313,0.012804,0.0152375,0.00532789,0.00137944,-0.000461722,-0.0228965,-0.0199853,0.00762124,-0.0160646,-0.0133093,0.0205656,0.0110836,0.00780903,0.018155,0.0248599,0.0151691,-0.00331693,0.00180134,-0.0059695,-0.0116389,0.0366971,-0.0178514,-0.0307427,-0.0198382,0.0147973,-0.00964543,0.0179251,0.0155746,0.0011444,-0.0047069,-0.0199844,0.0149148,-0.0276165,0.0283399,-0.0336158,0.0311935,0.00151127,0.0391519,-0.00841077,0.00742231,-0.00212479,0.00633296,-0.0233147,-0.0519583,0.0167962,0.018403,0.0161083,-0.0243798,-0.0452755,-0.00170079,-0.0201221,-0.00873429,0.0184683,0.0268262,-0.00804319,-0.025672,-0.0263636,-0.00497738,-0.0269095,0.00950779,0.0146368,-0.0167324,-0.0190439,0.000948328,0.0244962,0.012133,0.011102,0.00424626,0.0366453,0.0316607,0.0207336,-0.000263604,-0.013567,-0.017662,0.0145322,-0.0241487,0.0141621,-0.00101675,-0.00362439,-0.0488482,-0.00542836,0.015462,0.00139563,0.0288611,-0.0159256,-0.00878447,-0.00851977,0.0101066,-0.0232154,-0.0172234,0.0302152,-0.000913486,0.00106831,0.0147266,0.0255075,-0.00836247,-0.0170619,-0.0303417,0.0222026,-0.0230755,-0.0291099,0.00863174,-0.00741102,0.0295841,0.0441989,0.0225437,-0.0116771,0.0155668,-0.00975653,-0.0123135,0.0540228,0.0267946,0.0140966,-0.00388373,0.020888,0.00533158,-0.0369835,0.0234497,-0.0225859,-0.0308025,0.0162029,-0.0123819,-0.0175428,-0.00711654,0.00377094,0.0351237,-0.00217451,0.00292961,-0.015437,-0.000844331,0.00288636,0.00740196,0.00760581,0.0258416,0.0023586,