{"config":{"context_length":256,"hidden_size":64,"learning_rate":0.001,"num_layers":2,"vocab_size":50},"weights":[{"data":[0.00902361,-0.00706831,0.0148356,0.0155211,-0.00305843,0.0125904,0.00707028,-0.0151089,0.00914173,0.00914754,0.0127792,-0.00989522,0.00622128,-0.0131289,-0.00666513,0.0114211,0.0270884,0.000556318,-0.0150859,0.0063574,0.0518723,-0.0418502,0.00415539,-0.0202223,-0.0236647,-0.0183075,0.0262662,0.00962925,-0.0156501,-0.0127868,0.0303757,0.0164779,0.00384509,0.00265481,-0.0107913,0.0270217,0.00412661,-0.00274777,0.00562289,0.00894689,-0.00716899,0.0186639,-0.000562148,-0.0152132,-0.013122,-0.0160147,-0.0207335,0.0208438,0.0167403,0.0202836,-0.00162508,0.00248547,-0.00345029,0.0136642,-0.000775655,0.0203089,-0.0072056,-0.00872847,0.0331699,-0.0025193,0.0336004,0.00120798,-0.0160581,-0.0259027,-0.0154788,-0.0165677,-0.00391366,-0.0217295,0.00970082,-0.00189218,-0.0232495,0.00396941,-0.0184931,0.0091386,0.00383412,0.0199925,-0.00878956,-0.0198001,-0.00200016,-0.0303095,0.00586827,0.0117039,-0.0387469,-0.0423115,-0.0114679,-0.043264,0.000955481,-0.0100993,-0.0471971,0.00161087,-0.00241989,-0.0207423,0.000387275,0.00955563,0.0117099,0.00130789,-0.031342,0.0377337,-0.0135694,-0.0544112,0.0129349,0.0128313,-0.00517371,-0.0370433,0.0239757,0.0087626,-0.0265329,0.0142747,-0.0342871,-0.0127052,0.0382473,-0.0130724,0.0101759,0.00188088,0.0114204,-0.00942637,-0.00152074,0.0115083,-0.0149274,-0.0193252,0.000735803,-0.031908,0.00676095,0.0195498,-0.0110055,-0.0240637,0.00643897,0.0228669,-0.0117089,-0.0190278,-0.0209367,0.0141385,-0.016703,0.00201213,0.0303731,-0.0127951,-0.0280057,-0.0208422,0.00600719,-0.0173559,0.00386958,-0.0113386,0.0227907,-0.00300645,-0.00411364,-0.00930876,0.00565183,0.0107234,0.0135789,-0.004684,-0.0196801,-0.0247917,-0.00835217,0.00709176,-0.00177802,-0.0164245,0.00957249,-0.0231776,0.00545045,-0.0259791,0.0142983,-0.0507666,0.00811979,-0.016801,0.0034836,-0.00657957,0.014706,0.00664417,0.027799,0.0253402,0.0156103,0.0270068,-0.0178844,-0.0111178,-0.0277118,0.0157047,0.034124,0.0154582,0.00736183,-0.00733536,0.00458345,-0.047598,0.00347878,-0.0494395,-0.0367155,-0.00406647,-0.0272763,-0.0184654,0.0202736,0.0110351,0.00466275,0.0332547,-0.00396286,0.0116172,-0.00946845,0.011806,-0.0387618,0.00583986,0.0159052,0.000506983,-0.0161258,0.0184888,-0.0131794,0.031787,-0.000512602,-0.00364422,-0.0036057,-0.0298422,-0.0161954,0.0168573,0.00941165,0.00768908,0.0179084,0.00164559,0.00706679,0.0260989,0.00151865,0.0192193,0.0254602,0.00310865,0.000957597,0.0119031,-0.00303683,0.0218523,-0.0246876,-0.0161619,0.0467561,0.0158877,0.0107001,-0.0101449,0.0106929,0.00228401,0.0196928,0.0185154,0.0226016,-0.0104833,0.00296506,0.0351003,-0.00563765,-0.00672362,0.0367117,-0.00819368,0.0140488,-0.0231771,-0.00661714,-0.020359,-0.0289339,0.00834279,-0.0192687,-0.0296593,-0.00159046,0.00924125,-0.0262179,0.0296979,-0.0193539,-0.00646082,0.0112063,-0.00396698,-0.00810519,-0.0252358,-0.0213102,0.0222026,0.0173851,0.00321367,-0.0271175,0.00605239,0.00891259,0.066811,0.0395415,-0.0155391,-0.0133482,0.0123519,0.0186286,0.0111444,-0.0231901,0.0082455,-0.0052206,-0.0424343,-0.013821,-0.00186781,-0.0521329,0.0103124,0.00332753,0.00543737,0.0166432,-0.0228804,0.0578888,-0.0147269,-0.00655459,0.0182702,-0.0191403,0.0236231,-0.0123658,-0.00945353,0.0122004,0.00902593,0.00149256,-0.0109512,-0.00058774,-0.0268605,0.0202849,0.0339993,0.0144499,-0.00353679,-0.0157364,-0.0187175,-0.0541077,0.00785708,0.0212121,0.0146091,-0.000674285,-0.0200756,-0.0115356,0.0259083,-0.00228077,-0.0133066,0.0225105,-0.00156265,-0.00662145,0.0178021,0.00327443,-0.0235539,-0.0207238,0.00852405,0.0155181,0.00463455,0.012951,0.00165556,0.00862691,-0.00270641,0.0148405,0.0128441,-0.0253988,0.0333227,-0.0097068,0.019607,0.0340724,0.00180102,-0.00203149,-0.018985,-0.0168988,-0.036139,-0.0162192,0.0153331,-0.0488172,-0.00833816,-0.0424818,-0.00825268,-0.0267933,0.0270307,0.00541444,0.0180875,-0.0344406,0.0238678,-0.0425933,-0.00303169,-0.00827383,-0.0151405,0.00516906,-0.00956181,0.013814,0.0488322,-0.00118251,0.00254489,-0.00867439,-0.000159775,0.0381008,0.0308851,-0.0430192,0.0101804,-0.0227854,0.00681055,0.0073282,-0.0142554,-0.0117398,-0.0353454,0.00211197,0.00445032,0.00429658,-0.00794942,-0.0156353,0.0198633,0.00320087,0.00669165,0.00103625,-0.00279647,-0.0362994,-0.0100127,0.0112771,-0.0309826,-0.0337814,0.0187193,-0.0264984,-0.000802419,0.0298034,0.0171848,0.00239628,-0.0375423,0.0318183,0.0228829,0.0188193,0.00249441,0.0295519,0.0135445,-0.0318884,0.0151673,-0.0171214,-0.00684146,-0.0251948,-0.0161631,-0.0421344,0.0214806,-0.00463402,-0.0138866,0.0374863,0.0158885,-0.000645802,0.0317566,0.0222183,0.0169946,-0.0221984,-0.0209235,0.0174216,0.00606753,0.0202688,-0.0137801,0.0166159,0.00794161,-0.00270018,0.0238471,0.00588979,-0.0126193,0.0169316,-0.00453527,-0.0118453,0.0129116,-0.0349637,0.0220502,-0.00270321,-0.0185691,-0.0108318,-0.0176089,-0.00784083,-0.00188335,0.017603,0.0113636,0.0347521,0.000410028,-0.0257244,-0.0315354,-0.0088233,-0.0336963,-0.0292259,0.00214678,-0.0434916,0.00265855,-0.00312366,0.00256391,0.00539933,0.018769,-0.0299429,-0.0141687,0.0228179,0.0101664,0.00787716,-0.0110118,-0.0166304,-0.0188572,-0.0331755,-0.00327498,-0.00140274,-0.0190155,-0.00387388,-0.00993867,0.000736312,-0.046474,0.0341926,0.0117808,0.00242501,0.00319569,0.00176183,0.00178935,0.000204213,0.025241,-0.0337217,-0.00816266,0.0149344,0.00696513,-0.021647,0.0105029,-0.0361388,-0.00863024,0.00823674,0.0292914,0.0235758,0.00378655,-0.0168218,0.0199353,0.00753891,-0.02872,-0.0139514,0.0165517,-0.0169272,0.00944875,-0.00504275,0.0157272,0.0292558,0.0138583,0.00535233,0.0196746,-0.0257009,-0.000118261,-0.00545346,-0.0241411,0.0247961,0.0153921,-0.0366749,0.00971966,-0.0414197,0.0278549,-0.000386303,0.00743301,-0.01288,-0.0160149,-0.00720672,0.0375073,-0.0133814,0.00502106,0.00104724,-0.0028543,-0.00779624,0.00549988,-0.0259982,-0.0272789,0.00650091,-0.0405629,0.0396002,0.000981398,-0.012781,-0.0230867,0.0131112,0.0186941,0.00641028,-0.00425688,-0.0355652,0.00282534,0.00660191,-0.00208217,0.0122298,-0.0155413,-0.00731136,-0.0450062,-0.034499,-0.0281986,0.0489878,-0.0022793,-0.00300093,-0.0165922,0.0132732,-0.012254,-0.0238517,0.0132234,-0.00333598,-0.00861859,0.00323923,0.0194664,-0.0123021,0.0134716,-0.00642609,-0.0377492,-0.00220155,0.0360127,-0.000914394,-0.0315116,-0.0248076,-0.00136883,-0.00638163,0.0160902,0.00221231,0.0208587,0.00637453,-0.00692309,-0.0150728,0.0136045,0.000401927,-0.0383442,0.00129323,0.0136659,-0.00239687,-0.0215947,0.0247555,-0.00640959,0.00748013,-0.00876603,-0.0182951,-0.016315,0.0136946,-0.0384968,-0.0272717,0.0403401,0.000788309,-0.0353942,-0.0228611,0.000369423,0.00957663,0.00614018,0.0163861,0.000631629,0.0113987,0.014271,0.0184847,-0.00235564,0.000328635,-0.0373664,0.00580178,0.0287376,0.0455716,0.00886375,0.0155354,-0.00349317,-0.0114829,0.0418506,0.00578552,-0.0317586,0.0357903,0.0335121,0.0124204,-0.00493634,0.00689012,-0.0024278,4.82347e-06,-0.0183903,-0.00961817,0.0121736,-0.00628698,0.0151874,-0.0499254,-0.0132249,0.0267943,0.0337805,-0.054884,-0.0223059,0.00274755,0.0299132,-0.013267,0.0136644,-0.00746499,0.0137059,-0.00123911,-0.0436953,0.0105113,-0.00903695,0.0140801,-0.0128483,-9.72726e-06,-0.0143596,0.0127471,0.0159982,0.0131101,0.0273784,0.0039566,0.0186365,0.0112135,-0.00204221,-0.0137478,0.00947466,0.00799828,0.00691349,-0.0327978,0.0432396,0.00390838,-0.0277997,-0.0101364,0.013258,-0.0214696,0.000610486,0.000642601,-0.0073025,-0.00325745,0.0241921,-0.0163243,0.0166845,0.0240706,0.0303389,0.056371,-0.00612515,-0.0127545,-0.0270634,-0.0169588,-0.0152938,0.013891,0.0190672,-0.025027,-0.00133276,-0.0429227,-0.0102334,-0.0161878,0.0305682,-0.0574039,-0.00134774,0.00583651,0.00506072,0.0185646,0.00893159,0.030086,-0.0177435,-0.0127958,-0.00819032,-0.0286126,0.029847,-0.00665186,0.0084666,0.00712018,0.0115686,0.0032547,-0.0141092,0.000418191,-0.00624022,-0.0136898,-0.0429822,-0.0176019,0.00422406,-0.00622707,-0.00058295,-0.0255167,0.0191934,0.0383091,0.0314144,-0.00198688,0.00292523,-0.00756392,0.0266733,0.00931178,-0.021514,0.0265192,0.00225104,0.00729169,-0.00278801,-0.0114253,-0.0636184,0.0270424,0.00665787,-0.0498768,0.0394439,0.000663445,0.00165796,0.0118933,0.00908226,0.0323542,-0.00592504,-0.00132398,-0.0245869,0.0511306,0.0180072,-0.000928486,-0.0036575,5.21861e-05,-0.0370642,-0.0083574,0.0322019,0.0112569,-0.0105858,0.0409136,-0.00556879,0.00301361,-0.0137878,0.0230586,-0.0247388,-0.029532,0.0204038,0.0237624,0.0189185,0.00379566,-0.0126067,-0.0249591,-0.0182879,0.0366836,0.00196475,0.0102638,-0.0150596,0.0211756,-0.0306747,0.0105936,0.0356013,0.00499874,-0.0196366,-0.0263493,-0.0232341,-0.0163636,0.015051,-0.0157812,-0.019332,0.0268477,0.0217324,0.00414911,0.0213655,0.00971171,-0.0120276,-0.00157908,0.0122066,-0.00599672,-0.0117864,-0.000980941,0.00106956,0.0292947,-0.00275628,0.0102406,-0.0340634,-0.00620691,-0.0267259,-0.00682843,-0.0163824,0.0060704,-0.0120062,-0.0216515,0.00942617,-0.0204913,0.00441899,-0.0212425,-0.00196474,0.0295892,0.00457693,-0.00520092,0.0164469,-0.0239033,0.00389957,0.0164069,-0.0134461,-0.0257496,0.0171628,0.00448348,-0.0299471,0.039155,-0.0196838,0.0196857,-0.028415,-0.0129594,-0.0183804,0.00868725,-0.00997687,-0.000138289,-0.0124692,-0.00500464,-0.0124131,0.010031,0.00343939,0.0472906,-0.00205132,-0.0229664,-0.0236304,0.0271116,0.0301253,0.0215127,0.00330499,0.00730828,0.0143318,0.00386036,0.00329927,-0.0139682,0.0102091,-0.000584409,0.0265715,-0.00348762,-0.01739,-0.0102151,0.00468287,-0.0113543,-0.0123739,-0.000550129,0.00465621,-0.0217809,0.0227735,-0.0158417,-0.0414133,-0.0059069,-0.0140239,-0.0139326,0.0482378,-0.0141855,-0.000274703,-0.0183226,-0.00313491,-0.01717,-0.0177146,-0.0273784,-0.0110341,0.0133411,-0.00192784,-0.0399394,-0.00304041,-0.0097256,-0.0214047,-0.0033742,0.0189377,-0.0147861,0.0192599,0.019155,0.0063892,-0.00813809,0.0120831,0.00334508,-0.0173178,-0.0463036,0.015607,0.00473154,-0.00476106,-0.0277366,-0.00829403,-0.0272582,-0.00283898,0.014355,0.00582282,-0.0168738,0.00351372,-0.0102233,-0.00970568,0.0216368,0.00183128,-0.0221857,0.00435821,0.0310101,0.038715,0.0140118,0.0109152,2.76788e-05,-0.0100814,-0.0202638,-0.01707,-0.00841063,-0.00774482,-0.0102675,-0.021927,0.00630469,-0.016566,0.0064839,-0.0451729,-0.0359363,0.0253144,-0.0315347,-0.0286759,-0.00304686,-0.0369536,0.0372026,-0.0393797,-0.0159733,0.0238297,0.0130314,-0.0263679,0.00859635,-0.024027,-0.0220094,0.00948328,-0.00418745,-0.0073221,-0.0175649,-0.0584737,0.00930357,0.00914952,-0.0121448,-0.0255704,0.0164465,0.00406384,-0.0244157,0.00419215,-0.0031961,-0.0311068,-0.0256343,0.0192339,-0.0268648,0.0309298,0.00692741,0.0154316,-0.0269349,-0.0218217,0.00823577,0.00418466,-0.0023807,0.0188261,0.0275252,-0.00905851,0.0010356,-0.0203046,-0.00194995,0.0117138,0.000646998,0.00733716,0.0140048,-0.0109353,0.00577702,0.000716436,0.0161117,-0.0111994,0.0331755,-0.0057077,-0.02867,-0.00178577,-0.00467944,0.00552984,-0.0140193,0.0216654,0.015594,-0.0342128,0.00992026,0.0255549,-0.013982,-0.0289116,0.0299067,0.00802888,0.0152143,-0.00589183,0.0234451,0.0256708,0.0408098,-0.00424324,0.0448022,-0.0169097,0.0148251,-0.0217192,-0.0169434,-0.0313821,-0.0226104,-0.0186988,-0.00763574,0.0175807,0.000173941,0.00319373,-0.0173575,-0.0300263,-0.0107368,0.0186678,-0.00130545,0.0523311,-0.0172363,0.0219501,0.0285563,0.0165968,0.00206262,0.0263629,0.016367,0.00179586,-0.0391552,-0.0147248,0.0104119,-0.0131087,0.00310196,-0.00607058,-0.00235442,0.00278567,0.00217575,-0.0343939,0.0220845,0.00936753,0.0040104,-0.00908229,0.0205202,0.00522623,0.0234778,-0.0170696,-0.0180346,-0.0276012,-0.0465356,0.00592567,0.0308633,0.0247097,-0.00228519,-0.0436972,0.0211645,0.0222322,0.0217193,0.0113864,0.0166809,0.0113955,-0.0190844,0.00126971,0.014952,-0.00338818,-0.0119645,0.0612642,-0.0167223,-0.00555062,-0.0174302,-0.0412585,0.021864,-0.000694302,-0.022114,0.00888253,-0.000879848,-0.00420094,-0.00832656,0.0128557,-0.0435528,-0.0227906,-0.0291106,-0.00548395,0.0331885,0.00103146,-0.00455481,-0.0191547,-0.0026901,0.0308389,0.0240438,0.00807123,-0.0217965,0.00334536,0.00951629,0.0058829,0.0330348,0.00940269,0.00793766,0.0402527,0.0239262,-0.000414565,-0.00868072,-0.01421,-0.008642,-0.0325419,-0.00883407,-0.0193566,-0.0339367,-0.0193679,-0.0102034,0.0255974,-0.0157557,0.0188275,0.00471019,-0.0113254,-0.00669634,-0.00595845,0.0135484,0.00709119,-0.0203458,0.027438,-0.0163777,-0.00846211,-0.0208687,-0.0155884,0.0361049,-0.0225315,0.0186953,-0.000737809,0.00312867,0.0201176,-0.000894058,0.0328368,-0.0148316,0.0241511,0.00277051,-0.00220519,0.0224695,-0.00438001,0.0332348,0.0128516,-0.0192621,0.000115702,0.00432709,0.00387889,0.0133646,-0.00650582,-0.00900412,0.0266946,-0.00324715,0.0270528,-0.00256287,0.000380263,0.00188066,-0.00761751,0.000968263,-0.0347445,-0.016719,-0.0138179,0.0102112,0.0193998,0.0291015,0.00426179,-0.018468,0.0143191,0.00296569,0.0120483,0.00492495,-0.0119384,0.0146202,-0.00777442,-0.00282186,-0.0124239,-0.0145781,-0.00990166,-0.00648563,-0.00159003,-0.00555067,0.0425086,0.00879755,-0.00863372,0.0115479,0.0378297,0.0145801,0.0232799,0.00616551,-0.00768722,0.0297912,-0.0396655,0.00467297,0.0134389,-0.00786974,-0.0480277,-0.00742731,0.00125879,-0.0173454,0.00663093,0.0261909,0.0123884,0.0201283,-0.00664459,-0.0119381,-0.00438198,-0.0108034,0.00441635,-0.0233259,-0.0129593,-0.0266841,-0.0212297,0.00841971,0.00599379,0.0144699,0.0151322,0.0280544,0.009081,0.023366,-0.0454398,-0.0245127,-0.00461166,0.0107247,0.0249979,-0.0194527,0.0364669,-0.016587,-0.0287548,-0.00506446,-0.0220835,-0.0487024,-0.000494886,0.0237272,0.0313645,0.000152176,0.0073711,-0.0462419,-0.0213287,-0.010088,0.0311092,-0.00145258,-0.0149995,0.0141171,0.000812913,0.0191989,0.0376517,-0.0131192,-0.0218566,0.030246,-0.0310451,-0.0316352,0.00902265,0.0290398,0.000358031,0.013801,-0.00101428,0.0372586,0.0156412,0.000652978,0.00496619,0.0263436,0.016888,-0.0166541,-0.0130775,0.00239719,-0.0225166,0.0284716,0.00469113,0.0383603,0.00111056,0.0167504,-0.0310046,-0.0132631,-0.0518173,0.030386,-0.0176087,0.0160819,0.0179775,-0.0119376,-0.0170233,-0.0526175,0.0250371,-0.0259397,0.0154026,-0.010324,0.0373742,-0.0105959,-0.0362409,-0.0378407,-0.0146101,0.0034729,0.0427684,0.0191157,0.000389552,-0.0277033,-0.00815799,0.0252909,-0.011544,0.0141452,-0.0330037,0.0355774,0.0102225,0.000706355,-0.0189318,0.0288928,0.0110903,-0.010421,-0.0154209,-0.00960506,-0.0125672,-0.0190241,-0.0139637,0.0109794,-0.0388884,-0.00103404,-0.0132804,-0.0058387,0.00676963,-0.0129196,-0.0187378,-0.0157517,0.0209554,0.00568271,0.0416113,0.036849,0.0096399,-0.0102841,-0.0253968,-0.00935277,0.0302761,-0.00408909,0.0124854,0.0279092,-0.00709401,-0.0194339,0.00867486,-0.0428701,0.0385594,5.18767e-05,-0.00467715,-0.0172621,-0.0248872,0.0219011,-0.0291488,0.0198404,-0.0186898,-0.0289072,0.0306296,-0.0290034,0.00357074,0.0593931,0.0146977,-0.00362986,-0.00916564,0.0136626,-0.000536445,-0.0165796,0.00937214,-0.0220926,-0.0104226,0.00884306,0.020553,0.0165931,-0.000668339,0.0156357,-0.0163415,0.0199783,-0.0369635,0.00821851,-0.000746868,0.0188627,-0.0191745,0.0304361,0.00924431,0.0117126,0.0331248,0.013153,-0.0354309,0.00728472,0.0156097,0.00040051,0.027427,-0.0144476,-0.0178614,0.00659072,0.0416685,0.00272296,0.0260613,0.00960412,0.0113354,0.0193701,-0.0246754,0.0030655,0.0208515,0.0374537,0.00433974,-0.0113313,-0.00444464,-0.0318782,-0.00583776,-0.0182626,-0.00654547,-0.035582,0.0263994,-0.0118329,0.000231695,-0.0299686,0.00717467,0.0202109,0.0127544,0.0286745,-0.0216647,-0.00791675,-0.0269723,-0.0142413,0.0113176,0.00507329,0.0197077,0.00321455,0.00010021,0.00958143,-0.00810052,0.0192391,0.00952563,0.0024475,0.00582615,-0.00989638,0.00545115,-0.0162031,-0.00164052,0.0150392,0.01031,0.00598138,0.00399853,-0.00552,0.0242745,5.55034e-06,-0.0331554,0.0224714,-0.0299533,0.0229174,0.00046595,0.0212615,0.0188004,-0.00334591,-0.0137111,-0.0200459,0.00596729,0.0114934,0.00753214,0.040294,0.00308004,-0.0241842,0.0147178,-0.0102994,0.0160429,0.0112503,0.011683,0.00109215,0.000839606,-0.00997195,-0.0336242,-0.0025445,-0.0377717,-0.0172933,0.0119317,-0.00327427,-0.000524411,0.0143036,0.0020972,0.0305293,0.0232088,-0.000485768,0.0149865,-0.0160989,0.0167376,-0.00672908,-0.0286023,-0.0283043,-0.0241625,0.0218363,0.0146099,0.0114621,0.0360712,0.0111514,0.0371864,-0.0163278,0.0169159,-0.0263628,0.0431633,-0.0319609,-0.00513104,0.0153575,-0.0349798,-0.0319348,0.00274359,-0.00628879,-0.000457371,0.0179394,-0.00447739,-0.0515855,-0.0239904,-0.0281302,-3.23351e-05,-0.0211659,0.012856,-0.00716468,0.0367296,-0.0165545,-0.00311242,-0.010087,0.0217053,0.0371797,0.0251123,-0.00392522,-0.000983342,-0.000611264,0.0200427,-0.0269613,-0.0154206,-0.0104163,0.0105783,0.0414689,0.0156772,-0.0275197,-0.00504941,-0.0127854,-0.0313594,-0.000540094,0.018028,0.0155168,0.0350873,-0.000340096,-0.00801358,-0.0165633,-0.0010193,-0.0200585,0.00991267,-0.0107517,0.00097684,-0.00778224,-0.0238107,0.0251029,-0.0179025,0.0309552,0.00715657,-0.0290044,-0.0298379,0.00723308,-0.0079291,-0.0138177,0.00670525,0.00208853,0.0177378,0.0150675,0.0525444,0.0174486,0.0205903,-0.0115598,0.00529352,0.00573088,0.00414359,0.00739127,-0.00262028,-0.0156948,0.0105349,0.026963,0.0105316,0.0107488,0.00429144,-0.00275751,-0.00153766,0.0185658,-0.00645207,-0.00915616,-0.000667854,0.0372305,-0.0066735,0.0172374,0.00919513,-0.0121641,0.000660406,0.0220498,-0.0256227,0.0233199,-0.00898165,-0.000225,0.0107745,0.0035086,0.043503,0.0128883,-0.012499,0.00107184,-0.0388726,0.0182633,0.00789646,0.036877,-0.00148357,0.00296338,-0.00367716,0.00982892,-0.0546454,-0.0251005,-0.0303685,-0.00460216,0.0123308,0.0134787,0.0137666,-0.0343937,0.0266084,0.0200425,0.00448022,-0.0204093,0.00745203,-0.00412521,0.0218294,0.00104474,0.0160785,-0.00391271,-0.00220089,-0.00153883,-0.0116896,-0.00154002,-0.0228179,-0.00531491,-0.0262958,-0.00976038,0.00199151,0.0437288,-0.0211592,-0.00975655,-0.00208295,-0.0124609,-0.0214119,0.0135723,0.0052698,0.0079846,0.00452033,0.000333518,0.0202769,0.0213548,-0.0100006,0.011983,-0.0314542,-0.0209961,0.000717101,-0.00787963,0.0187057,0.00718863,0.00202175,-0.0387613,-0.00825443,0.00812737,0.021383,-0.00677105,0.0245551,0.0231968,-0.0230565,0.00918357,-0.0107026,-0.0413355,0.0157854,0.00585532,0.0104876,0.0241865,-0.021834,-0.00279296,0.0136535,-0.0412939,0.0307784,0.00296214,0.00899373,-0.00235343,-0.00779416,-0.00478493,-0.0105197,-0.000365111,-0.0248931,0.00112274,-0.00601106,0.0249528,0.0127724,0.00678542,-0.0172643,-0.00959009,0.0114719,-0.0182213,0.0127547,-0.00376023,-0.0364885,0.00334495,0.00188453,0.0100644,0.00293518,0.00532174,0.00595195,0.0260566,-0.00349131,0.0216223,0.0186955,0.00865178,-0.0124748,-0.0104946,0.0285621,-0.00543347,-0.0266132,0.0187618,0.0154585,-0.0258576,0.011215,-0.0263009,-0.00766391,-0.0100074,0.0101525,-0.0164808,0.0102581,-0.0196493,-0.0187523,0.0307392,-0.00731075,0.00715462,0.000287997,0.0076651,0.0157365,-0.0486254,-0.0166114,-0.00898471,0.0161259,-0.00866824,0.0162539,-0.0118659,0.0293657,0.0323499,0.0165182,-0.020651,0.0189979,0.0172413,-0.0165607,0.00223639,-2.82175e-05,0.000184548,-0.00420786,0.0125498,0.00997997,-0.0347315,-0.0213073,0.0277933,0.00991301,-0.0246606,-0.00438331,0.0195991,0.00212883,-0.018302,-0.00130995,0.00737779,-0.0126971,0.0180248,-0.0226345,-0.00994154,-0.00631899,-0.00624875,0.0047352,0.0117942,-0.00680892,-0.0155597,-0.0209014,0.0277321,0.00112777,-0.00662387,0.00309241,0.0351603,0.0436439,0.0195944,-0.0389031,0.00639691,0.0249531,0.0191805,0.00686773,-0.0264116,0.014486,-0.00255867,-0.0370364,-0.0352055,-0.00152857,-0.00515017,-0.0017326,0.0105718,0.0158176,-0.0188489,-0.03142,0.0346475,0.00738831,0.00601025,-0.0055774,0.0376087,0.00888005,0.00350039,-0.0249534,0.0159839,0.0057328,0.0123226,-0.00259455,0.00707112,-0.00324784,0.0338339,-0.0223709,-0.0279945,-0.0128873,0.00166047,-0.00497163,0.0310849,0.0119605,0.0129589,-0.0442742,-0.00601767,0.0195808,0.00421598,-0.00549315,0.00224118,-0.019566,-0.00101045,0.00795841,0.016641,0.0113794,-0.0305181,0.0118459,0.0482587,-0.000538778,0.00540435,0.0108006,-0.0170849,0.000602024,0.0117153,-0.0276349,0.00556764,0.0255434,-0.0190821,-0.00670401,0.0117094,0.015454,0.00753809,0.00749082,-0.0193327,-0.0510331,0.0234112,0.00398969,0.0294613,0.00810877,0.0120826,0.017336,-0.00725139,0.0242544,0.0283007,0.00544769,0.000457685,0.00795026,0.000102424,-0.00409554,0.0247355,-0.0015212,0.0136683,-0.0187214,0.00789631,0.00874571,0.0259359,-0.001912,-0.0558075,0.00392876,-0.010102,-0.00612576,-0.0135705,0.000698494,0.000297752,0.0228662,0.0263635,-0.010597,-0.0339144,-0.00513477,-0.0103884,0.00389278,0.0211873,0.00971844,-0.00445359,-0.0406071,0.00622495,-0.00718513,0.0221278,0.0127655,0.00440068,-0.00217142,0.0141113,0.011928,0.00973167,0.0222834,-0.0270273,0.00352062,-0.0106807,0.0171419,-0.0101272,0.0118307,-0.0116177,0.00192081,-0.00215481,-0.0231103,-0.0129493,-0.0109861,0.00611328,-0.0129414,-0.0298922,-0.0175612,-0.00842456,-0.0213259,-0.0232514,-0.0172462,0.00296683,-0.0119806,-0.00062917,0.0268623,-0.00839895,-0.00916575,0.0162798,0.00645078,-0.00312701,0.00418016,-0.00484946,-0.0261662,-0.0086049,-0.00416128,-0.00500676,-0.00340163,0.0260265,-0.00603616,0.000493235,-0.0204001,-0.0156602,0.012321,-0.0208036,0.0378785,0.0363299,0.0212699,-0.0211762,-0.00820493,0.00461116,-0.000544696,-0.0325317,0.0312325,-0.00874962,-0.0151124,0.0360437,-0.0101255,-0.0285251,0.0126019,0.0274399,-0.001189,-0.0257985,-0.00226277,-0.031339,0.00348729,-0.00101762,0.0214691,0.0429663,-0.00355572,-0.00138737,0.0367324,-0.0386494,0.016539,-0.0150958,0.00710335,0.00279232,0.0487719,0.0240353,-0.00116799,-0.0309563,-0.0386309,-0.0211724,0.0356743,0.0157725,-0.0183652,0.0319056,0.00868653,0.00838096,0.0376975,-0.0437852,0.0154453,0.0156074,-0.00423939,-0.0365219,-0.0135785,0.0251102,0.0227395,7.29084e-05,0.0147521,0.009661,0.00146545,-0.0314162,-0.0256957,-0.0236441,-0.00602261,-0.0230101,-0.0497035,-0.0098775,0.028047,0.00714404,0.0275255,-0.015676,-0.00717145,0.000927528,0.0247478,-0.00322736,-0.0418652,-0.028766,0.00373233,0.0135831,0.0361905,-0.00500385,-0.0118892,0.0352829,0.00494301,0.0129563,0.00323782,-0.00317085,-0.020189,-0.0359838,-0.0171739,-0.0295445,-0.0350911,0.0420109,0.0197352,-0.0237576,0.0213136,0.028022,0.0110269,-0.00319355,-0.0193259,-0.0159335,-0.0206342,-0.0355248,0.0172189,-0.0130405,-0.009103,0.0335802,-0.0138284,-0.00509291,-0.0124976,0.0112718,-0.000332544,0.0140209,0.00471267,-0.0129569,0.00377901,0.0272948,-0.0144141,0.00516512,-0.0258871,0.0141935,0.0119708,0.00129066,0.012763,0.00741547,-0.0260209,-0.0296081,0.0112083,-0.00609037,-0.0207206,0.0204535,0.0360893,-0.00702357,-0.019116,0.0225547,-0.0224519,0.03449,-0.0148692,0.00410818,0.010699,0.0126632,0.0178245,-0.00815363,0.0218021,-0.00743958,0.0293532,0.0219564,-0.0227964,-0.025106,0.0180165,-0.00599388,-0.0130932,0.00929991,-0.0194851,-0.000892231,0.0317687,-0.0297668,-0.00371603,-0.00815881,-0.0266609,-0.00621518,0.0221845,-7.91086e-05,0.0478465,-0.00740296,0.0381084,-0.0243083,-0.00751498,-0.0172872,-0.0010195,-0.0126679,-0.000216314,-0.0285569,0.00683983,0.00863024,0.00928524,-0.00317458,-0.0109891,-0.0195839,0.0236587,-0.0297173,0.00379084,0.022185,-0.00404909,0.0365071,-0.0487788,-0.0352268,0.00291656,0.00559555,0.0204679,0.00394839,-0.00503351,-0.0195111,-0.0231808,-0.0095809,0.0182439,0.0246334,-0.0255885,-0.0209536,-0.00827567,-0.0304137,0.00412834,-0.0295422,0.00669089,0.00411401,-0.0135693,0.0153379,-0.00172929,-0.00138221,0.0193719,-0.00119536,0.000412341,-0.0277243,-0.00108943,-0.0160975,0.00705734,0.00263026,0.00166597,0.00248678,-0.0268489,0.00513819,0.0108453,-0.0070262,0.00423289,0.0166179,-0.0194809,0.0031795,0.0220969,0.00793039,0.0443527,-0.00349121,0.0162847,0.0122828,0.0181121,0.015555,-0.0240013,-0.00199044,-0.0111473,0.035082,0.00188319,-0.0340089,0.0390479,0.0215613,-0.00552636,0.00782645,0.0371198,-0.0226961,-0.00807717,0.0298745,-0.019133,-0.0167838,0.0142739,0.0183979,-0.0242501,0.0118744,0.011138,-0.0052778,-0.0149488,-0.00491783,-0.00468139,0.024454,-0.00528525,-0.0202175,-0.0169734,-0.025497,-0.0267321,0.0415081,-0.0225697,-0.0156561,0.00608345,-0.00828813,0.0124975,0.017921,0.0294392,0.0302024,0.00858941,0.0234786,0.0310576,-0.0140805,0.0104189,-0.0481819,0.00888215,-0.00398546,-0.00167815,0.0175586,-0.00575068,0.00414539,-0.0140366,-0.026827,0.0101496,0.0165604,0.00714387,-0.0317291,0.0303455,-0.0284637,-0.0366779,0.012093,0.00304979,0.028518,0.0107088,-0.0413947,-0.0248138,0.00953532,-0.0245438,0.0191924,-0.0173703,0.0268147,0.0126366,-0.038487,-0.00604429,-0.0104751,0.0203703,-0.00753045,0.0191602,-0.0194103,0.000822803,0.00791718,0.0283689,-0.040505,-0.0199086,0.00354923,-0.0279766,-0.0284822,0.0358311,0.0179504,-0.00215026,-0.0401366,0.0293285,-0.0313584,0.0219993,0.0316819,0.0208339,0.0186369,0.0306445,0.00785766,-0.0496314,0.0390826,-0.0248705,-0.0343314,0.0379422,0.00820015,0.00920844,0.011522,-0.0145373,0.00530711,0.0221824,0.0120719,0.016935,0.0048345,-0.029998,-0.00160805,0.0258119,-0.0149912,0.024249,-0.0159891,-0.0116778,-0.00496061,-0.00844328,-0.0196416,0.0612305,-0.0101785,0.040909,-0.0203308,0.0142909,-0.0177942,-0.000166427,0.00230419,-0.0144452,-0.00102118,-0.00213394,0.00100074,0.0306171,0.00076344,0.0142228,-0.0115631,0.00762111,-0.00735153,-0.0175994,-0.0114702,-0.0166966,0.0259107,-0.0278239,-0.00193209,-0.0195428,0.0146131,-0.00935619,-0.0217397,0.0119127,0.0236686,0.000342164,0.010511,-0.0431236,-0.00122791,0.0454116,0.0042522,-0.00186755,0.0124469,-0.0195028,0.00867551,0.0245703,-0.0342944,0.00739648,-0.0237574,0.0328587,-0.00461643,0.018495,-0.000891728,0.00981475,-0.0125833,-0.00174979,-0.0117965,0.00189883,0.00235365,0.0217409,-0.0188643,0.00316641,0.00405496,0.0024846,0.0049471,0.0190451,-0.00417205,0.0188473,0.00250119,-0.016742,-0.0157581,0.011205,-0.00248591,-0.00871693,-0.0175136,0.0082573,0.0170115,-0.0179235,-0.0304251,0.0349219,-0.0128971,-0.00610018,0.0223998,-0.0730208,-0.00136119,0.0030351,0.0303213,-0.00543979,-0.00515234,-0.0266386,-0.0222487,0.0274035,0.0143668,0.00294849,-0.0285404,-0.0167131,0.0118321,0.0225877,0.011836,0.0080647,0.0190876,0.0126835,-0.00501574,-0.0477231,0.00938392,0.0375739,0.00810441,0.00337726,0.0282225,0.0119691,-0.0227051,0.0147901,0.0131766,-0.0053573,0.016681,-0.0110891,-0.00846057,0.0069744,0.0212665,-0.0395196,-0.00563053,-0.00251881,-0.00902981,-0.00998927,-0.015781,-0.0466451,-0.0155662,-0.0116657,-0.0410222,0.00800737,-0.00592857,-0.000604058,-0.00207611,-0.0147161,0.0195515,-0.0200063,0.00390525,-0.0220284,0.0274559,-0.0262815,0.031771,0.0164052,0.00798061,-0.0274489,-0.0133978,-0.00195413,-0.0318585,0.00647607,0.00640231,-4.92743e-05,0.0178231,0.0118302,-0.00537208,0.0183902,-0.0185956,-0.00944096,0.00397786,0.017707,-0.017093,0.00325373,0.0305815,0.0065401,0.00687643,0.000664842,-0.000817641,0.00347187,-0.0155454,0.00681219,-0.00796586,0.00158142,-0.0149466,-0.00588574,-0.0289852,-0.0059974,0.0200904,0.00945482,-0.0189503,0.0238693,-0.00773709,-0.0165524,0.0122861,-0.030248,0.0127772,-0.0513088,0.0190541,-0.000567382,0.0341006,-0.0142385,0.0102507,-0.0181984,-0.0106041,-0.00265107,0.0104689,0.0363715,0.00386366,-0.00646121,-0.0138478,0.0232048,0.0127748,0.017555,-0.0118852,0.0175347,0.00947121,-0.0195797,-0.0167644,-0.00290141,0.0235602,0.00836103,0.0088366,-0.0160805,0.0091453,-0.0138121,0.0165381,-0.0290084,0.0439692,-0.016743,0.0115939,0.00472855,-0.032829,0.0323365,-0.0445015,0.0260615,-0.0250712,0.0122378,-0.0307747,0.0314054,-0.00135576,-0.00622828,-0.00554756,-0.0100365,-0.0183572,-0.00162952,-0.00103676,-0.0327871,-0.0101012,0.00895393,0.0159373,-0.0299574,0.00986558,0.0149136,-0.0178389,-0.00236764,-0.00248255,0.00699108,-0.000439134,-0.0362324,-0.020235,0.0245811,-0.0106851,0.0113445,0.00206159,0.0118958,-0.0160493,-0.00584896,0.00771529,-0.00416154,-0.0040195,0.0373774,0.00226542,-0.0100469,0.023614,0.0346867,0.03038,0.0513527,0.00803399,0.0184885,0.0101791,0.000516622,0.00665502,-0.0492571,-0.0107617,-0.00559746,0.00298213,0.0404897,0.0327595,0.00546759,-0.0261162,-0.00860719,-0.0235381,-0.000666126,0.0137159,-0.00824288,0.0131036,-0.0138313,0.00233461,0.00504849,0.00377331,0.0321262,-0.0185113,-0.0153727,-0.00236489,-0.0111851,0.00649755,0.01282,-0.0272629,-0.0257261,0.00684356,0.00197421,0.00791633,-0.000617853,-0.00567599,-0.00188792,-0.00512992,-0.0201761,0.00129184,0.0233265,-0.00440426,0.0391948,0.00578152,0.00507877,-0.00963698,0.00935573,-0.00244256,-0.0288666,-0.00478226,0.000341401,-0.0266498,-0.0161104,0.035675,-0.0165017,-0.0371164,0.0139465,0.0307484,-0.0120783,0.00814061,0.0350865,-0.000270684,-0.0117651,0.0116328,-0.00588472,-0.0101448,0.0036488,-0.000394581,0.0217708,-0.00956509,0.02067,-0.0112509,0.00963176,0.00991053,0.00176291,0.00876024,-0.0101834,-0.00540473,-0.0175319,0.0285743,-0.00598958,-0.0319196,-0.00867645,-0.0044427,0.0162998,0.036237,-0.000909459,0.00374385,0.0169186,0.00167334,0.0402137,0.0104797,0.025618,0.00484084,-0.0320463,0.0530506,0.0048431,0.00855654,-0.0337741,0.0132617,0.00493708,0.015045,0.0286381,0.0089395,-0.0168065,0.0203435,0.00075184,-0.0224809,-0.000916779,-0.00912864,0.00389971,0.010025,0.022441,0.0203229,-0.00538722,-0.00144534,-0.0077803,0.00674478,0.0252639,0.00861369,0.000416087,0.014529,0.017533,-0.0133228,-0.00635227,0.0234638,0.0484853,0.00233765,-0.0083328,-0.0156048,-0.0104662,0.00178405,-0.0124155,-0.00371414,-0.0504218,-0.0287457,-0.0259121,-0.0111458,0.0187454,0.0316654,-0.00506026,-0.00441731,0.00792711,-0.002294,0.017822,0.0318815,-0.02649,-0.00690857,-0.0167696,0.00744622,0.0202287,-0.0175081,0.0163275,0.000241551,0.0104941,-0.0214293,0.00515241,-0.0158534,-0.0228109,-0.0245876,-0.0175566,0.00740959,-0.0127051,-0.019478,-0.00597703,0.00638887,0.0269368,0.0114566,0.0180072,0.0113472,0.00775,-0.0132901,0.0145098,-0.054932,-0.0103895,0.0103901,0.0225776,-0.00602091,-0.0370689,-0.00779106,0.0106811,-0.022458,-0.0014326,0.0105066,0.0058621,-0.0067386,0.0157406,0.0225198,0.00988576,0.00493686,0.0211971,-0.0279796,-0.0280425,-0.019633,0.00651788,0.0182787,0.0305897,-0.0160061,-0.0317327,0.00524373,-0.00165201,0.0130099,0.0205477,-0.00399982,-0.00886743,-0.0129972,-0.00110325,0.0268973,0.0330258,-0.0257572,-0.0134214,0.0156105,0.00456333,0.0124947,-0.0321043,0.019114,-0.0234187,0.0278324,0.030897,-0.0266135,-0.020368,-0.00190456,0.0290711,-0.00805351,-0.0230293,-0.0100779,0.00029102,0.0189554,0.0184326,-0.0263178,-0.0196272,0.0120977,0.0319305,-0.00453636,-0.00334689,0.0304531,0.0220112,0.00497798,-0.0195125,-0.00928211,-0.00571853,0.00504748,0.00514281,0.00582274,-0.010157,-0.0051271,-0.00989698,-0.00171564,0.00607192,-0.0200166,0.018187,0.0258943,-0.00676583,-0.0160943,-0.0216922,0.0237676,-0.00301353,0.00930745,-0.0188563,0.00898481,-0.00929784,-0.019232,-0.024713,0.00912138,-0.00466269,0.029301,0.0146874,-0.024691,0.00991363,-0.01013,0.00281948,0.015177,-0.0181519,-0.00977506,-0.009866,-0.0532352,-0.0206612,-0.0126036,0.00892704,0.0157905,-0.00312951,-0.000552716,0.0326895,-0.0277402,-0.0184626,-0.0282836,0.00992853,0.0138686,-0.0206654,0.0141005,-0.0177493,0.0251386,-0.0154439,0.0115358,-0.0135235,0.015809,0.000392771,-0.0253572,0.0179125,0.0130497,-0.0198599,-0.0102073,0.00229974,0.00108077,-0.0276799,-0.00815525,0.0182461,-0.0169653,0.0246219,-0.00446143,0.00243158,-0.00618333,-0.010304,-0.0253001,-0.0252378,-0.0271282,0.00619425,-0.00595918,-0.000753586,-0.019581,-0.0157982,-0.00489844,-0.0189922,-0.0247045,-0.0155863,-0.0013979,-0.0289928,0.00540856,-0.000256331,-0.0435529,-0.0155447,0.0051246,-0.00240341,0.00848484,0.00264969,-0.0177125,0.013389,0.0114345,-0.00691602,0.0134359,-0.0162526,0.0146102,-0.0247313,-0.00449773,-0.0121007,0.008437,-0.00105912,-0.0142976,-0.00173665,0.0347402,-0.0153795,0.0110603,-0.00862318,0.0113742,-0.0172869,0.00611961,-0.016122,0.0052024,-0.0145509,0.0133529,-0.00362307,0.0280134,-0.00936552,0.0147843,0.0120595,0.0410011,-0.0156544,0.0136331,0.0168272,0.0341045,0.00784742,-0.0278179,-0.0190738,0.0147147,0.021291,-0.0406435,0.000297236,0.0156625,0.010089,-0.00703913,-0.00451337,0.0101753,0.012257,0.021749,-0.00672673,0.00439544,-0.00679986,0.00970601,0.0529703,0.00305806,-0.0402488,-0.0468243,-0.000141855,-0.00489801,-0.008842,-0.00938002,-0.0152588,-0.0140398,0.0416723,0.0147734,0.0231437,0.000197117,-0.0140135,0.0336698,0.0319542,-0.020746,0.0116004,-0.0357131,0.0167563,0.00123092,-0.00159418,0.00292351,-0.00308537,0.0179323,-0.0332089,-0.015837,-0.000157576,-0.016157,-0.0203924,-0.0381376,0.0321735,-0.0154055,0.0343426,-0.0175942,0.0159081,0.0142137,-0.0119399,-0.00128449,0.0144009,0.00833331,-0.0220956,0.0199578,0.0116523,0.0351482,0.0262614,0.021169,0.0211882,-0.0226977,-0.0210192,-0.0241948,-0.0172038,-0.00312684,-0.00123228,-0.00995484,0.02144,0.00359906,-0.0290403,-0.00502453,0.00725262,0.00624606,-0.0170145,0.0150178,-0.0200676,-0.00867622,-0.00837771,0.00428718,0.0314392,0.0402857,-0.00521252,0.0175961,-0.00511074,0.00696018,-0.0114166,0.0123375,0.0233729,0.00347392,-0.0025254,-0.0145135,-0.0182598,0.049145,0.0312792,-0.0314449,-0.011632,0.000452841,-0.0114552,0.012654,0.016514,-0.00758305,0.00424936,-0.033736,-0.0257196,-0.0444539,0.0117582,0.0265982,0.00037899,0.00989999,0.0026139,-0.00233177,0.0054194,0.0152244,0.0040601,0.000974862,-0.0414562,-0.046672,-0.0365488,0.00766758,-0.0156732,-0.0368504,0.0307639,0.0217784,0.0381989,0.0390653,-0.0481102,0.00642401,-0.0167691,-0.00653911,-0.0168504,0.0350488,-0.000874669,-0.0200511,0.00244453,-0.0241245,-0.0228538,0.00342226,-0.0365597,-0.0218092,-0.0130104,-0.0383605,-0.0164937,-0.0102888,0.0300129,-0.00979231,-0.0394784,-0.0140951,-0.0148703,0.00385743,0.0135855,0.0122035,0.0181295,-0.0225405,-0.0147051,0.0100794,0.00668086,-0.0270779,-0.00692937,-0.0214032,0.0302734,0.0298482,0.00518288,-0.00535377,-0.00119864,-0.0284696,0.019898,0.0016733,0.00592633,0.0281487,0.0219363,-0.0192282,0.0128951,-0.00870843,0.0135816,0.0172657,0.0513134,0.0171424,-0.0364114,0.0173315,-0.00639135,0.0112542,0.00759592,0.0216163,-0.00128884,-0.0350221,0.0160122,0.0200871,-0.0298838,-0.0398224,0.00337738,0.0363545,-0.0121038,-0.0157772,-0.006733,-0.0241232,-0.0191275,-0.00609033,0.0376704,0.0114217,-0.00457621,0.000996497,0.00972749,-0.00885643,-0.0107633,0.0167959,-0.0205637,-0.0139901,-0.0342825,-0.00396361,-0.00111464,0.00507703,-0.00612599,0.0187581,-0.0155457,0.0179752,-0.00238184,0.0081691,0.000103998,-0.0388317,-0.0119617,-0.0114502,-0.0100601,0.00642118,-0.0006274,0.0105781,-0.0155228,0.028336,0.0257468,-0.00387934,0.0193585,-0.0324182,0.00101695,0.0309384,0.0243079,0.0313508,0.00959711,0.00166189,0.0170236,-0.0114412,-0.0140416,0.0154454,0.00129147,0.0333907,0.0215625,0.00416028,-0.00523425,0.00117031,-0.0173677,0.00985523,-7.53508e-05,0.0199057,-0.0272921,-0.00309328,0.0261707,-0.0151662,0.0207428,0.0418056,0.0181231,0.0332131,0.000980948,0.00298965,0.00313455],"shape":[50,64]},{"data":[-0.0175519,-0.0275501,0.021588,0.0253733,0.0403113,0.00474495,-0.00314016,0.00206286,-0.00368891,-0.0174651,-0.0158976,0.0143979,-0.00542294,0.0117345,-0.00761665,0.00967213,-0.0060871,-0.028193,-0.0243504,-0.0136599,-0.0219016,-0.0165848,0.0566555,0.0162632,-0.000179913,-0.0327158,-0.0219582,0.00152285,-0.0180475,-0.0378234,0.0167261,-0.0140161,-0.00816147,0.0432083,-0.0288819,-0.0136558,-0.00145526,0.000252166,0.00656482,0.00275046,0.0144544,-0.0168366,-0.00849968,0.0185368,0.0213043,-0.0101152,-0.0142194,-0.0230558,0.027768,-0.0326014,0.0294705,-0.0201416,0.0249815,0.0394867,-0.023005,-0.0275125,0.00654316,-0.0381937,-0.0203307,0.0460374,-0.00599475,0.0141321,0.0193038,-0.0193674,0.0130732,0.0059085,-0.0103333,0.00360967,0.00736408,-0.0191402,-0.0293414,-0.0409898,0.00552988,-0.027484,-0.0440575,-0.00475946,0.0234529,-0.0311046,0.0183968,0.00276602,-0.00283565,-0.0069923,-0.0111225,0.0308565,0.031429,-0.044993,0.000897599,-0.0239061,0.0172808,-0.00125884,0.0115499,0.00907426,-0.0186171,0.0361828,0.00623891,0.0057131,-0.0043529,-0.0371886,0.0307882,0.0187058,-0.0208021,-0.0170359,0.00933748,0.0129448,0.0122793,-0.0142743,-0.0103705,-0.00991036,0.0170551,-0.0195684,0.00200706,-0.00170493,0.0126873,0.0103481,-0.0334534,0.037107,-0.00920267,-0.0191422,0.012606,0.0417448,-0.0255854,-0.0069649,-0.0194003,0.0273564,0.0200987,0.0205906,-0.00148236,-0.0159975,-0.0319642,-0.00919008,0.00648756,-0.0219327,0.00511642,0.00316045,0.0108192,0.0207462,0.00786471,0.0286347,0.0274131,0.0152363,-0.0151993,0.000109669,-0.00945403,-0.0196152,-0.00642252,0.0310394,0.0177652,-0.0176112,0.0153769,0.0276931,0.0175469,-0.000277944,-0.0175543,-0.0237815,-0.00868447,-0.0181402,-0.0240951,0.0196671,-0.0127545,0.00330572,-0.0112956,0.0347489,0.00419374,-0.00645486,-0.0093098,-0.0387689,-0.0150844,0.0082469,-0.0222826,0.000388122,-0.0415217,-0.00336498,-0.043702,-0.0381323,-0.0147905,0.00206151,-0.0187812,-0.0200982,0.0357259,0.0307259,-0.0105719,-0.0266397,-0.0165879,0.0640305,-0.0102113,-0.0230954,-0.00732622,-0.0341905,-0.00551123,-0.0345493,-0.0137461,0.00251849,0.033277,-0.000615426,0.00486518,-0.0254196,-0.00293987,-0.0173215,-0.0316792,-0.00978822,0.00955572,0.00194829,-0.0158553,-0.00547305,-0.0184577,0.0183602,-0.0106465,-0.0113606,0.0017394,0.0143251,-0.0387411,0.00870229,0.0316052,-0.00607995,0.0184517,-0.0139252,-0.0256513,-0.00589631,-0.0113564,-0.00468642,0.0021339,0.0192113,-0.0115061,-0.00909408,0.00116031,0.0254826,-0.000780028,0.0127991,0.0278043,0.00760855,0.0346236,0.0121665,-0.0181918,0.0176268,0.015994,-0.0443369,0.019769,0.00380438,-0.0157491,0.0074922,0.0168967,-0.00873688,-0.0109189,0.00929148,-0.0228531,0.00496071,-0.0217855,0.0152229,-0.000556351,-0.00350121,0.0133339,0.0201505,0.0149137,0.0332705,-0.00144748,-0.0129186,0.0121957,0.00582261,-0.0255849,0.0224254,0.0347294,0.00587502,0.00731112,0.019334,0.0164899,-0.0105914,0.0072585,0.00791683,0.0063818,0.0105898,0.01001,0.000838956,-0.00819758,0.0070271,-0.0151507,-0.00148232,-0.0135624,-0.00362179,-0.00199328,-0.0262058,-0.0233678,0.00172557,0.00888699,0.0136188,0.00343998,-0.0248746,-0.0108766,0.0402711,0.0144945,-0.0134403,0.0388226,-0.0360797,-0.0020424,-0.00627485,-0.0106613,-0.00356009,0.00207022,-0.0152594,-0.00154786,-0.014538,0.0196968,-0.00731512,0.0280058,0.0251377,0.00299606,-0.0224064,-0.0197387,0.0349204,-0.0187528,0.0137259,0.0377733,-0.0129221,0.000218604,-0.0267918,-0.0108581,-0.00561735,0.0102683,-0.0112476,0.0192742,0.00578207,-0.00511611,0.0176491,0.0145157,0.00815458,-0.0329157,-0.0323414,0.0474204,0.00243087,-0.022933,0.0243669,-0.00535978,0.0044823,-0.0122385,-0.00988725,0.0111447,-0.0254057,0.00575506,-0.00309761,-0.0099319,0.0198493,-0.00208849,-0.0168689,-0.00121378,-0.0547841,-0.00607213,0.0244529,0.0266913,0.00775614,0.0101155,0.0149859,0.02574,0.0186745,-0.0218554,0.000705526,-0.00820025,-0.00484877,-0.0158086,0.0101714,0.00234237,-0.0242881,0.0239635,0.0221121,0.0107717,0.0245483,0.00417187,0.0310527,0.0284994,0.0318218,0.0114258,-0.00611861,0.014165,0.0611765,-0.0211949,0.00209718,0.00840505,0.0252537,-0.0218374,0.0184618,-0.00246815,0.00442106,-0.00720577,0.0088563,0.0291548,-0.0211181,0.0252708,0.0128723,0.0101661,0.0173706,0.0038729,0.0103708,-0.00704351,-0.0156829,0.000541922,-0.0213167,0.029837,0.0259622,0.00561724,0.000988013,0.0114766,0.00424325,0.00841607,0.021054,0.00991193,0.0279177,0.00649584,0.00958861,-0.0121086,-0.0187071,0.0249402,-0.0122714,0.0086927,0.0243052,0.00323267,0.0280262,-0.00406077,-0.00294311,0.0244915,-0.0395325,-0.0109326,-0.00735394,0.0145791,0.0163433,0.000705303,-0.00111352,0.0444772,-0.0455142,-0.0364745,-0.0150249,0.0183208,-0.027891,0.0124534,-0.027456,-0.018724,-0.00574591,-0.00761592,0.00988642,-0.00103452,0.0224593,0.0176168,-0.036312,-0.0123676,0.0310224,0.046677,-0.00765836,0.0100494,0.0318442,0.0109659,-0.0225606,-0.00126178,0.0194091,0.00453327,-0.00242977,0.0107893,-0.0183602,0.00931582,0.00459111,-0.0366907,-0.0168923,0.00525224,-0.0116981,-0.0150713,0.044066,-0.0149794,-0.00666491,-0.0147961,-0.00933644,-0.0248711,-0.0397543,0.0129565,0.00786787,0.0128544,0.0112685,-0.0105482,-0.00739661,-0.046461,-0.020658,0.00345881,-0.0323483,0.0349221,-0.000961814,0.00691059,-9.85972e-05,0.0274886,0.000203565,0.000779837,0.00806429,-0.0112603,0.0111063,0.0102594,-0.0101898,-0.000279956,0.00343081,-0.00902017,-0.00331358,-0.00816721,0.00846016,0.00105248,0.0107575,0.00537772,-0.0193962,-0.0268234,-0.0172696,0.0148058,0.00130004,-0.0145291,0.0272474,0.00927407,0.0113759,0.000197725,0.00115827,-0.0258052,-0.0172868,-0.00197501,-0.0229732,0.00150138,-0.0324094,-0.0377148,0.0120442,-0.010759,-0.0423092,0.0165789,-0.00729672,-0.0232745,0.0237244,-0.00925606,0.0254355,-0.0320019,0.0222225,0.00959522,0.00969736,-0.0362018,-0.0160767,0.0141735,-0.00658352,0.0193366,-0.0278946,0.00918326,0.0123176,-0.00287437,-0.0115536,0.00875344,-0.00174185,0.0319528,-0.0423537,-0.0528138,0.0138546,0.00896193,0.0153391,-0.0100158,0.00886521,-0.0231654,0.000753223,0.0216669,-0.0186926,0.0321181,0.00800447,-0.0072295,-0.0347175,0.0160681,-0.0165113,-0.00632495,-0.0284024,0.0204731,0.00330674,-0.0223985,0.0373358,0.00885085,0.00265385,-0.00957642,-0.0119793,-0.00627893,0.0117312,-0.011889,0.00525042,0.00149953,-0.0103001,-0.00496249,-0.00625761,-0.0315119,0.0144571,-0.0152791,0.00133044,0.0242929,-0.0222298,0.0226102,-0.00121889,0.0384494,-0.0115373,0.0352117,0.00922743,-0.0195387,-0.00571428,0.0174405,0.0228766,-0.0146889,-0.0354453,0.0158982,0.0386875,-0.00711842,-0.0194544,-0.00811181,0.0169569,0.0310613,0.00217453,0.0295745,0.00524554,0.00467178,0.012031,-0.0181986,-0.00591144,0.0144341,0.0215038,-0.00602327,-0.0237503,0.0215518,-0.00850724,0.0160937,0.0343838,-0.0148368,0.00181674,0.0114679,0.015241,-0.0165767,0.00222846,0.00910555,-0.0100645,-0.0117457,-0.00276923,-0.0220227,0.0145979,0.0406925,0.0322257,-0.00629507,0.0546849,-0.000260282,-0.0050206,0.00324619,-0.0196248,-0.0656244,-0.0102397,-0.014572,0.0152863,0.036213,0.0135668,-0.00777802,-0.00315251,-0.00589166,0.0123036,0.00629708,-0.0105121,0.0199852,-0.0095511,-0.0154598,0.0046359,0.0195502,0.00629413,-0.00371454,0.0135215,0.00036662,-0.0269791,0.00226485,-0.0378545,-0.0114778,0.0198638,0.0282194,-0.00210776,0.00221993,-0.0169967,0.00801,0.0128517,-0.0296108,-0.0239255,-0.0109089,-0.00295966,-0.00346801,-0.0114781,-0.0393714,0.00342803,-0.0286229,-0.0139931,0.00474993,0.0094932,0.0116112,0.0284051,-0.014967,-0.0243789,0.0273966,0.0280315,-0.0185167,-0.00985648,-0.00135835,0.0270037,0.020053,-0.0215803,-0.00859167,-0.0278836,0.00272554,-0.0277928,-0.0154241,-0.029647,-0.00339042,0.00207365,0.0144695,-0.0152562,-0.02482,0.0354907,-0.00817115,0.00698119,0.0425962,-0.0125461,-0.00647595,-0.00157143,0.0150538,-0.0076831,0.0368882,0.0152038,0.00218048,0.00777101,0.0196255,0.00684208,-0.00162114,-0.00951841,-0.0260282,-0.0221568,-0.0175251,0.0145714,0.0115698,-0.00666698,0.0183285,-0.041934,-0.0152971,-0.0133543,-0.0114982,0.035666,0.00164984,0.0192151,-0.00687589,-0.00149405,-0.0135721,0.0545173,0.0237333,-0.0125191,0.0217011,-0.0300748,-0.0148098,0.00189396,0.0228896,0.000874476,0.0076765,-0.0163179,-0.0130411,-0.0102447,-0.000198165,0.0110968,-0.0323244,-0.00279406,0.001913,-0.00943259,0.00357702,0.00550951,-0.0329846,-0.006418,-0.0326714,-0.014163,-0.0239279,-0.0014692,0.0053529,0.00189501,-0.00032313,-0.0228066,-0.00908027,-0.000434836,-0.0117111,-0.0336349,0.0275878,0.0139197,-0.0134505,-0.0159747,0.00339513,0.036052,0.00106516,0.00227581,0.00799183,0.00779828,0.017831,-0.00233567,-0.00918824,0.0107926,-0.0120527,0.0530724,0.00999096,-0.0214991,0.0236616,0.00286247,-0.0233544,-0.0333989,0.00373557,-0.000391625,-0.00847642,-0.0342125,0.0173318,-0.000275566,0.0478168,-0.000301987,-0.00781548,-0.0226979,0.0194655,0.0327388,-0.019435,-0.0169919,-0.0188592,-0.0306732,-0.0148763,-0.000665757,-0.0092383,0.0152667,-0.0196279,-0.00733923,0.0139921,0.00661828,-0.00212131,-0.0331305,-0.0184745,-0.00184109,-0.00403751,-0.0175347,0.00561488,0.00201071,0.0122025,0.0207401,-0.0111282,0.00494992,-0.0346817,0.0144598,-0.00750983,0.0106421,-0.0284977,0.0352547,0.0370412,0.00643746,0.00881376,0.000668083,-0.0513513,-0.0031949,0.00112707,-0.00321191,0.00684582,-0.00716156,0.0335301,-0.0381711,0.000194582,0.00847517,0.000800653,0.0128673,0.00361607,-0.0173051,0.00328336,0.027908,0.0227291,-0.0345549,-0.0313256,0.00918145,-0.000393417,-0.0027196,0.0113556,0.0192017,-0.0336923,0.0102137,0.0243271,0.0305446,0.00347856,0.00370772,-0.00396051,0.0097255,-0.0342344,-0.0186185,0.0205231,0.0167276,-0.0145947,0.020931,-0.000211804,0.0100265,-0.0217044,0.0121524,0.00133343,0.0149152,-0.00866587,0.00358871,0.0243392,0.0197981,-0.0107966,0.0054331,0.0168112,0.00381355,-0.0274098,-0.0430798,0.0156686,0.0153679,-0.0186572,-0.0145801,0.00577272,-0.0071624,-0.016998,0.0120979,0.0120319,-0.01228,-0.052034,-0.00269925,-0.0235106,-0.0334651,0.0107099,-0.0120244,0.0483929,0.00641329,-0.0204218,0.0073844,-0.0128342,-0.024558,0.00529857,-0.00276774,-0.000931301,0.022383,-0.0143487,-0.00784006,-0.00662319,-0.0197772,-0.0190191,0.0317934,-0.00772796,-0.00554455,-0.0196317,0.0290523,-0.0128441,-0.00117347,0.028388,0.0110571,0.00275298,-0.00738593,0.0100303,0.0308574,-0.0274111,0.0158064,-0.0102913,-0.0194649,-0.0451065,0.0268088,0.00763575,-0.0153153,0.0137617,0.00210598,-0.038393,0.0134455,0.0157479,-0.0074328,-0.0163298,-0.00648661,-0.0207011,-0.0289189,-0.0100659,-0.00447466,-0.008945,0.0124043,0.0036076,-0.0273935,-0.0243707,0.00271695,0.0187193,0.0330237,0.00824782,-0.0139444,0.0192745,0.00928394,-0.0014614,-0.0113763,-0.0140057,-0.0142439,0.0460385,-0.0130445,0.0222326,0.00625587,-0.00222779,0.00464667,0.0200329,-0.0571498,0.0235452,0.00689738,0.00885411,0.0206018,-0.00958112,0.00292307,0.010146,-0.0213885,0.0291229,-0.0039376,-0.00531043,0.00609894,0.00143788,-0.00989363,0.0344923,-0.00728248,0.0210816,-0.00595372,-0.0203089,0.0152866,0.0139989,-0.00149903,-0.00239645,-0.00790855,-0.000214893,-0.0346967,0.00334603,0.0285622,-0.0119706,-0.0191188,-0.0126921,-0.00543188,-0.0149108,0.0179796,0.0296102,-0.0261381,0.000279344,-0.0359408,-0.0053679,-0.00638549,0.00347852,0.0199332,0.0222353,-0.0118474,-0.00871884,0.0399992,-0.000335129,0.0126244,0.00553599,-0.0215244,-0.0162481,0.00643664,-0.0447062,0.0321513,0.0264713,-0.00919378,-0.00118449,-0.0242128,0.0111663,0.0378386,-0.0022278,-0.00426647,0.0213785,0.00380967,0.0276728,-0.0106314,0.00110547,8.66993e-06,0.0194633,0.00509402,6.17405e-05,-0.0379214,-0.0162128,-0.0477855,-0.0159149,0.0548804,0.00828885,0.0327313,-0.000803837,0.0356082,0.00634112,0.0170214,-0.00667583,0.00402057,0.0107307,0.00551695,0.00662443,-0.0022719,-0.00751371,0.00746275,-0.0206274,0.0343613,0.00269132,0.01198,0.0140808,0.01216,0.0173886,0.00760482,-0.0374614,0.0119489,-0.0360107,-0.0158043,0.0009486,0.00677197,-0.0010691,0.0153238,0.00118483,0.0167243,0.0339777,0.00832524,0.0130109,-0.0149784,0.00274856,0.00286642,0.00880752,0.00171488,-0.0298404,-0.00955527,0.0201684,0.00758623,0.000425146,0.00699676,0.0157321,-0.0014776,0.0181396,-0.00220873,-0.000372007,-0.000291677,-0.0358167,0.0316836,-0.0123929,0.0104042,0.0258563,0.0283699,-0.0055781,-0.00542057,-0.0101708,0.0343241,0.015845,-0.00147783,-0.00976855,-0.0326347,-0.0214493,-0.0126277,-0.0192635,-0.0249382,-0.0229305,-0.0110701,-0.0167235,0.0320443,0.00275625,-0.0277837,0.00854847,0.014353,-0.0145599,-0.0111107,-0.0254171,0.00476399,0.0135787,-0.00719098,-0.0179321,-0.0115856,0.00683507,-0.0337345,-0.00388728,0.0364798,0.0137939,-0.0203024,0.0109021,0.0272186,0.0164168,-0.0248493,-0.0137597,0.00446459,-0.0139375,0.0377967,-0.0153726,0.044306,-0.0218734,0.0073793,-0.0160644,-0.0137343,-0.0383093,-0.00746218,0.00117527,0.0120374,-0.0197532,-0.0265478,-0.0071387,0.0123641,0.0528186,-0.025268,-0.0448675,-0.0302082,-0.0500886,0.0331709,0.0161859,-0.0212941,-0.00873665,-0.0444462,0.00259719,-0.00388349,-0.00067189,-4.21831e-05,0.0241136,-0.0182677,0.00957983,-0.00129582,-0.00388796,0.0171708,0.0180798,-0.0227258,0.0203891,-0.0515495,0.00435348,0.0159321,0.00714216,-0.0340934,-0.0211014,0.0536912,-0.00259381,0.00103682,0.0126708,-0.0126316,0.0135743,-0.0418414,-0.00809728,-0.0227869,0.00707645,0.0136589,0.016128,0.0477799,0.00893451,-0.0108121,-0.00395787,0.0329926,0.025198,0.0293286,0.0155,0.00856744,-0.00650503,0.013972,-0.0333131,-0.0117375,-0.0126685,0.0173736,0.0378101,0.0235358,-0.00523677,0.0038478,0.0147532,0.0239275,-0.0280682,0.0257077,0.00801266,-0.0410089,-0.00933584,0.0337405,-0.00653463,-0.00316891,-0.00110409,-0.0518275,0.00855554,-0.0107664,0.00359271,0.000976443,0.0137208,0.00414456,-0.0125787,0.0132309,0.0242856,-0.0207371,-0.002571,-0.00045987,-0.0293465,0.0111034,-0.0175425,-0.0429743,0.0179906,-0.000928791,0.00960087,-0.00896418,0.0187778,-0.000313595,0.0155249,-0.00950503,0.0478614,-0.0277304,0.0141984,-0.0237791,-0.000149118,-0.0246609,-0.0111532,0.0204413,-0.0158935,-0.00376413,0.00163566,0.0157578,0.0079847,0.00669164,0.00341806,0.049146,0.017554,0.00190079,0.00965494,-0.0183035,0.0366175,0.0289862,-0.0108607,-0.0124862,0.0168755,0.00713691,-0.0209788,-0.0228707,0.0210393,0.0110595,0.0313331,0.000343465,0.00597136,0.0146016,-0.0422405,-0.0316885,0.0065205,-0.0168707,0.00558426,0.023315,4.29972e-05,-0.00133273,-0.00924513,0.00206252,-0.00123214,-0.0237852,-0.0037702,0.000252163,0.0227701,-0.00243838,0.0131543,-0.00371137,-0.00859013,0.0148956,0.00993807,-0.036101,-0.0126929,-0.00916956,0.00787894,-0.0102626,-0.0252206,-0.0378228,0.00205632,-0.00767722,-0.03934,-0.0174967,-0.0125907,-0.0167243,0.0218099,-0.00263948,-0.0162232,0.0384131,0.024034,-0.0142922,-0.0101784,-0.0286584,0.00920813,0.0488386,-0.03896,-0.0175485,-0.00142736,-0.0157512,-0.00471677,-0.0235466,0.00473334,0.00961005,-0.02629,-0.0120455,0.00333956,-0.0130502,0.00198857,0.0207075,-0.0106349,0.0133917,0.0201948,0.00537134,0.0175763,0.0050285,0.0496901,-0.000509292,-0.000856682,-0.00750804,-0.0309744,0.00437318,0.0048945,0.0318435,-0.00517443,0.0323682,0.00394863,0.0205793,-0.00490278,-0.0154946,0.0104941,0.00489031,-0.0206604,0.00267798,0.0112161,-0.0589947,0.00615071,-3.80469e-05,0.0407363,-0.029146,0.022606,0.0100641,-0.020192,0.00134051,-0.00330447,0.0210479,0.0276256,-0.0217067,0.000983718,0.00724109,0.00889154,0.0287523,-0.00703778,0.0191247,-0.0133721,-0.0130925,0.0176684,-0.0201578,-0.0104135,0.0164714,-0.026245,-0.00444071,-0.0184712,-0.0199005,0.0104535,0.0427718,0.00356195,0.0153088,0.0194702,-0.00677111,0.020353,0.0692334,-0.00957698,0.0073298,0.0217842,-0.0117425,0.0236255,-0.0195377,-0.00773987,0.00849513,0.00320395,-0.00293234,0.00203395,0.0232319,0.0403586,-0.0107835,0.0142588,-0.0388175,0.0198917,0.00474081,0.0127483,0.0366767,0.0197175,-0.0485962,-0.00408732,-0.0369098,-0.00206307,-0.0179183,0.0453061,-0.0127476,0.000810429,0.0158614,0.0232599,0.0203642,0.0282323,0.00587447,-0.00540297,-0.0208147,-0.0425494,-0.00812134,-0.000486043,0.0174401,0.0083711,-0.00537527,0.0126981,-0.0103458,0.0203818,0.0165002,-0.0373379,-0.0293001,-0.032833,0.0432536,0.0308074,-0.00580799,0.00432123,0.00511544,-0.00132252,0.00643488,0.0324973,0.0402471,0.00990355,0.0250407,0.00110173,-0.0122826,-0.0137326,0.0337923,0.026463,0.00609809,-0.00306442,0.012341,-0.0368485,-0.00592583,-0.0219981,-0.00521614,0.0422634,-0.0210879,-0.00942944,-0.00200592,0.000312402,0.0148592,0.0127895,-0.00194547,0.00992179,-0.00244186,0.0144224,0.037571,0.00239417,0.0298509,-0.0279629,0.00561008,0.0187199,-0.0143261,-0.0203277,0.0218674,-0.00411094,0.00301039,0.0546465,-0.00514892,-0.0403687,0.0214632,-0.00396867,0.0104288,-0.00974757,-0.0353146,-0.0257032,0.0172866,0.0136525,0.0138499,-0.0282536,0.017343,-0.045406,-0.00042458,0.0484413,0.00828323,0.010789,-0.00481836,-0.0298085,0.020736,-0.0177647,-0.00347921,-0.0234784,-0.0183821,-0.0140475,-0.0403727,-0.018132,-0.00733438,-0.00343485,-0.012521,0.00202238,0.00363965,0.0111299,0.0461515,-0.0348291,0.00274777,-0.0444104,-0.0127824,-0.00173838,-0.00056992,0.00910386,3.63918e-05,-0.00106718,-0.026193,0.010162,0.034378,0.02305,0.0179589,0.0144179,-0.0184358,-0.00962881,-0.00389908,-0.00128413,0.0191287,0.0315393,-0.00367252,-0.0150839,-0.0128656,-0.0252766,0.0138538,-0.0266436,0.00303011,-0.0246676,-0.00478365,0.0115165,0.00886509,0.000707475,-0.0134524,-0.0186931,-0.00349852,0.00515765,-0.0158559,-0.0122517,0.0166422,0.019504,0.0266781,-0.0128545,0.0168439,-0.0265899,-0.00172941,-0.00426307,-0.00241401,-0.0122735,-0.0166204,-0.00978318,0.0202612,-0.00727067,0.0097582,-0.00818354,0.0113371,-0.0145812,-0.0158921,0.0204255,0.0116184,-0.0123751,0.0225455,0.00203487,-0.0253084,0.0069746,0.0120491,-0.000450956,0.0101576,-0.0387527,0.0173268,0.0122254,0.00875569,0.0189872,0.00945641,0.000904542,-0.0194432,-0.00556832,0.0105467,0.0363952,-0.0126024,0.0178042,0.0100297,0.00218428,0.00334149,0.00645135,-0.0075463,-0.00619152,0.00522213,0.00715583,0.0445424,-0.0172208,0.00284825,0.0075783,0.0242585,0.00799095,0.0170607,-0.0134966,-0.00337383,0.0219414,-0.00395807,0.0366652,0.0274059,-0.0271627,0.00197009,-0.0138011,0.012049,-0.0150316,0.0289662,-0.0336624,0.00967353,-0.00599408,-0.0170945,-0.0254038,-0.0232298,-0.0547685,0.023652,0.0174022,0.0121484,-0.00803679,-0.0158739,-0.00101815,0.00981889,0.0008226,-0.00681104,0.00172428,0.0129782,-0.0104706,0.00139462,0.0488753,-0.0179193,0.00847415,0.0296653,-0.00572832,0.0335497,0.00760234,0.0227567,0.00604533,-0.0171534,0.0253729,0.00140508,-0.0016446,0.0341837,0.00607805,0.024252,0.0185356,-0.012174,0.0335779,0.00277058,-0.0385398,0.00426325,-0.0198232,0.0257016,0.0051606,0.0151883,-0.00194103,0.0157611,0.00445797,0.0313387,0.0136506,0.0149842,0.00279936,-0.012394,-0.0104306,-0.00621824,-0.0265441,-0.0153439,-0.0220988,-0.0171657,0.00994324,0.0187009,-0.0221028,0.00675227,0.0388426,-0.00738077,0.0246964,0.0202925,0.0198479,0.0105009,0.0225072,0.0167978,-0.0220341,0.0303252,0.0108762,-0.0172103,0.0255273,0.02329,0.00438145,0.00353847,-0.0295779,0.0371826,0.0106908,-0.0203704,0.0121023,0.00598564,-0.00433167,0.00197469,-0.0232893,-0.000516224,0.0101679,0.000392029,-0.00656557,0.0252365,-0.0437759,-0.00455177,0.0194063,-0.00905917,-0.016701,-0.0139955,-0.0224893,-0.00806448,-0.0395154,-0.000712936,-0.0267215,0.0185123,0.0408646,-0.00107104,-0.00596373,0.0232649,-0.0104382,-0.00884946,-0.00388182,-0.0252921,-0.0040396,-0.0153348,-0.0172368,0.000715466,0.0118549,0.0109395,0.0115907,-0.0144136,-0.025442,0.0288059,0.00243613,-0.0212899,-0.00180958,0.000114088,-0.0290529,0.0199373,0.0037116,0.0261226,0.00275155,0.0229221,-0.00473412,0.00394308,0.00896312,0.000408677,0.000440263,0.00294194,0.00810557,0.00892767,-0.00765763,0.0124275,-0.0262835,-0.00979298,0.0105135,0.00910773,-0.00831373,-0.0366464,0.00688446,-0.00863954,-0.0280975,-0.000868268,-0.00873004,-0.000667783,-0.0138599,0.0166869,0.0133155,-0.00399683,-0.00920606,-0.0180197,-0.0143026,0.0107848,0.0135389,0.0257223,-0.00323573,0.0414067,0.00478582,-0.0187937,0.0109899,0.0285896,-0.0189291,-0.000304837,0.0100009,-0.0012991,-0.0228604,0.00599537,0.00611989,0.0037917,3.62017e-05,-0.0221079,0.0175105,-0.00698748,0.0262815,-0.00659003,0.0192081,0.0206199,-0.0134614,-0.000349369,-0.023927,0.0412342,-0.00239941,-0.00171303,-0.000427975,0.00155941,-0.0218973,0.0265921,-0.0218719,-0.0268466,-0.0158546,0.00189688,-0.0187995,0.0257236,-0.0371572,-0.00172379,0.000655901,0.0112948,0.0118001,0.0293723,0.0368238,-0.00506866,0.0102579,0.0228224,-0.0271343,0.00956068,-0.00302227,0.00304972,0.0129448,-0.0080348,-0.0119588,-0.0102652,0.00966534,-0.0249204,-0.00430374,0.014067,-0.00245735,0.0187398,-0.0330216,-0.0188596,-0.0172062,-0.00618574,0.0146829,-0.0209695,0.00595558,0.0197869,0.0091112,0.00874766,-0.0404314,0.0169092,0.0297235,-0.0230682,-0.00616258,0.0234334,0.00205656,0.00713325,0.00983269,0.0359511,-0.00965646,0.0299238,0.0154415,0.0073442,0.0280585,0.0102566,0.0345417,-0.00504689,0.00871263,0.0209316,0.015961,-0.0297061,0.0217465,0.014186,0.0218881,0.0223502,-0.0026615,-0.011722,-0.0255179,0.0285616,-0.00720464,-0.00841885,0.00553933,0.0392911,-0.0339508,0.00382892,-0.0280522,0.00974485,0.00891715,-0.0215837,-0.0188849,-0.0255631,0.00146834,-0.0175332,0.0313564,-0.0365643,0.00214268,-0.00582374,-0.00107975,-0.02206,0.0380377,-0.0513573,-0.0226305,-0.0307195,-0.0169003,-0.0067045,-0.0138002,0.0109884,-0.0109724,0.0230686,-0.00547293,-0.0167434,0.0179611,0.0018685,0.0168291,-0.0130084,0.0122994,-0.0205727,-0.0112127,0.0207198,-0.00173512,-0.0081553,0.0143693,-0.00970337,0.00672603,-0.0211138,-0.0402829,0.0245336,-0.0134757,-0.013206,-0.0258897,0.0133295,-0.00493572,-0.00910758,-0.0111406,-0.0288016,-0.00446899,0.0238763,-0.0113817,-0.0711513,0.00643745,-0.00873695,0.0176363,-0.0100646,-0.027373,-0.0201542,0.00306854,-0.0232083,-0.00908539,0.00591415,-0.00913458,0.033462,0.0086648,0.0221921,0.00991686,-0.0128293,-0.0197098,0.0219043,0.0083355,-0.0181241,-0.0400552,-0.00583755,-0.0183526,0.00475592,-0.00737398,-0.000356972,-0.0242888,-0.012282,-0.0122786,0.0256327,0.00792947,0.0289989,0.00649008,0.0155237,-0.0317754,-0.0131326,0.000620891,0.0292612,-0.0112278,-0.00438732,0.00210646,-0.0413911,0.00866121,0.0368328,0.0061126,-0.017485,0.00226348,0.0093166,0.0266462,-0.0114527,-0.00417675,0.02121,0.0301251,-0.0210246,0.00493515,0.00538111,0.0284135,-0.0296272,0.0118832,-0.0330758,-0.0252259,0.0328722,0.0212195,-0.0118803,-0.0139025,0.0114461,-0.0245502,0.00422874,0.0146535,0.0182961,0.028339,0.00492808,0.0194194,-0.0110255,-0.00679602,-0.0215609,-0.00763357,-0.00524573,-0.0309137,-0.0148396,-0.0263187,-0.00682804,-0.00243539,-0.0219099,0.0467431,0.00324367,0.0108237,0.00552796,0.0102915,-0.0215707,0.0031661,0.0179641,0.0275619,0.000185209,0.009737,0.0180647,-0.00861062,-0.00390509,0.00137415,-0.00269268,-0.0112625,-0.0169762,-0.0143429,-0.00551009,0.00304886,0.0388095,-0.000817533,0.0159368,0.0371209,9.1534e-05,-0.00686196,-0.00204162,-0.030795,-0.0126739,0.0162691,0.00478077,-0.035974,-0.0141523,0.0310945,-0.00591947,0.0351149,-0.0404348,0.0222794,-0.0149532,0.00918679,0.0222594,-0.037785,-0.0164578,0.00558307,5.05973e-05,0.0236454,-0.0113442,0.00880016,0.00778135,0.0425911,-0.027939,-0.00847718,-0.0335552,-0.0178237,0.00572741,0.0174313,0.0130181,0.0592331,-0.0120339,-0.0171013,0.018325,0.00188041,0.0417424,-0.0119084,0.00529008,0.0337862,-0.0204479,0.00886008,-0.0108802,-0.000596149,0.00564257,-0.0358253,-0.0238185,-0.0127881,0.00863961,0.0141541,-0.0141631,-0.0133977,0.00526974,-0.0149787,0.0143286,-0.00497308,-0.0223366,0.00339269,-0.0082366,-0.0297188,0.0237969,0.0193084,-0.00162535,-0.0130417,-0.00590881,0.00937887,-0.00207998,0.0227164,0.00586217,0.0200266,-0.0268152,0.0499432,-0.012814,-0.00914422,0.040242,0.00977797,-0.0017404,0.0271069,-0.00827416,-0.0241343,0.00642547,-0.0084731,-0.00566567,-0.0206235,0.0201615,0.00536462,0.0193567,-0.00855604,0.0236541,-0.0172391,-0.00110775,-0.00982805,-0.00631672,-0.0114173,-0.0130335,0.0153099,0.0373928,0.0376215,-0.0143597,0.0141511,-0.0161563,0.0371599,0.0193221,0.00349836,0.00857773,-0.01895,0.0156513,0.00922716,0.00594493,0.0294483,-0.00887498,0.00506168,0.0187122,0.00562902,0.0291815,-0.0406543,-0.0249223,0.0110272,0.0010542,0.0105458,-0.00676112,-0.0140649,0.00460789,0.0347523,0.00963505,0.0110237,0.0158902,0.0390297,-0.0157259,-0.00211502,0.00409185,-0.0210269,-0.0019144,0.0166221,0.0160316,0.00876379,-0.00723911,-0.0167586,-0.0145398,0.0215625,0.0011395,-0.00161254,-0.00214158,0.0246381,-0.00658203,-0.0163472,0.00417147,-0.0294962,0.0557143,0.0148227,-0.047679,0.0335221,-0.00143425,0.0154072,-0.0281585,-0.00236209,-0.00406557,-0.00175098,0.00906032,-0.0010191,0.0107065,-0.00181921,-0.00353039,0.00237571,0.0142695,-0.0200688,0.0127809,-0.0122483,0.0304799,0.0148033,0.00867723,-0.0206056,-0.0284463,-0.00333061,0.00444748,-0.0509292,0.0160985,-0.0131058,-0.0110329,0.00125847,-0.0153772,-0.00185831,-0.017406,0.0150268,0.0096346,0.0095506,0.00355127,0.00513635,0.0258159,-0.0245457,-0.0312465,-5.51961e-05,0.00542378,0.00704059,0.0107978,0.00106205,0.0250329,0.0216727,-0.0167659,-0.0396295,-0.00543067,0.0097255,0.000140823,-0.0328748,0.0182591,0.00369391,-0.000297306,0.027474,-0.014777,-0.00542654,-0.0359864,-0.0116687,0.0105692,0.00310361,-0.00671632,0.00310082,0.0141662,0.0277433,-0.0335751,-0.0396469,0.00559545,-0.017433,-0.00639439,-0.00145805,-0.0125979,0.00100635,0.0159686,0.0283085,-0.00780331,-0.0108189,0.0441474,0.00531715,-0.0178361,0.0192703,-0.0284989,0.0107216,0.00569702,-0.0226383,0.000977083,0.0161079,0.0187729,0.0253828,-0.0304164,0.00105014,0.0153849,-0.0158877,-0.00885836,0.0140919,-0.0196851,-0.0285188,0.00702318,-0.0181645,0.00345544,0.0316461,-0.00997231,-0.00602427,0.00963392,-0.0191088,-0.0226152,-0.0111925,-0.0458114,-0.00512013,0.00740972,0.0257767,0.0232569,0.0389699,0.00290974,-0.0122152,-0.0065683,0.00054347,-0.0054909,0.021306,-0.00779515,-0.0149765,-0.00930845,0.0117149,0.00316506,0.00939044,-0.0551948,0.00348122,0.00105919,0.0238762,0.0112604,-0.0056001,0.011204,-0.00958273,-0.014679,-0.0245817,-0.000800663,-0.0015573,-0.0135286,0.016492,-0.016477,-0.0109939,0.0245114,0.0265991,0.0236823,-0.0125309,0.00872604,0.0285603,0.00101722,-0.00252448,-0.0238136,0.0257624,0.0281159,0.0104674,0.0106955,0.00890313,0.0002471,0.00894094,0.00775505,0.0259513,0.0265737,0.0310763,-0.00895724,-0.0205529,0.0116789,-0.0149329,-0.0196471,-0.0284792,-0.0298697,-0.00261464,-0.0111032,0.0213839,-0.0110859,-0.0229561,0.011157,-0.016034,0.00490701,0.018886,0.0114532,0.0239122,0.00417387,-0.00788515,-0.00237034,0.00906944,-0.00133792,-0.00520212,0.0141218,-0.00557113,0.0238928,0.00113818,0.00334169,-0.0246548,-0.00515884,0.00352997,0.00304603,0.0155509,-0.0180868,0.0143887,0.0158469,-0.0258622,0.0425973,0.00372455,-0.00601222,0.0287145,-0.023251,-0.00383402,0.0259566,0.0176712,-0.00937148,-0.00159368,-0.0478173,-0.0172291,0.0113072,-0.0125151,0.0249737,-0.0337783,0.028277,-0.00918414,-0.00342108,0.0155689,0.0128757,-0.00938952,0.00507026,0.0111381,0.00255446,0.0419684,-0.0112992,0.00102007,0.000125878,0.00719714,-0.0108476,0.00157575,0.00533776,-0.00913614,-0.00162632,-0.0154664,0.00452185,0.0155273,-0.00685012,-0.0119315,-0.0108267,-0.0280664,-0.0137864,0.0081705,-0.0206004,0.0134977,0.0241559,0.0161552,-0.00845591,0.0185737,0.0196962,0.0195146,-0.00625595,0.0187682,-0.0151126,-0.0270886,0.00195861,-0.00597095,-0.0184572,0.0120233,0.0246322,0.00570657,-0.0199459,0.00949482,0.0124731,-0.0448007,0.0402502,0.0168792,-0.00633915,-0.00945658,-0.0142634,0.0230986,-0.00890144,-0.00403564,-0.00577817,-0.0229575,0.00781174,-0.00521415,-0.0199534,0.00815068,0.0273872,-0.0105055,-0.0096098,-0.0299225,0.017195,0.0012347,-0.0206498,-0.0255648,-0.00387224,-0.00890133,0.0376791,-0.0122519,0.0238466,-0.00433236,0.0264214,0.00997826,-0.0130202,0.0214079,0.032501,-0.0212462,-0.0360674,-0.00598384,0.0232049,0.00990149,0.00897091,0.0164966,-0.0101151,0.00529603,-0.0102391,-0.0150445,0.0261842,-0.0437211,0.00400796,0.000267552,-0.00886015,0.0126663,0.0236848,-0.00867851,0.00510887,0.000102219,0.0119139,-0.00338487,-0.0193262,-0.0179106,-0.00735546,-0.0246895,0.022487,0.0204165,0.0366062,0.0291196,-0.0250354,-0.0411223,-0.0144948,0.0302342,-0.0451312,0.0027269,-0.00329606,0.00081024,0.0429528,0.0110035,-0.0252176,0.00374649,0.00638131,-0.00408431,0.00730748,0.0266753,-0.0123224,-0.00309753,0.0233753,-0.0278405,-0.0209469,0.00133438,0.000291299,0.013533,0.00768686,0.0134372,0.00993682,-0.0119908,-0.017451,-0.0359292,0.0270064,0.00112258,-0.0391587,0.00133878,-0.00111095,-0.0207367,0.0333299,0.0256564,0.0314522,-3.29053e-05,0.00949921,0.00435281,-0.00561001,-0.0233766,-0.0356488,-0.0148085,0.0384356,0.00720441,0.0203428,0.0113659,-0.017108,0.0314714,0.0200053,0.00202055,-0.027729,0.0101725,-0.0156084,-0.0270975,-0.00522788,0.00411704,0.0027395,-0.0160246,0.00632607,-0.0419773,-0.00261095,0.000397408,-0.00977123,0.00952034,-0.00517223,-0.0340745,0.0116327,0.00119952,-0.00110811,-0.00469049,0.0228707,-0.0345953,0.0224296,-0.00502366,0.0127005,0.0105379,-0.0217919,0.00593995,-0.0165534,-0.0243539,-0.000783579,-0.0185039,0.0125721,0.0399364,0.0220997,0.0227558,0.0205164,-0.0186449,-0.00614216,-0.00104226,0.028012,-0.0242815,0.00377975,-0.0273318,-0.0126045,-0.00602059,-0.0189884,-0.037725,0.0265097,-0.024575,0.016474,-0.030421,0.0124811,0.0118358,0.0161507,0.00306775,-0.00587755,0.0203539,0.0216547,0.0106002,-0.0205472,0.00406111,-0.00765885,0.00443665,0.0467004,-0.0112766,-0.00870455,0.00646428,-0.041922,0.0190023,-0.0123944,0.0185538,0.0234199,-0.040112,-0.00413789,-0.0259974,0.0064353,0.0183664,-0.00266844,-0.00877359,-0.0438056,0.0010267,0.0141005,-0.0148461,0.0433919,0.0169205,0.00384203,-0.015053,0.0144412,-0.0169082,-0.0155768,0.0262578,0.0280522,0.00251046,0.0210843,0.0203849,-0.0123553,-0.0104911,-0.012817,-0.0124284,0.0142678,-0.014506,-0.0346079,0.00742091,0.00266102,0.0141549,0.0155182,0.0294764,-0.00387648,-0.0106205,-0.0115581,-0.00754017,-0.0163618,-0.0371382,-0.00377494,0.00605527,0.00927744,0.00104756,0.00500666,0.0103243,-0.0238306,-0.00590689,0.0155075,0.0283174,0.0347849,0.00727142,0.00823992,-0.0136698,0.0482899,0.0200531,0.00826536,0.00667531,0.00758107,-0.0266389,-0.00134443,0.00133058,-0.0206344,0.00402567,-0.0193283,0.0149563,-0.00425087,0.00248748,0.00453334,-0.00834337,-0.00675106,-0.0286694,-0.00841813,0.0137786,0.0257561,0.00841539,-0.0157926,-0.00895226,0.0104612,0.0223327,0.0114754,0.0109783,-0.0151312,-0.0193601,0.0225922,-0.0139282,-0.00139303,0.0208028,0.0154968,-0.0333115,-0.0227372,0.0105454,0.0349257,-0.0416487,-0.00777679,0.0152256,0.0278298,0.00789736,-0.00613743,0.0341465,0.00575115,0.0193962,-0.0121272,0.0130214,-0.0413071,0.0024779,0.00264183,-0.0196296,0.0233324,0.00524357,-0.0146478,0.0161452,-0.0311498,-0.00133095,-0.0111679,-0.0207037,0.0126945,-0.000796854,-0.0249619,0.0175381,-0.00196923,-0.000612713,0.00946718,-0.0066642,-0.0116146,-0.0414649,0.0142175,-0.00369742,-0.00576526,-0.0305256,-0.0267707,0.0138174,-0.0319159,-0.0122908,0.00520355,0.0222054,-0.0631847,-0.00796037,0.0200721,0.0457841,-0.020903,-0.00343317,0.0118813,-0.0032875,-0.00500185,-0.0150492,-0.00328791,-0.00651962,0.0111359,0.00420264,-0.015753,0.00720949,0.0133541,-0.0293859,0.014119,0.00510741,0.0219541,0.0128978,0.000254926,0.0254459,-0.0269234,-0.00712125,-0.00189435,0.014099,-0.0319637,0.0176638,-0.00914824,-0.00884636,-0.0134087,0.0201421,-0.0093058,0.0170268,-0.00726991,-0.0249611,-0.000276515,0.0157222,-0.0167975,0.00945634,0.0129346,-0.00582464,0.00989106,0.0017223,0.0160613,-0.0223892,-0.0157505,0.0021823,-0.0273303,-0.043223,-0.00450002,-0.00838588,0.0214228,-0.0339067,0.00357022,-0.0205973,0.00358003,0.0247395,0.0207006,0.0259901,-0.0174882,-0.00415633,-0.0275193,0.0105928,-0.00910671,0.0332774,0.0213653,0.0175178,-0.00530565,-0.00730619,-0.0314218,-0.020474,-0.0407351,-0.0219235,-0.0157961,0.00456888,0.0227329,-0.010221,-0.0196637,-0.00539159,-0.00462098,0.0127856,0.00638883,-0.0133837,-0.0112525,-0.00858183,0.0206661,0.0120903,0.0217443,-0.00189703,0.00651881,0.00745919,0.00366313,-0.0268265,0.00629723,-0.0104906,0.00504546,0.0127295,-0.00967103,-0.0232126,-0.0322447,0.0136409,0.0181142,-0.00111102,-0.0148498,-0.000919553,-0.00608962,-0.0138219,-0.00537233,0.0312037,-0.0171516,0.00240127,-0.00878889,-0.0131934,-0.0168391,0.0126998,0.00744435,0.0137426,0.0123572,-0.0365197,0.00510558,0.00464387,0.000756481,-0.0143306,0.0141062,0.035054,0.0383122,-0.000354551,0.00989044,0.0222456,-0.0230322,0.0166171,-0.0132807,-0.0266369,-0.00283915,0.00261914,-0.00778074,0.00943202,0.00211191,0.00852531,0.0355711,-0.00950608,0.0107188,0.0013491,-0.022557,0.0319314,0.00472855,-0.00178812,0.00819141,-0.0113343,-0.00571403,0.00253901,-0.0394485,0.0170359,-0.000862058,-0.0011815,0.0118738,0.0231552,0.015809,-0.00217941,-0.0295075,-0.000846317,-0.00228402,-0.0355569,-0.0301109,0.0106547,0.0109893,-0.000524664,-0.0134061,-0.023406,0.00644011,-0.0140711,-0.0218698,0.00621277,0.0147721,-0.0260112,-0.0497277,-0.0176642,0.0137059,0.00915391,-0.0100114,-0.027758,-0.0221863,-0.00525157,0.00606201,-0.0141183,0.00973922,-0.0419881,-0.0291907,0.000637738,0.00589127,-0.0223313,-0.0196383,-0.0259196,0.018738,-0.0376906,0.00628336,-0.0121132,-0.0166953,0.0414208,-0.00178941,-0.0156249,-0.0147315,-0.0140812,0.0155635,-0.0135484,-0.00760491,0.00150319,0.00863829,0.00774594,-0.0195326,-0.0147737,-0.0159736,-0.0154357,-0.0187982,0.0241365,-0.0277185,0.00360871,0.00683074,0.0246305,-0.000694979,0.0122221,-0.0251465,0.00931555,0.018206,-0.0294529,-0.00386648,-0.00351136,0.0298236,0.010034,-0.0302183,-0.00286558,-0.0195153,0.0147461,-0.0176295,0.0146127,-0.0172873,-0.0174155,0.00911668,0.00705285,0.018424,-0.0204343,-0.0173253,0.0354805,0.00569172,-0.0369072,-0.0202063,-0.00658536,-0.0198342,-0.0234524,-0.00784619,-0.0187059,-9.3193e-05,-0.0131878,0.0552511,0.015381,0.0275581,0.0120717,0.0139297,0.0186484,-0.00590276,0.0302519,-0.00655229,0.0257005,-0.02788,-0.0036562,-0.0189781,0.0132489,0.0513088,-0.0137775,0.0150854,-0.0316,0.0102174,-0.0135722,0.00104262,-0.0140304,-0.00982894,-0.00291504,-0.0139521,-0.0121588,-0.0285256,-0.0213239,0.0173516,0.0216804,-0.0123006,0.0100987,-0.00109398,-0.0152911,0.00338398,-0.00549411,-0.025529,-0.000377361,-0.00308365,0.0144056,0.0061164,0.00581505,0.0214638,0.0047166,0.0342288,-0.00850488,0.0112939,0.0102265,0.000236647,0.0130594,-0.00493627,0.0215604,-0.0184764,-0.0207465,-0.0040228,0.0403302,0.00758826,-0.0116069,-0.00024712,0.0156537,-0.00604359,0.0114566,0.0129725,0.00892532,-0.0386723,-0.00437097,-0.00103454,0.0304098,-0.0241757,0.0169532,0.00823734,0.0323564,0.0117082,-0.00908494,-0.044628,0.0088729,-0.0385744,-0.0178295,0.00601278,0.0271946,-0.0272919,0.0242752,0.0170261,-0.0178224,-0.0357807,-0.0155031,-0.0145981,0.014325,0.0282547,-0.0369168,-0.0129926,-0.0051725,-0.00656372,-0.0200787,0.0121435,-0.0236219,0.015678,-0.048056,0.00333716,0.0141498,0.00815502,-0.0224756,0.00462005,-0.0352565,-0.0332703,-0.00346794,0.0130025,0.00420351,0.0179553,-0.0103414,0.00606582,-0.0089784,4.22691e-05,0.00691229,0.0279422,-0.00243623,0.0114197,0.0105249,-0.0129943,0.0329571,-0.0144464,-0.03917,0.0505233,0.00318438,0.0169068,-3.24974e-05,0.0371933,-0.0136994,0.0022211,0.0118334,-0.00295893,-0.00879811,-0.0145263,0.00593244,-0.0202042,-0.00389853,0.014135,-0.008882,0.0073629,0.0255612,-0.00474186,-0.00740831,-0.00829634,-0.00244009,0.0128298,-0.0218582,0.017976,0.0030486,-0.0177058,-0.0302173,0.00519246,-0.0142528,0.012754,-0.0109402,0.00862068,0.00519746,-0.00597433,-0.00383401,-0.0222212,0.0449323,-0.00571469,-0.0131745,-0.00828717,0.0145904,0.0123694,-0.00234514,0.019432,-0.012442,-0.00434987,0.0274864,0.00052789,0.00870308,-0.0193062,-0.0173213,-0.0490153,-0.0218602,0.0242343,0.026036,-0.0215792,-0.0192292,0.00793544,0.0108416,0.0486805,-0.0463736,-0.0136945,-0.00358889,-0.00200333,0.0110765,0.00766961,0.0237927,-0.00668388,0.00398819,0.0253405,0.00462931,0.0324061,-0.0152192,0.00949715,-0.00931026,0.0459217,0.0252575,-0.0164399,0.00566437,0.00869208,0.0284049,-0.0276698,0.0120859,0.00566588,-0.00848691,-0.057275,0.0140519,0.0211599,0.0515881,0.0057473,-0.00649467,0.00434275,0.00906908,0.00831111,-0.0487727,0.00167429,0.0278776,-0.026304,0.0126431,0.00329385,0.0207439,-0.0228388,-0.0053064,-0.00995408,-0.0163347,0.00939462,-0.0273833,0.00393185,-0.0173541,0.00688056,0.028376,-0.00139931,0.037236,0.0231846,-0.0309998,-0.0106328,-0.0148655,-0.00619711,-0.00550691,0.00591423,-0.00787826,0.0304481,-0.00568061,-0.0148211,-0.00180674,0.00897439,0.00253847,0.0160005,-0.0264308,0.0364376,0.0044047,0.0238566,0.0142499,-0.0357978,0.00724389,0.00470376,0.00140499,-0.0367219,0.0154174,0.00528715,-0.0491555,0.0247151,-0.0138065,-0.0443974,-0.0148881,0.0219643,0.0291335,0.0196657,-0.00537513,-0.00432215,-0.0202879,0.00192321,-0.00345576,-0.018528,4.79803e-05,-0.0149461,-0.00696797,0.01153,0.00416639,-0.00838085,-0.02691,0.0133205,-0.0131626,-0.0155834,0.041468,-0.00519568,-0.00278764,0.0368018,-0.0192205,0.0194815,0.0336821,-0.032128,0.0313458,-0.0285534,-0.00597315,-0.00607546,-0.013241,-0.00723024,-0.00811142,-0.00256187,-0.0173295,-0.0125105,0.025193,0.00135471,0.0241224,-0.0342177,-0.0189147,0.0220051,0.00331246,-0.00693155,-0.0144905,-0.0235504,-0.0210135,-0.0109072,0.00181666,0.01095,-0.0182525,-0.00202984,0.0146264,0.0267335,0.0199145,-0.00465922,-0.0117664,-0.0235678,0.0167765,0.00902409,-0.000979728,-0.0170141,-0.00349733,-0.0270167,-0.00104663,0.00950569,-0.012829,0.00853966,0.0200479,0.0288169,-0.00971905,-0.0237943,-0.00328197,-0.0264065,-0.0296951,0.0247171,-0.0213827,0.023791,0.00536349,-0.0241881,0.0200315,-0.0440289,-0.0104422,0.0422429,0.00493121,-0.0232138,-0.0113236,-0.00639929,-0.0110315,-0.0129127,0.0133913,0.000162525,0.0128239,-0.00139663,-0.0129873,0.0151944,-0.0258297,0.0137315,-0.0122717,0.0284332,0.0325994,0.0100976,-0.0068918,0.00264704,-0.0200572,0.0116693,0.033402,0.0153746,-0.0280621,0.036134,0.00317293,0.00507552,0.0347773,0.000157088,0.000356715,0.0151415,-0.0358225,-0.0333717,0.00275415,-0.0175222,0.0144043,-0.0091536,-0.018594,0.0133085,0.00238655,0.0293532,0.00115511,-0.00646854,0.0346797,1.91208e-05,0.00470075,0.00176579,-0.00838015,-0.0322682,-0.0111666,-0.0207962,0.00950192,-0.016652,-0.0362183,0.00991562,-0.00868937,-0.0389128,0.000235597,0.0425997,-0.000779873,-0.0283752,-0.0182079,-0.00300437,0.000444859,-0.0330306,0.031438,0.0213374,0.0162125,-0.0133454,-0.0231755,-0.00381361,0.00783311,0.0104441,0.0127084,0.000969399,0.00667586,-0.0117339,-0.017108,0.00202945,-0.0123302,0.00425535,-0.0158225,-0.00362874,0.0439287,-0.00973899,-0.00290079,-0.0298602,0.013863,0.00264144,-0.0190051,-0.0202756,0.00260347,-0.0101622,0.0138115,0.00257624,-0.00195685,-0.0132994,-0.0142248,-0.0067266,0.0412246,0.00187949,0.014464,-0.0321792,-0.0230775,-0.00702698,0.00639511,0.00858495,-0.00808308,0.0258315,0.0159987,0.0159713,-0.0300969,0.0153232,-0.0315963,0.0224323,-0.00633194,-0.0164407,-0.0277043,0.0098919,-0.00982828,0.0288046,-0.00124306,-0.0191686,0.00827303,-0.00949882,-0.00242733,0.0301115,0.0131201,-0.0235619,0.0220916,-0.00866755,-0.0229498,-0.0177166,0.0268275,0.00404567,-0.00562302,-0.0233029,-0.0202725,-0.0227363,0.018542,-0.0138997,0.0259638,0.00777357,0.0425199,-0.0418553,-0.0168503,-0.00309562,-0.0376245,0.00340802,0.00584936,0.0486501,0.022264,-0.0198681,-0.0131859,-0.0141951,0.0104172,0.0151996,0.00531682,0.0305446,-0.0151545,-0.0346724,-0.01176,-0.00657321,-0.0078585,-0.0167434,0.0383495,-0.0309497,-0.0391779,0.0309316,0.00210361,-0.002779,-0.02555,0.0305093,-0.0292734,-0.000473167,0.00932176,0.0238422,-0.0188843,0.00492405,-0.0178284,-0.0104695,-0.0114553,-0.00191398,-0.0453272,0.00235953,0.00280525,0.013415,-0.0197755,-0.00172266,0.0223386,-0.000269639,-7.52209e-05,-0.0580175,0.00414727,0.0214316,-0.0228287,-0.00107788,0.0105939,-0.0122508,0.00372127,0.0388642,0.0178057,-0.00346955,0.0172395,0.0139011,-0.0347085,0.0458197,-0.00101963,-0.0128151,0.0126623,-0.0117647,-0.0246535,0.0344658,-0.0315612,0.0151258,-0.0483757,-0.0114657,0.0148551,-0.00610951,0.0207955,-0.0151568,0.0532927,-0.0183854,0.0410942,0.00253976,0.00295772,0.0142188,-0.0179292,0.0164095,0.00987828,0.00420688,0.00710138,-0.0280841,-0.0391607,0.0261095,0.018219,0.0333251,0.0125391,0.0024594,-0.0288816,-0.000185779,-0.0219498,0.00828948,0.0219621,0.0186995,-0.00120615,0.0303936,-0.0160393,-0.00519343,-0.00959738,0.022518,0.00624364,-0.00158055,0.0289253,-0.00530848,0.0246849,-0.0310166,0.00731553,0.0220879,0.0050498,0.00979708,-0.000371907,0.00151929,-0.0122542,-0.00962303,0.0424287,0.00659622,-0.0143717,-0.0410861,-0.00749456,0.0102405,-0.00886096,-0.0218627,-0.0241329,-0.0228557,0.0320158,-0.0432524,-0.0146367,0.00642851,0.00175065,0.00123507,0.0293761,-0.0027865,0.0174777,0.0193408,-0.00461069,-0.0212931,-0.00924903,0.0115309,-0.000308949,0.0126589,-0.0295296,0.00595108,-0.0363578,-0.0180063,-0.0117621,-0.0133526,0.00815939,-0.0150423,-0.0302599,-0.00461278,0.0141026,0.0252878,0.041686,0.010231,0.0148182,0.0190702,0.0162303,0.0145111,0.0100376,0.00236347,-0.0233192,0.0259078,-0.0370993,-0.00788479,0.0103655,-0.000705984,-0.00346316,-0.00215595,0.00960959,0.0066884,-0.0181104,-0.0287673,0.0307572,-0.0183281,0.00991217,-0.00358172,-0.000875936,-0.0258957,-0.00827279,-0.000546848,-0.0180987,-0.0146596,0.0317206,0.0317006,-0.0471438,0.0254933,-0.016916,0.0265292,-0.00227782,0.0156377,0.00784738,-0.0113366,0.0211788,0.0161926,0.0157453,-0.0496762,0.045046,-0.0014015,0.0187656,-0.0136328,-0.00328974,0.00226145,-0.0323553,0.00403804,0.0141474,0.007345,-0.0174669,0.0041184,-0.00629679,-0.0216886,0.0307598,-0.0386814,-0.000154789,-0.0300809,0.0433592,0.0134707,0.0205944,-0.0413336,-0.019813,-0.00497799,-0.00925064,0.0212343,0.00092623,-0.0197582,0.0240467,-0.00610501,-0.0229043,-0.0198686,0.0112795,0.0176694,-0.0328372,-0.0153274,-0.0207585,-7.24975e-05,0.0260668,0.0203345,-0.015635,-0.0039993,0.0467274,-0.00378303,-0.0175739,0.00594546,0.0209567,-0.00939998,0.00539878,-0.00460476,-0.00193168,-0.0518297,0.0145302,0.0289195,-0.0163279,0.000211651,-0.017794,-0.0220193,-0.00756585,-0.00570758,-0.0202305,0.0291969,-0.0529803,0.0350573,0.0344656,0.00746569,0.00663656,-0.00506862,0.0259971,-0.0130709,-0.00437421,0.00325644,-0.00782836,-0.0103925,0.0228708,-0.00803004,0.00878116,0.0331425,-0.0205174,0.0334231,0.0231193,-0.0517116,-0.0160682,0.0157048,-0.0118417,0.00431001,0.00370675,-0.0619141,-0.0465365,0.0059741,-0.0197566,0.013954,0.00869844,0.014104,-0.00296185,-0.0236741,0.0279892,0.0389625,0.0384909,0.00821496,0.0434855,-0.00111667,-0.00999018,-0.0155954,0.0262583,0.0113957,-0.000993053,-0.0230811,-0.0124818,0.00714522,-0.0262231,0.0142029,0.04566,0.0105904,-0.00719938,0.0263792,0.0206073,-0.00869327,0.0278516,0.009747,0.0147289,0.011535,0.00292908,0.013254,-0.00466923,0.0063724,0.00630162,0.00814693,0.0169072,0.00669965,0.00566556,0.00691917,0.0219505,-0.0156271,0.030504,0.00224867,-0.0109753,0.0148594,-0.0244469,0.0177946,0.0218912,-0.0277184,0.00681819,-0.0239833,-0.0342326,-0.000298735,-0.00710985,-0.0250204,0.0220713,-0.00605988,-0.0261926,0.00410959,-0.0085577,0.00945338,-0.00186906,-0.00910174,-0.000964192,0.0231144,0.0452733,0.0109215,-0.024364,-0.00153748,-0.00957807,-0.0148593,-0.0274078,-0.0151405,0.0132784,-0.0107749,0.00519108,0.0049805,0.00238281,0.00650737,0.0106571,-0.0469311,-0.00500218,-0.0293435,-0.0137243,-0.0138428,0.000546852,-0.0366228,0.0463207,-0.00413253,-0.0056765,-0.0256924,0.0243929,-0.0229363,0.0140183,-0.0113105,-0.0327266,-0.0252447,-0.00351286,-0.0129012,0.0462933,0.0190449,-0.0312559,0.0225739,-0.0209721,-0.0362021,-0.00207606,-0.0103283,0.0172237,0.026885,-0.00419383,0.00794998,0.0314315,-0.0115352,0.0183189,-0.0109658,0.0071177,0.00672204,-0.00299611,-0.00446244,0.0180807,0.0166159,0.00875498,0.0150784,-0.030036,-0.00394748,0.000187934,0.0185334,-0.016001,-0.00592793,-0.011658,-0.0109959,0.0087057,0.00166919,0.0128377,-0.0176894,0.00859836,0.00382884,-0.015726,0.00402345,0.0100733,0.0100838,0.00605938,0.0150432,-0.00374632,-0.0186546,0.029813,-0.0141735,-0.00803797,-0.00174886,-0.0080265,0.0121667,-0.0183069,0.0308047,-0.021534,0.0201367,0.00697909,-0.0112058,-0.0060934,-0.0079259,-0.0233415,-0.00710662,-0.0335113,0.0188981,0.026305,0.0391801,0.0185978,-0.0264151,0.00921329,0.00768061,-0.0143149,0.0142453,-0.0116269,0.0314356,-0.00292267,0.0255141,-0.00144433,0.00230721,0.00280011,5.48391e-05,0.00638998,-0.0111212,-0.00937476,0.0192458,-0.0195217,-0.00888848,0.0222962,-0.0103748,0.0200426,-0.00423919,-0.0061415,-0.00240616,0.0208624,0.0244877,0.0355878,0.00389133,-6.6214e-05,-0.0300296,-0.0135781,-0.0102377],"shape":[64,64]},{"data":[0.0194147,-0.00930188,-0.00412579,-0.00410277,-0.0376342,0.0222016,0.0119196,-0.0372545,0.0118134,0.0140828,0.000403013,-0.0364413,-0.0093642,0.000305602,0.0404259,0.0133585,0.00764091,-0.0152032,0.00995754,-0.0154121,-0.0303207,0.014628,-0.018386,-0.00675572,0.00563953,-0.0143705,-0.00736081,0.014434,-0.00142365,-0.0140543,-0.0300102,-0.0254848,-0.00299775,0.0179199,0.0243689,0.0265672,0.00984302,0.000430652,0.0142878,0.00799256,-0.0171233,0.0304542,0.000693736,-0.00726752,-0.0241163,0.0112835,-0.00613212,-0.00691627,-0.00272061,0.010637,0.0247627,-0.0220007,0.00147939,0.00196715,0.000612745,0.0391168,-0.0265687,-0.00211965,-0.026051,0.0049235,-0.00147911,0.0096861,-4.06038e-05,-0.00732462,-0.014692,-0.0131507,-0.022168,-0.0218987,-0.00504258,0.0179892,-0.0335475,-0.0185146,0.0303283,0.00624201,-0.0435834,-0.00184551,-0.0110792,-0.0106388,2.63637e-05,-0.0127867,0.0107106,-0.0199932,0.0311945,-0.0133132,-0.0486944,0.0083437,0.02937,-0.0203742,0.0125946,0.0112465,-0.00769951,-0.00722792,-0.0315918,-0.0128965,0.00714048,-0.0153801,-0.0327384,-0.0021609,0.0335664,0.0119765,0.00222713,0.00483131,0.0194374,0.0020643,0.00731842,-0.0165143,0.030306,-0.0077684,-0.0302366,-0.00941163,0.00741003,-0.00441133,-0.00696052,0.00644372,-0.0497892,-0.0014683,-0.0134254,-0.00340945,0.0343396,0.0075441,0.00631972,0.0140163,0.00068236,0.0147174,0.00110326,-0.00911428,-0.0390718,0.0394805,-0.0343395,0.0415771,0.0194782,-0.0189114,0.017464,0.0296379,0.0248907,-0.0105192,0.0117993,0.0307294,-0.031033,-0.00121383,0.0215591,0.0328387,-0.015317,-0.0105816,-0.000444693,-0.00879196,0.0187954,0.00363872,0.0143125,-0.011092,-0.0474927,-0.0106891,-0.00325987,-0.0120849,-0.0263486,-0.0129561,-0.00400085,-0.00145857,-0.00403921,0.0136027,0.0294473,0.000995526,-0.00697285,0.00410582,0.0209005,0.0355799,-0.00272158,0.0170605,0.0250781,-0.0139713,0.0138405,-0.0355917,0.00349442,0.00853562,0.000657861,-0.0183698,0.0229013,-0.0179184,-0.00876123,0.0199892,0.015055,-0.0164305,-0.0185177,-0.0060527,-0.0219615,-0.035758,-0.0118185,0.0199904,0.0142523,-0.0220737,-0.0117735,-0.0199946,0.00755063,-0.016434,0.0112002,0.011057,0.0108899,0.0307158,-0.0147161,-0.0157889,-0.0372727,-0.0139453,-0.0140314,0.00935025,0.0306729,0.013515,-0.0142197,0.0250591,0.0115059,-0.0182077,0.0142039,0.0250237,0.0103459,0.00832269,0.015142,-0.0248204,0.0132463,0.0111489,-0.0211041,0.0130581,0.0138363,0.0207316,0.0123036,-0.0117277,-0.0113608,-0.010444,-0.0119213,0.0329844,-0.0029531,0.0205713,0.0294567,0.00413475,-0.0154648,0.00743295,0.0114424,0.0205478,-0.0290769,0.00779421,0.0122619,0.0150599,0.0262073,0.0241142,-0.0210456,-0.0177135,-2.44566e-05,-0.0106078,-0.0115538,0.00674678,-0.0116165,-0.040374,0.00961163,0.00487738,0.0201576,-0.00129428,-0.0283664,0.0229734,0.00636901,-0.00672219,-0.0128483,0.0200479,0.0221172,-0.00620751,-0.027991,0.0103902,0.0319408,0.0165706,0.0243824,-0.0231124,-0.00711337,0.00429553,0.0131759,0.0209188,0.0462559,-0.00257323,0.00429572,0.0087769,-0.0277706,0.0144173,-0.0154929,0.0047237,-0.00540528,0.00750054,0.0204451,-0.0187192,0.0346097,0.00310731,-0.029252,-0.00874083,-0.0340651,0.0304792,-0.0177397,-0.0139226,-0.00149862,0.00129746,-0.000604677,0.00813393,0.00526312,-0.00832558,-0.0255701,0.0149474,0.00950564,0.0526508,-0.0219474,-0.0106916,0.00401557,0.0180637,0.019628,0.0201328,-0.0073504,0.010688,0.0412217,0.00322101,0.00276416,0.0142156,-0.00227317,-0.0261551,-0.0053775,0.000438911,-0.00249498,0.00783193,0.00500198,0.000181604,0.0243253,-0.00275843,-0.00933153,-0.00683583,-0.00421521,-0.0304031,-0.0281519,-0.0129149,-0.0404954,-0.0127441,0.0150232,-0.0237345,-0.00458691,0.04015,0.0276859,-0.00513723,0.00473598,-0.0117839,-0.0064149,-0.0439489,0.00882484,-0.0267087,0.017278,0.0442773,-0.00614401,0.0110495,0.00844031,0.0209323,0.0209664,-0.0150049,-0.0148308,0.00829166,0.00950415,0.00855989,0.0014118,0.00447766,-0.00243922,-0.0274048,0.0265889,-0.00950495,-0.00254574,-0.0303868,0.0332304,-0.00212605,-0.0141704,-0.00238113,-0.0325439,-0.019564,-0.00212318,0.0188809,0.0102548,-0.0148644,0.0128326,-0.0279319,0.00232592,0.015408,0.0059365,-0.00641382,-0.0307745,-0.0238935,-0.00216662,-0.0068948,-0.0102993,-0.0240816,0.0040521,-0.00190497,0.0252488,0.00465969,0.000526932,0.0103631,0.00938059,-0.0133247,-0.000301791,0.025223,0.0114098,0.0108657,0.032684,0.0040658,-0.0194697,0.0173856,0.0252137,0.0461666,-0.00380325,-0.0130905,-0.0102349,-0.00201759,-0.0480462,-0.0227904,0.00432237,0.00338947,-0.00862161,0.00747934,0.018299,-0.00223538,-1.93938e-06,0.0299427,-0.030912,0.0362633,-0.0107974,-0.00191126,0.00220592,-3.75082e-05,0.0198148,-0.0221714,0.00518604,0.00310853,-0.0068796,-0.0314077,-0.00804266,0.00726824,0.0179337,-0.0234253,-0.00739533,-0.00343839,0.00933632,0.0277886,0.0152099,-0.00427436,0.0188432,-0.0061084,-0.0381925,0.00645205,0.00612535,-0.0218069,0.0370851,-0.0234307,-0.0107123,0.00157014,-0.00946966,0.0288723,-0.0235174,-0.0286089,0.0396892,0.00792418,-0.0324777,-0.012197,-0.00400923,0.0268713,0.0250495,0.00813079,0.0208551,0.00684163,0.0125532,0.00340605,0.00480718,0.00194127,-0.002879,0.0168559,-0.0179388,0.0048503,-0.000853607,-0.00759441,-0.00211025,0.00735713,-0.00297542,0.0320611,-0.0141557,-0.0163374,0.0223119,-0.0112678,0.00477212,0.00261422,-0.0176408,-0.015845,0.00972678,0.0153506,0.0314817,-0.0617652,-0.0269827,-0.013416,0.0505739,-0.000250543,0.0190912,0.00406163,-0.0112503,-0.000125318,0.00817778,0.0312259,-0.00354168,0.00137,0.0367322,0.0368172,-0.0162121,-0.0203798,-0.0317709,-0.00238181,-0.00402423,-0.00379964,0.00428614,0.00550857,-0.0173683,0.0202945,-0.00220736,0.0273343,-0.0111439,0.00637454,0.00448146,-0.0584855,0.019484,0.00828778,0.000479308,-0.0300267,0.0136316,-0.0185126,-0.0260688,0.00193975,0.0107719,-0.00887016,-0.0366894,-0.00265765,0.00378669,-0.0223171,0.0085431,-0.0220557,-0.0228465,0.00461703,0.000188522,-0.0134977,-0.00334365,-0.0305511,-0.0146643,-0.00542299,0.0096067,0.0137157,-0.00281341,0.000266143,-0.0144624,0.0176944,0.0395357,0.0273696,0.0199475,0.0182407,0.0225822,-0.0256998,0.00414447,0.0515425,0.0026601,-0.0266288,5.03192e-05,0.00253676,0.0128136,0.0339245,-0.0141636,0.00584633,-0.00966729,-0.0234,0.00178711,0.0105512,-0.0102215,0.00784051,0.00674206,-0.0313325,0.0104164,-0.0143002,0.0104693,0.0103967,-0.0138785,0.0101879,0.0118806,0.00503235,0.00587431,0.00582354,-0.0383309,-0.00591706,-0.01927,0.00862935,0.00993824,0.0318981,-0.0135816,0.00403152,0.0141834,-0.00395008,0.00135546,0.0107264,-0.000123032,0.0241595,0.000193681,-0.00736274,0.0110263,-0.0242796,-0.00536562,-0.00977092,0.026785,-9.71039e-05,0.0266132,0.00506436,0.0226711,0.00689489,0.00220788,-0.00622657,0.0110063,0.0154392,0.00238979,-0.00986755,0.0341584,-0.00663428,0.0194242,0.0169907,0.0246035,0.0248253,0.024489,-0.0173959,0.00870062,0.0138985,0.00391827,0.00595017,-0.00794708,0.0143274,-0.0122404,-0.0413638,-0.0251523,0.013463,-0.00998165,-0.0119356,0.0130126,-0.0222292,-0.00642436,-0.0224529,0.010065,-0.0227417,0.00701219,0.0218176,-0.0370037,-0.00899932,0.00490237,-0.00812069,0.0216637,-0.0034546,0.0297202,0.00198699,-0.019113,0.0146212,-0.000544169,-0.0178353,0.0106201,-0.0240877,0.0258199,-0.015415,0.0120562,-0.0119583,-0.0189296,0.0312559,0.0181435,0.00794431,-0.00163325,-0.0463862,-0.0256381,-0.00836048,0.0253921,-0.0179788,0.0134721,-0.0261867,-0.0618946,-0.00310784,0.020538,0.0136596,0.00483763,0.000244328,0.00707932,0.0258145,0.0489274,0.0275946,-0.00270035,0.0153351,-0.00508525,0.0256492,-0.015236,0.00193245,0.0181183,0.0156392,-0.0255261,-0.0241264,0.0338706,-0.0171575,0.0233884,-0.0273982,-0.00113835,0.0234971,0.0334114,-0.00949652,0.0210852,-0.0407131,-0.0294797,-0.00998994,0.00922813,0.00382782,0.046705,-0.00845099,0.0189444,-0.0142548,-0.0141321,-0.00358865,-0.00818221,0.0131543,-0.0107741,0.0238942,0.00979848,0.00325281,-0.0216706,-0.0168981,0.0245495,-0.000416052,-0.0165457,0.00748147,0.00647809,0.0171023,-0.0188465,0.0229723,-0.00441614,-0.0253294,0.00219336,0.0231673,-0.0187,0.0172548,-0.00728919,-0.00908354,0.0291616,0.00812956,-0.0201541,-0.000376325,-0.0227925,-0.0121038,0.0200557,-0.02959,0.0265837,0.031584,0.0337452,0.0306964,0.0685539,-0.00266389,-0.0437528,0.0277666,0.0262815,-0.0205394,0.00276137,-0.00906202,0.00708582,-0.0245687,-0.00560891,0.0244736,0.0383513,0.000416619,0.0431302,-0.00431282,-0.000844482,-0.0069512,-0.00890245,-0.0524457,-0.0309894,0.00200304,0.0120394,0.00937988,0.0244791,0.0173143,0.0176744,-0.0084464,-0.0223339,0.0117507,0.0120529,0.00246834,0.0253501,0.0423901,0.012871,0.00945465,0.0223454,-0.0108872,0.0298859,0.0176011,0.00656292,0.00210941,0.00202947,-0.0142496,-0.0656405,0.0128886,-0.0178893,0.00956341,0.0102754,0.029223,-0.0121852,0.00570091,-0.0191161,-0.0331692,0.00412047,0.0183242,0.0396173,-0.00507102,0.0080828,-0.0126536,-0.0127339,0.0211248,0.0234539,-0.0490554,0.0115625,0.0293288,0.031776,-0.0186117,-0.00177451,0.0133174,0.0144425,0.00406691,0.0153531,0.0190878,0.0220536,-0.0149228,-0.0351671,0.0116705,0.00943419,0.0248555,0.00979933,-0.0207125,0.0235987,0.0243501,-0.00423875,-0.0387932,-0.0120215,0.0118027,0.0177177,-0.00105626,0.00267079,-0.0186039,-0.010196,0.00652687,0.0126856,-0.0326951,-0.0240535,0.00621374,-0.010754,0.0282896,0.0463433,-0.0360425,0.00203083,-0.00965165,-0.00462032,-0.00264333,-0.0108093,0.00730014,0.00031423,-0.00104161,0.00625556,-0.0104016,-0.0129195,-0.0195782,0.0157901,-0.00184253,-0.0124635,0.0089628,0.00633544,-0.0369087,-0.0202414,-0.0131596,-0.0176309,0.00112028,-0.0372746,-0.0070391,-0.00982913,0.0618539,0.0310817,-0.00606011,-0.0481618,-0.0125157,0.00345869,-0.0145791,0.0133076,-0.0302144,-0.0127641,-0.0117825,0.01737,-0.00519602,-0.0106827,-0.0195157,0.0122681,0.0258503,-0.0171741,-0.00964601,0.0187188,-0.0129747,0.015752,-0.00936905,-0.00533146,0.000388358,-0.00996739,-0.0100997,0.0276618,0.00985115,0.0136572,-0.0125358,0.0289861,-0.0375227,0.00809486,-0.0499191,-0.0201679,-0.0256682,-0.00779452,0.00847399,-0.0254378,0.00909144,-0.0159666,0.00474967,0.0109745,-0.01221,0.0347938,-0.0269444,0.0178438,-0.0227017,-0.00256101,-0.0305173,0.00824135,-0.0319385,0.057948,0.00362103,0.00982598,0.00722954,-0.00712296,0.0239472,-0.00562667,-0.00321715,-0.0197771,0.0259666,0.0183468,0.0360356,-0.00506171,-0.0527846,0.00330139,-0.00147568,0.0220184,-0.00782046,0.00577062,-0.009175,0.0135959,0.0112278,-0.0190014,-0.00821353,-0.0283745,0.0156392,-0.00178139,-0.011718,0.0100364,-0.0192107,-0.00864873,-0.0183092,-0.00172646,0.0245834,-0.042119,-0.00449297,0.0105679,-0.015766,-0.00901532,0.000326162,0.0232239,0.0294089,-0.0229568,0.0123182,0.00540616,-0.0308817,0.028072,0.00149645,0.00653812,-0.014109,-0.0136703,0.0152322,-0.00898193,0.0212484,0.0145603,0.00738741,0.0252814,0.00575256,0.0100942,-0.019388,0.0304293,-0.0149658,0.0195743,0.00597469,0.0402482,-0.0359071,0.0352717,0.0219857,-0.0146087,0.0262776,0.028234,-0.0503081,0.0330623,-0.0230347,0.0430388,-0.00513298,0.0117438,-0.0104615,0.009291,-0.0201261,-0.0214478,0.0137827,0.034107,-0.010342,-0.00482734,0.0152016,-0.0250154,0.0131412,0.0215352,-0.00293057,0.0288581,-0.0558764,-0.033542,-0.00433392,0.00736925,0.0241169,0.00934652,-0.0391343,-0.0394653,-0.00933117,0.0161032,-0.0026452,-0.00137545,0.00237772,0.00975764,-0.0309767,0.0464054,0.00970677,0.0230692,-0.0276999,-0.0279788,-0.0155801,-0.00542173,-0.00161561,-0.0123825,-0.0261125,-0.0185191,-0.0125719,-0.0254387,-0.0284633,0.0246517,-0.0160797,-0.0223718,-0.0489543,0.00634362,0.00942982,0.00695784,-0.00489451,0.0105952,-0.0145731,-0.00725161,0.0161726,-0.00743177,0.0218447,-0.00100148,-0.021885,-0.00950966,-0.00894284,0.00233377,0.0333981,-0.0138649,-0.0114418,0.00884534,-0.016699,-0.0368904,-0.0252162,-0.0154827,0.0236504,0.00185416,-0.0229433,-0.0058478,0.0330042,0.0123661,0.0272954,0.0199171,0.0271072,-0.0136809,-0.0186007,-0.003382,0.0152143,0.0226877,-0.0124745,0.00898763,-0.0124161,0.0291842,0.00970066,0.0198942,-0.00679658,-0.0240865,-0.0259089,-0.0176679,0.0172865,0.0105716,0.0497671,0.00664489,-0.0144777,-0.0143656,-0.0247993,-0.00342378,0.0164797,0.0365546,0.0535848,0.00221272,0.00208807,0.00216675,-0.0238334,-0.000866169,0.0307174,-0.000567104,0.0167206,-0.0283403,0.0136536,0.0108324,-0.0220054,0.030129,-0.0298978,0.00256581,0.0325801,0.0195172,-0.00484906,0.00615234,-0.0200045,-0.0139303,0.0107439,-0.0218019,-0.00965208,0.0367896,-0.028569,-0.0123053,-0.00323006,-0.0213773,-0.0187518,0.00609406,-0.0266444,-0.0227154,0.0306452,0.0315595,-0.0023195,-0.0251826,0.000454467,0.0393987,0.0427,0.0280393,0.0388316,0.0207131,0.0102003,0.0309222,-0.0171443,-0.0114165,-0.0142352,-0.0222648,-0.0127374,-0.00174273,0.0201988,-0.0255539,0.027051,0.0123654,-0.0229167,0.0114413,0.000757377,-0.00717332,0.00976602,0.0557217,-0.0128594,0.0365748,0.0299704,0.020003,0.0137333,-0.0130978,0.000596691,-0.0590257,-0.0014064,0.0095322,-0.0224654,0.0358917,-0.00422053,0.00157293,-0.0574992,0.000512646,0.00633055,-0.0156895,-0.0243272,-0.0354406,-0.0299794,0.0100877,-0.00873424,-0.0126697,-0.0175322,-0.0216432,-0.0135514,0.00234103,-0.0141055,0.0091157,-0.016157,-0.0112653,0.00639732,-0.000988054,-0.00477301,-0.0058925,-0.00207757,0.0346456,-0.0133058,0.00888106,0.00927492,-0.0196554,-0.00861466,-0.0181247,0.0132858,0.00680759,-0.00290464,-0.0465109,0.0152687,-0.043495,0.015617,0.00967562,-0.0100714,-0.0145409,-0.0304454,0.00512114,-0.00371019,0.0173949,-0.0166235,-0.00561315,0.0142948,-0.0136562,-0.0195639,0.0163094,-0.000516375,0.0169242,-0.0049988,-0.0199369,-0.000782871,0.014525,-0.0283109,-0.00150944,-0.0254309,-0.0120358,-0.000195932,0.00359364,0.00130589,0.0418637,-0.00574131,-0.0121755,0.0128352,0.0121688,0.0155342,0.00204346,7.00701e-05,-0.0295316,-0.00189914,0.000203711,0.00356584,0.0594522,0.00435601,-0.0140486,-0.0161283,0.00542317,-0.0289946,0.0264818,0.00377172,0.00422159,-0.0205203,0.0108495,0.0120554,-0.00746928,-0.0259907,-0.00693701,0.00550801,0.0273875,0.0207594,-0.0292424,-0.00890777,-0.0289592,0.0554083,-0.00132687,0.0278121,-0.0073236,0.00018012,-0.00159754,0.0433657,-0.0109649,0.0152286,0.00877493,-0.00503785,-0.0230131,-0.0242061,-0.0342681,0.00102909,-0.00912694,0.0267595,0.000355128,0.0174915,-0.0511503,-0.0621392,-0.0164593,0.0656993,0.0179236,-0.0708562,0.029936,-0.0103579,-0.0324855,-0.00227901,0.00375129,0.0136654,0.0153032,-0.035468,-0.0435868,0.0283897,0.0069514,-0.0210288,0.00935917,0.0313094,-0.0241865,-0.00196515,0.0160845,0.00616242,0.0230203,0.00296747,0.0161451,0.00102235,0.00242626,-0.00532741,0.00552027,-0.00755016,-0.00512717,-0.0120406,0.00657904,-0.0106995,0.000180413,0.00193567,-0.0110312,0.0207855,0.0158118,-0.0183554,0.00874452,-0.00805618,0.0018699,0.0440666,0.0054443,0.0201349,0.00909733,-0.0113353,-0.00964814,-0.0266213,-0.0204884,0.0290399,-0.0162087,0.0259491,-0.0306782,0.0177411,0.0287209,0.00242088,-0.0181016,0.0152819,-0.0139562,-0.0152287,0.0113746,0.0176663,-0.0226371,0.0121519,-0.0035056,-0.0116875,-0.00064333,0.0025083,0.016261,-0.00972213,0.0059547,0.0451637,0.0102618,-0.0280007,0.0174087,-0.00104706,0.00574689,0.0116444,-0.0259892,0.0212764,-0.010352,-0.00274031,0.00204886,-0.0245529,-0.00593026,0.0176096,0.0378744,0.0154173,0.0195338,0.054725,-0.00485151,-0.00739771,0.0136824,-0.00912367,-0.0292484,-0.0038991,-0.011181,-0.00452516,-0.0017597,-0.0234335,0.0298479,-0.00203586,0.00749026,0.0304006,-0.0383071,-0.027086,-0.0215523,0.0355051,0.00662229,-0.000499381,0.0169925,0.0136272,-0.00975935,0.00515831,0.00260285,0.0241542,-0.000242423,0.00630678,0.0205361,-0.0183327,0.00780685,0.000546814,-0.0021369,-0.0239422,0.0214155,0.013933,-0.0103179,-0.00862232,0.0100324,-0.00429085,-0.00117502,0.0206031,0.0268218,0.0135369,0.00660231,0.0051447,0.0322492,0.0244673,0.0164001,-0.00689935,-0.021193,0.00240657,-0.00771135,0.00193829,-0.0354255,-0.00247135,0.015818,-0.00362729,-0.0354818,0.0155655,-0.00192849,0.0459831,-0.0159822,0.00883752,0.0490267,-0.014116,-0.0325144,0.0152911,0.0251197,0.0115518,0.0174984,0.00430702,-0.00474595,-0.0154436,0.0121093,0.00392297,-0.0072683,0.0243409,0.0141385,0.0250062,0.00949408,-0.011354,-0.00544586,0.0203753,0.012957,0.0103456,-0.00766864,0.0102787,0.00997404,0.0224478,-0.00445864,-0.0139657,0.000418078,-0.0154946,-0.0089833,-0.0248853,0.0306633,0.0255299,0.0133989,-0.0122383,0.0582583,0.0180102,0.025193,-0.0239211,0.00134444,0.00461101,0.0173901,-0.0492861,0.0191799,0.0250553,0.016593,0.00382678,-0.0177019,-0.0227687,0.00520395,-0.0279224,0.0086919,-0.0350367,0.00474247,0.00852397,-0.038315,-0.0135763,0.0133661,0.00634193,0.0300832,-0.0133679,-0.0107253,0.0566459,-0.0103753,0.0263472,0.0214971,-0.021379,-0.00605728,-0.00282624,0.0450995,-0.0186662,0.0205737,0.0402626,-0.0198799,0.0346072,0.0290755,0.0264137,0.0158217,-0.0281454,0.00218045,-0.00518992,-0.00893707,-0.0201941,-0.0122599,-0.0442704,0.0146524,-0.0124496,0.0256633,-0.00273629,0.00299121,0.0114019,-0.00838786,0.00409639,0.0302591,-0.00681497,0.00557109,0.00610542,-0.015939,0.0260375,0.0145186,-0.0397282,0.0353394,0.00909564,0.0225654,-0.00922704,0.00573712,-0.0118747,-0.0198303,-0.000283297,0.0238849,0.0482014,0.00720748,0.020277,-0.0357962,0.0101652,-0.0287342,-0.0130596,-0.00796128,0.0217469,0.00619404,0.0106378,-0.0223868,0.0151907,0.0239418,0.011627,-0.0301054,-0.0106427,0.0488319,0.0021309,-0.0127911,-0.00953201,-0.0176385,-0.000508916,-0.0284297,-0.0376802,0.0269568,0.00923678,-0.00935611,-0.00989367,0.0145979,0.0381183,-0.0167722,-0.0107727,0.00406135,0.0219879,0.0550027,-0.0163229,-0.0131883,0.0112429,-0.00444776,0.00633037,-0.00767756,-0.00572453,0.0298505,0.00489788,-0.019057,-0.0188914,0.000989524,-0.00578515,0.02312,0.00894731,-0.00507926,-0.0108774,1.5593e-05,-0.00115804,0.0197501,-0.0101524,0.0410379,-0.0547321,0.0156099,0.0189508,0.0012003,-0.031942,0.00020791,0.0301776,-0.0286584,-0.0191612,-0.0242962,0.0253361,0.0433967,-0.00974149,-0.0288061,0.0123115,0.0276889,-0.0316171,-0.0432899,-0.0104243,-0.0477519,-0.00383425,0.0173377,0.0215974,-0.00926859,-0.0140871,-0.00597766,-0.00138571,0.0131565,0.0211735,0.00250706,0.0259343,0.00253255,-0.00921493,-0.00281734,0.0131253,0.0381247,0.0101759,-0.00281782,0.00128017,-0.0379212,-0.0179314,-0.0219415,0.0184241,0.0191438,-0.025002,-0.0237714,-0.0002746,-0.0275345,0.00400406,-0.0231359,0.00352819,0.0197113,-0.00853158,-0.00835272,-0.0320523,-0.00886953,-0.0316073,-0.0212472,0.0187399,-0.0206704,-0.00278227,-0.00731979,-0.0212851,-0.0105226,-0.00345514,0.034338,0.0288898,0.0109258,-0.0284867,-0.0115436,0.0116968,-0.00669502,-0.0152435,0.00709993,0.0362436,0.0160934,0.0295722,0.00545916,-0.00329075,0.0292432,-0.006281,0.0226051,-0.00646345,-0.000346392,0.00625163,-0.00813819,0.0216648,0.0191158,0.0177138,-0.00127738,0.017347,-0.00100784,-0.00573387,0.00807916,-0.010778,-0.0285533,-0.0256099,-0.0128145,0.0548086,0.0034167,-0.0149618,-0.00555941,-0.0132426,0.000561266,0.00118344,0.0107647,0.0521335,-0.00246647,0.00455486,0.017748,-0.00624503,-0.00502056,-0.044348,-0.0223825,0.00945882,0.0451848,0.000593859,-0.0166671,-0.0171417,-0.0168929,0.00108386,0.0285156,-0.051228,-0.00915785,-0.0238308,-0.00682918,0.00582656,0.0128673,-0.011607,0.0227141,0.0144816,0.00636078,-0.00492927,-0.00591815,0.00178107,0.00904491,0.00748747,0.0194192,-0.0358493,0.00268403,0.0125983,0.00991279,-0.00167695,0.0148494,-0.00664689,-0.00432693,0.0119721,-0.0271224,0.0191888,-0.00544537,-0.0133763,0.0102091,0.00404552,-0.0141918,-0.000420197,-0.00105589,0.00510068,-0.0251057,0.0005767,0.00300347,-0.0341289,-0.0274874,-0.0313611,-0.0137308,-0.0285763,0.0222321,0.00739333,0.00429423,-0.0232862,0.013584,0.0130984,-0.00525584,0.00659539,0.0204463,0.00194431,0.000760717,0.0168862,-0.0174109,-0.000841552,-0.0308214,-0.0355256,0.00128732,-0.00181916,0.0160558,0.0527596,0.0264797,-0.0230925,-0.032578,-0.0133796,-0.0042506,0.00230127,-0.00239486,0.0312925,-0.0227417,-0.0292842,0.024113,0.00163878,-0.000938428,-0.0114784,0.0105208,-0.0324915,-0.00300329,-0.0196614,-0.0440322,0.000551143,0.0136222,0.0154398,-0.0029009,-0.0099894,0.0314204,-0.00634384,0.0149035,-0.00184306,-0.00621959,-0.00336913,-0.0352907,0.00301701,0.00450952,-0.00720383,-0.0116734,0.0113603,-0.00011959,0.00706199,0.0106525,0.0273882,-0.0185377,0.0179582,-0.00776164,-0.0481938,0.0458886,0.0368938,-0.0139759,-0.00629145,0.023575,-0.000321872,0.0122589,-0.0329539,-0.016298,-0.0302309,-0.00756578,-0.0331021,-0.00563473,0.019541,-0.0082333,-0.0272313,-0.0119868,-0.0495708,0.0431725,0.030391,0.0254101,0.000731687,0.00825045,0.000308099,-0.00961766,0.00389962,-0.0149829,-0.010318,-0.0238744,0.017754,0.0227219,-0.00283782,-0.0121782,0.025874,0.0161008,-0.00946906,0.0208892,-0.00670107,0.00936801,-0.0652025,0.0321121,-0.00162163,-0.0216612,0.0233567,-0.0204383,0.0136463,0.00606563,0.00331567,0.0227236,-0.00494754,-0.0348666,-0.0143614,0.0141887,-0.0129183,-0.017905,0.0115212,0.00308881,-0.0101374,-0.00786264,0.00245574,-0.00889923,0.00352385,0.0368049,-0.0502432,0.0108948,0.0323113,0.0275193,0.00189251,0.0182228,0.00662948,-0.0228617,-0.021665,-0.0295285,-0.026193,-0.00445775,0.0115302,-0.00113856,0.062475,-0.00549237,0.0150459,0.00644983,-4.96064e-05,-0.0478728,-0.0309758,